{"layers":[{"out_depth":192,"out_sx":1,"out_sy":1,"layer_type":"input"},{"out_depth":192,"out_sx":1,"out_sy":1,"layer_type":"fc","num_inputs":192,"l1_decay_mul":0,"l2_decay_mul":1,"filters":[{"sx":1,"sy":1,"depth":192,"w":{"0":-0.009960623373269679,"1":-0.09211753202275204,"2":-0.043851359439586686,"3":-0.04223888604060217,"4":0.00386410982114158,"5":-0.09576400126455265,"6":0.030018017602640206,"7":0.04149903365664479,"8":-0.07149215792539766,"9":0.0064450465024379925,"10":0.05464079318032127,"11":-0.03274616752901475,"12":-0.03901549199107844,"13":0.07869487426671955,"14":0.09211928549612355,"15":-0.012384049063889171,"16":-0.02106242913305438,"17":0.01606328036748419,"18":0.0313831116856572,"19":-0.026693058101828305,"20":-0.013608938127429665,"21":-0.06628713188312649,"22":0.005506836716551453,"23":-0.06183858386500265,"24":-0.004821347675365899,"25":-0.004225191884905918,"26":-0.0677471592002221,"27":-0.03706932802487372,"28":-0.028990027150543357,"29":0.08815504430737411,"30":0.017906367047629917,"31":0.005142235407920388,"32":0.031415545745965175,"33":0.007260149353755261,"34":0.11179600330502273,"35":0.10213803510737783,"36":-0.024459553770105995,"37":-0.04361102595976655,"38":0.07704043380347882,"39":0.0012401413559232353,"40":-0.027206885772612023,"41":-0.03635997033004973,"42":-0.015267075768351786,"43":0.0018945996225997197,"44":-0.04522972311763567,"45":0.09676871321975562,"46":-0.024881568223152403,"47":-0.05810351435764804,"48":0.04960356696073707,"49":-0.0562633593584459,"50":0.08154511797827749,"51":0.07045544322855359,"52":0.02763947806899962,"53":0.04265980250971889,"54":-0.020306341387889056,"55":-0.06461852546775644,"56":-0.04789472663104009,"57":0.058376658013413345,"58":-0.013218265158102245,"59":-0.03784844753179172,"60":0.019895004906572755,"61":0.08222550788369724,"62":0.016873097980356844,"63":-0.016955229488400995,"64":0.0012920285283254272,"65":-0.0486901439027651,"66":-0.01624250016781656,"67":0.032160273506289576,"68":-0.0593599365945081,"69":-0.048030465471355636,"70":-0.027294431493958656,"71":-0.15903881873309533,"72":-0.11064789207085717,"73":-0.10408498054841024,"74":-0.0033783761762007473,"75":-0.011397835724765248,"76":0.08372774393273984,"77":-0.05073618325922882,"78":0.059106267309496086,"79":0.03995007570055081,"80":0.10293574895926295,"81":0.02109153346432126,"82":-0.09236311413292961,"83":-0.005214475700972482,"84":-0.01831383862182235,"85":0.06217898880822004,"86":0.02474796532575516,"87":0.04309747458599412,"88":0.01915935507761678,"89":-0.02442042391406696,"90":-0.034431594598406653,"91":-0.09315456142861046,"92":0.03946839923454875,"93":0.03227307477333294,"94":0.11593941071691152,"95":-0.10085741887152484,"96":0.003945096306969949,"97":-0.0410119674588831,"98":-0.018009375119382522,"99":-0.001337587436357282,"100":0.028041802513459464,"101":-0.15332769576033073,"102":-0.04597050919041133,"103":-0.0657183156659742,"104":-0.06110961342296281,"105":-0.032659488798653484,"106":0.04640220456871782,"107":0.03515447001232545,"108":-0.06337802905526224,"109":-0.07989025454575377,"110":-0.019941442742916857,"111":-0.029401815106931677,"112":-0.029643786402603043,"113":0.037707524734392865,"114":-0.02664434403934443,"115":0.048863977692124055,"116":-0.007951480633663592,"117":-0.10202865790689206,"118":-0.11593998535584805,"119":0.023984278390011347,"120":-0.08807249187013502,"121":-0.04126493786660082,"122":0.1530105118124299,"123":0.022997976389902187,"124":0.11350269758365131,"125":0.0456714338761026,"126":-0.05849097181194389,"127":-0.029577744152010806,"128":-0.06315381238323557,"129":0.051876805369920405,"130":0.04192567062669547,"131":-0.1065006379483836,"132":0.1197532964701116,"133":0.03324410772553961,"134":0.005590352688756383,"135":-0.12458551973998729,"136":0.1100806641818248,"137":-0.04220014491310881,"138":-0.020219273681127886,"139":-0.09005084384714335,"140":-0.03481385989683531,"141":0.027864270244878496,"142":-0.08346292553947496,"143":-0.040327710405452084,"144":-0.06845780187088459,"145":0.03421521109292455,"146":-0.007582791922221427,"147":0.12614783567051485,"148":-0.04852545144832901,"149":-0.006198532643687714,"150":-0.03648562460922275,"151":0.10105183299170829,"152":0.00470682169526864,"153":0.003440375963448347,"154":-0.05517508788162171,"155":-0.07443720818039541,"156":0.02543002573644418,"157":0.050259703601577416,"158":0.08607450189261283,"159":-0.017286620981458802,"160":0.07123990411299787,"161":0.08216821457589456,"162":0.0026789312414759836,"163":0.08141778270182438,"164":-0.11313434890996667,"165":0.027500563823118915,"166":0.20230515962547813,"167":-0.10418396353453925,"168":-0.0996574711533872,"169":0.028909524549407362,"170":0.00032444747635855054,"171":-0.07185748931788569,"172":-0.08908515247945013,"173":-0.05596763992118883,"174":-0.05571573987559454,"175":-0.07713094052236395,"176":-0.020532936131309257,"177":0.09521659719016516,"178":-0.03903693268918917,"179":-0.014654376860861837,"180":-0.02512257100987219,"181":0.15420384989379218,"182":-0.04571522430344341,"183":0.010414118316889256,"184":-0.04832169693753952,"185":0.027472780156796845,"186":-0.02197845686637265,"187":-0.05790434960360967,"188":-0.05014323450561743,"189":-0.04304865071292421,"190":0.005183422303419036,"191":0.04969467210070904}},{"sx":1,"sy":1,"depth":192,"w":{"0":0.04751102702821621,"1":-0.08220797028591759,"2":-0.012661351552235451,"3":-0.058446108778053306,"4":-0.03417189251134857,"5":-0.023930285084895038,"6":0.0758852344041813,"7":-0.07416228104916915,"8":0.012423053790182484,"9":-0.03097978023306706,"10":-0.1318771077423749,"11":-0.06777024801296572,"12":0.02244630052229701,"13":0.04221475169144569,"14":-0.055927317923758636,"15":-0.02566517447198931,"16":-0.06839669239021723,"17":0.054194603051521226,"18":-0.1629939861593616,"19":0.05630413816886134,"20":-0.022407956567161547,"21":0.05351331915556896,"22":0.058406567040840504,"23":-0.10436340352393601,"24":-0.0305475101203618,"25":0.1345779128531309,"26":-0.08634950148969144,"27":-0.0018921273157541003,"28":-0.0380908988668545,"29":0.0509893284225168,"30":0.10972572288657188,"31":-0.05623452936987609,"32":0.04018365883461267,"33":0.08739750712399229,"34":0.00038606494932670317,"35":-0.029209780502850887,"36":-0.07856421071046747,"37":0.013381557673734253,"38":0.041127004620955,"39":-0.08274524615406663,"40":0.08794274179067028,"41":-0.01942348820458428,"42":0.06777726724811844,"43":-0.1261251326334981,"44":0.03881590381205247,"45":0.074171929588178,"46":0.012455360113520232,"47":-0.09744444108383278,"48":-0.012379053634497686,"49":-0.007525489688931315,"50":0.07370751096033257,"51":0.05836733507611795,"52":-0.14135274136641168,"53":-0.06428685317645438,"54":0.02995877502456888,"55":0.036563074305133524,"56":-0.012459221554250685,"57":-0.027297960911425674,"58":-0.017634934129140137,"59":0.1426441261420674,"60":0.03151304551793783,"61":-0.0022210546021700257,"62":-0.0758035182059969,"63":-0.14411202392834155,"64":0.0044698930005975315,"65":-0.08129997858649092,"66":-0.018649724568283052,"67":0.0412557239593041,"68":-0.020931546428256422,"69":0.0026203431924761273,"70":0.03557403418585372,"71":0.007302077813890571,"72":-0.08456617189454192,"73":-0.08113367923193304,"74":0.07939248151426882,"75":-0.09547323205875283,"76":-0.010835767094771052,"77":0.11898879663439406,"78":-0.048327092478490485,"79":0.027186405151796784,"80":0.022399181600299467,"81":0.0040370760580332125,"82":-0.16803513158599329,"83":-0.08468946720665071,"84":0.007878561489595221,"85":-0.08156408006302973,"86":0.03223344006389028,"87":0.08472754102032622,"88":-0.013674386362495752,"89":-0.05868681929109464,"90":-0.06050171701930393,"91":0.048179505053631264,"92":0.1501503743827315,"93":-0.02015482319890331,"94":-0.046462073797603455,"95":0.05924995796802518,"96":0.022561810524680665,"97":-0.012984701647621118,"98":-0.0681635077678589,"99":-0.08795849463661326,"100":0.048213483232521406,"101":0.024433989050036752,"102":-0.09813138669245239,"103":-0.02056236846327919,"104":0.1121487322752916,"105":0.1160992522388681,"106":0.07933499008314784,"107":0.0032236863326883768,"108":-0.12078531596815455,"109":-0.049222028732546046,"110":0.010956685032559175,"111":0.06674890064570484,"112":-0.052297773721302954,"113":-0.018883087913773407,"114":-0.052166885652304644,"115":0.00016647050745683897,"116":-0.09712686752965898,"117":0.0729176442189139,"118":-0.009021373328224886,"119":0.09631115967220183,"120":-0.023340311013766282,"121":0.07774678705459127,"122":0.05219555289901965,"123":-0.16441806198194697,"124":-0.11422032497444129,"125":-0.0698245721224822,"126":0.1102149091348391,"127":-0.04325904457477614,"128":0.007965113189758217,"129":0.07236631457539842,"130":0.0275174899536978,"131":0.06907826152491156,"132":0.05834421675827197,"133":0.08560267292002893,"134":0.022298613274909257,"135":0.016546353324652215,"136":0.03251135618048305,"137":0.05238583584871317,"138":0.007856840745634874,"139":-0.0004249871722587395,"140":0.004091023704428321,"141":-0.03163920359417775,"142":0.007860731996825028,"143":0.05302857736634968,"144":0.030024366869367283,"145":0.06631638438617345,"146":-0.03781347979379909,"147":-0.0006445073962559418,"148":-0.04334537668832786,"149":0.009530011333262535,"150":-0.06115000381405183,"151":-0.07135263022310978,"152":-0.00466757749607352,"153":-0.011101391927218075,"154":0.06066327499757667,"155":-0.015047619385811367,"156":-0.010145461084769438,"157":0.011667722794965099,"158":0.040669430425159685,"159":-0.023895595998505534,"160":-0.02284937481649676,"161":0.013805132677076563,"162":0.07073152730608923,"163":-0.12255739975809565,"164":0.08498190535227117,"165":0.061959101980671484,"166":0.05165764680795715,"167":0.035882156203947906,"168":0.0037016238593422057,"169":-0.12041817856146042,"170":0.01748260687558464,"171":0.014967732234107557,"172":0.0019710318006903173,"173":0.09093299820376986,"174":-0.030544268010663417,"175":0.007524537279078246,"176":-0.06841302423606299,"177":0.00953293808750729,"178":-0.038744428111639785,"179":-0.04982209563231416,"180":0.015996603208036662,"181":-0.05626202238367021,"182":-0.01749984992687732,"183":0.07719154057857695,"184":0.05489268009721436,"185":-0.036038828972416656,"186":-0.036195773454321935,"187":-0.0026619583965525606,"188":-0.058135719549676536,"189":0.009957266340739788,"190":0.05362191910739838,"191":-0.03667255500395971}},{"sx":1,"sy":1,"depth":192,"w":{"0":-0.03977059764795823,"1":0.008497569160843188,"2":-0.02794077613622195,"3":-0.03867557542108034,"4":-0.09530362177645235,"5":-0.05060241654186796,"6":0.005340099578958936,"7":-0.010809418449811243,"8":0.03212077339244542,"9":0.042108343421191984,"10":-0.04215247455409358,"11":-0.09820694553655936,"12":0.006147695848234177,"13":0.05233723355810076,"14":-0.12086458201439515,"15":0.13806013906646253,"16":-0.0056371799027441155,"17":0.002327957404879475,"18":-0.04044509296464499,"19":-0.0006213094808916313,"20":0.004010012771788688,"21":0.026307475818462867,"22":-0.0644068605376705,"23":0.017823502859325036,"24":0.1318031131709872,"25":0.010528176967512326,"26":0.03347175903192398,"27":-0.016931645951197997,"28":-0.09065664272593575,"29":0.02485717416494865,"30":-0.05279343928649547,"31":-0.053743888377515724,"32":-0.014930468327056414,"33":0.027557064504711334,"34":0.059881082035519076,"35":0.00557751379243358,"36":0.021013348995812597,"37":-0.017192502995843954,"38":-0.05982292423753346,"39":0.06634528180594917,"40":-0.11466893647769096,"41":0.02902035443143557,"42":0.05254272638824618,"43":0.016247134196353305,"44":0.07045152875677856,"45":0.007415414929554815,"46":-0.04624683101657683,"47":-0.060514178825723026,"48":0.12654746242744488,"49":-0.02470697661493839,"50":0.018554098852041734,"51":0.07453612615047078,"52":-0.04354818905866805,"53":-0.03575531623688499,"54":-0.04440632549737799,"55":-0.043857988353920976,"56":-0.03824498656920232,"57":-0.04159890557328542,"58":-0.049656731774678844,"59":-0.06658069546494406,"60":-0.043705988046197033,"61":0.13995758875715983,"62":0.02094242556710335,"63":-0.07216439086281781,"64":-0.004692700417823801,"65":-0.04693948687152703,"66":-0.008627881838307564,"67":-0.09826258916003099,"68":-0.053422325531762266,"69":0.03516933535461943,"70":-0.01653831689130462,"71":0.01522366757816657,"72":-0.07580697459281797,"73":-0.019788834196042417,"74":0.11583554741097478,"75":-0.042409544346620344,"76":0.042391638671936786,"77":-0.08311880210669995,"78":-0.09768140169428238,"79":0.010764941767829389,"80":-0.08313040551567132,"81":0.0064198854997109395,"82":0.005600461684808897,"83":0.11977238011063795,"84":0.030614278462539713,"85":-0.02622933439440929,"86":0.07076832183416452,"87":0.04820494362521755,"88":0.014183730265617572,"89":-0.10750338213190803,"90":-0.04542137244624731,"91":-0.0009003520571843718,"92":0.01461891667755148,"93":-0.11020668099289144,"94":-0.06483880589869695,"95":0.014435722523420295,"96":0.005385424307511447,"97":0.009980285119752163,"98":0.028151065261325527,"99":0.05352139432647068,"100":0.1448270772169612,"101":-0.050758301741055695,"102":0.11408524357087398,"103":0.13081372931484433,"104":0.04083729364675514,"105":0.07925722049691704,"106":0.068094531875992,"107":0.024996314243140215,"108":-0.002847415517837886,"109":0.04677889059153775,"110":0.018207738474017545,"111":0.0027883294331417304,"112":0.030141096523900002,"113":-0.0035363294007728363,"114":0.11208638446636865,"115":0.08780429550308452,"116":0.026905672773452856,"117":0.0309395802271365,"118":0.10264893937487546,"119":-0.04307550587665732,"120":0.14491063580571992,"121":-0.13323014965229352,"122":0.13088173023494498,"123":0.026549533980757233,"124":-0.09139806915949535,"125":-0.011870150969425074,"126":-0.038877809448953124,"127":0.0450342492904683,"128":-0.1239998549224298,"129":-0.09396495607861255,"130":-0.0606243801233125,"131":-0.03885907697588001,"132":0.0014514091686197166,"133":-0.03745529809468174,"134":0.10161316914361039,"135":-0.020980128236488454,"136":-0.0839328676370511,"137":-0.016692956744061065,"138":-0.05106929914398364,"139":-0.002317624668976404,"140":-0.09533149031749917,"141":-0.017979410524630573,"142":-0.05856866078742208,"143":0.026632638541478813,"144":0.0213230948468933,"145":0.05349194277547835,"146":0.10149014091531186,"147":-0.023097605738125526,"148":-0.06882808482603625,"149":0.07559676870331623,"150":-0.054248852848639804,"151":0.00246797404319106,"152":0.03727923241814728,"153":0.14455105346544875,"154":0.04281966547784157,"155":-0.05027923295151254,"156":0.022750022493430506,"157":0.024565986141038193,"158":0.0655869016933286,"159":-0.013518847165858546,"160":0.012264950496084094,"161":-0.046565421899761254,"162":-0.01249136638876222,"163":0.010360662057375127,"164":0.06539826127336182,"165":-0.05801095663704226,"166":0.011462737477148387,"167":-0.013860172274270938,"168":-0.0017513397493589648,"169":0.004058208065948722,"170":-0.0375233636120015,"171":-0.017464025526644278,"172":0.024713462482208917,"173":0.08308890683000816,"174":0.13602138249250595,"175":-0.043061322298470706,"176":-0.16477193310883465,"177":-0.020073859846286495,"178":-0.11132960144207305,"179":0.12085098864627918,"180":0.004144199865313341,"181":-0.03716043093577977,"182":-0.04590305294053918,"183":-0.04329396287744312,"184":-0.007425121006485488,"185":0.04557126871100132,"186":-0.05851034195139592,"187":-0.10477452942463408,"188":-0.09723641492581009,"189":0.042454758992188764,"190":-0.0021034129033670065,"191":-0.09773243294325858}},{"sx":1,"sy":1,"depth":192,"w":{"0":0.025437467479342227,"1":0.0761309166337953,"2":0.013792582414953096,"3":0.03437338140275138,"4":-0.005491138510940916,"5":-0.02241698640386389,"6":0.08232238115288988,"7":0.05684564424751147,"8":0.051098606771637356,"9":0.09865912072581241,"10":0.09630330175334136,"11":-0.06046385891946634,"12":-0.05244380702079757,"13":-0.1068684899453229,"14":-0.006077240194808862,"15":-0.0835264471466285,"16":0.03299708119784623,"17":-0.10406271643957274,"18":-0.02128192722610102,"19":0.07330113772909432,"20":-0.1081334503820941,"21":0.0016093692728852956,"22":-0.04035214102157757,"23":0.007250792174373716,"24":-0.07217719290790095,"25":0.043673018298585956,"26":-0.06340962813995159,"27":0.017594563490831303,"28":-0.08658607831801253,"29":0.05756095953605984,"30":-0.06687444215345444,"31":-0.09339139636234577,"32":-0.028822212568874066,"33":-0.079079479224687,"34":-0.01706963383584681,"35":0.07316327606945784,"36":-0.014467728058951121,"37":-0.0021154130775758936,"38":0.056647470680986314,"39":0.03193469020587419,"40":-0.07642808040802111,"41":0.07595746040903914,"42":0.01154593742370181,"43":0.012515178901834447,"44":-0.09564058001449428,"45":0.05717103569945829,"46":-0.05234614942229412,"47":-0.0857316776393325,"48":-0.10137545308964567,"49":0.03264576656431996,"50":0.0211299820441105,"51":0.10259085768814319,"52":0.002420750613751535,"53":-0.029490773570536394,"54":0.03037871862637554,"55":0.024349711254819793,"56":-0.03127703053019691,"57":-0.045606238651575495,"58":0.0643462880684444,"59":0.008011847203809682,"60":-0.007959489471470446,"61":-0.07381749737133787,"62":-0.08377523015941597,"63":-0.07404199951766231,"64":0.03148793970241484,"65":-0.09322409233889316,"66":-0.015924562240389004,"67":0.05800534375527261,"68":-0.08808490703652071,"69":-0.06377807371285593,"70":-0.09062905508340059,"71":0.037326839002937665,"72":-0.07801132050380484,"73":-0.05799339672110194,"74":0.03496606669191871,"75":0.03258527527520835,"76":-0.05912150606918807,"77":-0.049425625708810955,"78":-0.07249964349270921,"79":0.10030059007315185,"80":0.0034739294339621507,"81":0.01704314605004496,"82":-0.0754111454509765,"83":-0.009165173327020645,"84":-0.10834151255700696,"85":0.010763242677315765,"86":-0.010288147023510056,"87":-0.07580154538170404,"88":0.026012466111332396,"89":-0.01674369894320009,"90":0.038158251689960655,"91":0.06802969869912326,"92":-0.002293461934262625,"93":-0.00065229235292594,"94":0.04557522298903546,"95":0.07673325721509934,"96":-0.042220458125232126,"97":-0.020114064387456495,"98":0.015503144058175326,"99":0.10103988290169809,"100":-0.0625758153140625,"101":-0.03686799357433094,"102":0.006678399749615294,"103":-0.0026683590880462074,"104":-0.09147445525751571,"105":0.05178608790052345,"106":0.15206639198526714,"107":-0.052582435003774686,"108":0.0773650997114249,"109":0.0041121817827786305,"110":0.08534081777402061,"111":0.06884497924454185,"112":0.007511293441979647,"113":0.009576338872539654,"114":-0.057546814980393116,"115":-0.036118314900933764,"116":0.015330618423530286,"117":-0.020439330518987418,"118":0.048200502716698505,"119":-0.04698687099740538,"120":-0.0438845599751754,"121":0.02887382528537656,"122":0.0022609751281827033,"123":-0.0712768350138245,"124":-0.04920089419709339,"125":-0.051118390298661304,"126":-0.07590162522977878,"127":-0.06493476503166754,"128":-0.04965916540951881,"129":0.03542776360781114,"130":-0.05514439183266452,"131":-0.01483755912021795,"132":0.0197470360714164,"133":-0.17870722208314196,"134":0.01670963566669682,"135":-0.04606167656114111,"136":-0.012315230063303895,"137":0.0017969912189291903,"138":0.05881624239939441,"139":-0.09561009390534046,"140":0.01134326326688304,"141":0.09429442856193568,"142":-0.07678465716235104,"143":-0.011366059528486018,"144":-0.014590039139350626,"145":-0.028746771203102914,"146":0.04433861169700878,"147":0.048497515639983654,"148":-0.03227471568226065,"149":0.04331397168678051,"150":0.09574753602657342,"151":-0.016139476853000725,"152":-0.05538903742482876,"153":0.0889959161142692,"154":0.00786950442623908,"155":-0.00755039603866481,"156":0.08275933805617584,"157":-0.04756228271534022,"158":-0.11596505243035433,"159":0.0030061579240636613,"160":-0.01974627875762955,"161":-0.05976681098913167,"162":0.04650711080180571,"163":0.01908454211284002,"164":-0.01235921653038647,"165":-0.06798767068253006,"166":0.10365790371015617,"167":-0.031379884886284085,"168":0.0288191736109918,"169":0.01252528360869618,"170":-0.05211884158522044,"171":0.03518131005952378,"172":0.030903568159918356,"173":-0.16220957253944435,"174":0.03494797330760541,"175":0.048233588308202055,"176":0.014838668596632637,"177":0.038640636471425835,"178":-0.04081943567227117,"179":-0.03578206126725593,"180":0.017582851491943444,"181":-0.0255445083935136,"182":-0.01681021085998251,"183":-0.0311738570771522,"184":-0.04592744531622976,"185":-0.11189296204115295,"186":0.01076550475128626,"187":0.04459327782794896,"188":0.016713209665559333,"189":0.018046023419285365,"190":-0.013670099390372933,"191":0.04146675122380865}},{"sx":1,"sy":1,"depth":192,"w":{"0":-0.011157559166177604,"1":-0.011458576213575987,"2":0.054039757087885824,"3":0.013297777958426321,"4":0.033432100295576805,"5":0.05874155811039778,"6":-0.0038099647782673988,"7":-0.054508223903694086,"8":0.09521378058348495,"9":-0.0461132346442167,"10":0.04832248724149593,"11":-0.06581024676951207,"12":0.06202035372139824,"13":0.03232687845355983,"14":-0.016242331938506945,"15":0.10596400971130249,"16":-0.10994147722338463,"17":-0.034539661125310255,"18":0.03606040277217505,"19":-0.019982906758765948,"20":-0.029256128439234502,"21":0.02532359597976209,"22":-0.07837771264431062,"23":0.05496721825858184,"24":-0.0387235692109402,"25":0.04141515181496583,"26":-0.011775860267129921,"27":-0.07496675548881511,"28":-0.0507910901355712,"29":0.006904501470545499,"30":-0.06183715314059038,"31":0.07870788618718197,"32":-0.02611931310204572,"33":-0.12667243803702144,"34":-0.037076831224780664,"35":-0.008420160389120473,"36":0.008158617114174578,"37":0.06323343051583798,"38":0.00128417971959241,"39":-0.052181836445420036,"40":0.0688649091213488,"41":0.022611443216777338,"42":0.07680958864620728,"43":0.03523757272159282,"44":-0.042948524739247096,"45":0.04169301227739833,"46":0.00008633402961563024,"47":0.10979429132912641,"48":0.04479317197532297,"49":0.07613371705393758,"50":-0.1974841592443334,"51":0.054754063443938045,"52":-0.009791609250950576,"53":-0.06744131028919857,"54":-0.08509813459642208,"55":0.05488917871379632,"56":-0.04793932039822676,"57":0.08087192442266751,"58":0.01254366589329723,"59":-0.07688066922421674,"60":-0.11946041352258521,"61":0.07789109126591841,"62":0.04589897136307124,"63":-0.0382677472566991,"64":0.16540798239859383,"65":-0.020965201401091902,"66":-0.07743507313193508,"67":-0.04830767046519443,"68":0.05040096050976316,"69":-0.0032359133967373283,"70":0.08487875119553143,"71":-0.056511338709523254,"72":0.017763112374405934,"73":0.0382236785289472,"74":0.019205603256029706,"75":0.026264050727772596,"76":0.009157466040956136,"77":0.01333718759595486,"78":0.03280627051271326,"79":-0.09460972322894362,"80":0.03968516567132628,"81":-0.04286339398212131,"82":0.09647081962496148,"83":-0.08221363282115467,"84":0.010732433797168145,"85":0.054158462766517645,"86":0.02570472722826211,"87":-0.06059415542670724,"88":-0.038473160473937326,"89":0.05080955307747953,"90":-0.011795374125541202,"91":0.016833747098164806,"92":0.05075665767007472,"93":-0.007680163743459707,"94":0.0721568214766404,"95":-0.032903423049075925,"96":-0.04213887731739696,"97":0.015448180791977073,"98":-0.0888788434501866,"99":-0.1062036308109984,"100":0.02482241019282425,"101":-0.02059483818652973,"102":-0.07146675257690221,"103":0.04757812328959827,"104":0.02738792195682386,"105":0.06471063306456609,"106":0.011541345746937041,"107":0.002060512500561397,"108":-0.02499217827388215,"109":-0.034235755691123644,"110":-0.007155438279970328,"111":-0.03302048813765361,"112":0.06363390453659137,"113":0.009280396373251796,"114":-0.0692984069253261,"115":0.06519884824029655,"116":0.000416933816960922,"117":0.0030978164536047633,"118":0.10640972577700895,"119":-0.09993965919890314,"120":-0.0674387429152281,"121":0.02275373400218452,"122":-0.08098960177479039,"123":-0.09208853048867234,"124":0.03910139273535548,"125":-0.08148482069702373,"126":-0.025150391206802722,"127":0.006890636193459386,"128":0.11949086228554809,"129":-0.0641215897515878,"130":-0.032497427838784884,"131":-0.12633189364615793,"132":0.03555965487727881,"133":-0.000336745785262961,"134":-0.16807530498955725,"135":0.09654510969490883,"136":-0.0030202889303174094,"137":0.01619682827691337,"138":0.03606131700829683,"139":-0.05075891055447438,"140":0.04153790968510698,"141":0.013514182849738328,"142":-0.005868608078867914,"143":0.025663632863272355,"144":0.0038849978933607897,"145":-0.003663266641255636,"146":-0.05118902368081637,"147":0.018998567722371993,"148":-0.11012127676323957,"149":0.08316098437229345,"150":-0.05417966708792398,"151":-0.09426270847669864,"152":0.00792117857328624,"153":0.06294280749873436,"154":-0.06092919742306632,"155":-0.07190782861112122,"156":-0.038281443277981685,"157":-0.06401871729147679,"158":0.03381892978380714,"159":0.043745598951074695,"160":-0.03357829429129836,"161":-0.01862876191815712,"162":-0.09191995736256414,"163":0.0038554123498124016,"164":-0.0698976928433511,"165":0.06840858322486014,"166":-0.01650300995136811,"167":-0.03367126541876432,"168":0.03581286708502453,"169":0.04978527935386097,"170":-0.01347476314244977,"171":-0.13246515036321752,"172":0.057852694880596384,"173":-0.07718563453933358,"174":-0.04633224295702222,"175":0.0013308309475818282,"176":-0.01432217616222365,"177":0.1393839234190247,"178":-0.016199409909708487,"179":-0.018962021258944858,"180":0.012742349302581541,"181":-0.057160755804911416,"182":0.09503124143151755,"183":0.0021324165182937237,"184":0.018110664416894656,"185":0.04071724554938687,"186":-0.06371956847062174,"187":0.0009373394930106879,"188":0.09402694148163662,"189":0.03614299377321679,"190":-0.20825178253293516,"191":-0.013251913947733998}},{"sx":1,"sy":1,"depth":192,"w":{"0":-0.07926349300326134,"1":0.08858302577469614,"2":0.06423766222185213,"3":0.03581953836189192,"4":0.014503650551526455,"5":0.07339157204019967,"6":-0.015919483968293926,"7":-0.0199898916257342,"8":-0.09305076540747259,"9":0.06584074769794207,"10":-0.06139798885978883,"11":0.05459335355975532,"12":0.06595593635393038,"13":0.033197010179308796,"14":-0.044233614025880094,"15":0.008990101479363105,"16":0.12590701741357382,"17":-0.06157888212518635,"18":0.02783088693229801,"19":-0.047941997988923624,"20":0.09277028872946197,"21":-0.006008928916752222,"22":0.03935699155438639,"23":0.008931020705547039,"24":0.04494170187887633,"25":-0.0707213393206947,"26":-0.002357676965835093,"27":0.030122861907509024,"28":0.046985161997239185,"29":0.02116734430904752,"30":0.06373588516977025,"31":0.026969630284771375,"32":0.03528701204477139,"33":0.033170722301607884,"34":0.03781314145776427,"35":-0.026069009060677634,"36":0.07483559408790286,"37":0.009136287642682659,"38":0.030158714571996485,"39":-0.011481165630152003,"40":0.05232228994319695,"41":0.06479471549166789,"42":-0.017553649846741046,"43":0.06201687125269675,"44":-0.018455149967371715,"45":-0.05872828192426556,"46":0.053309101465914686,"47":-0.004762670833989086,"48":-0.028599372719080026,"49":0.020247945213126665,"50":0.057584252315122875,"51":0.024698567770183547,"52":0.0197574893531179,"53":0.029776065025973502,"54":-0.0397346653288709,"55":0.07612378740286514,"56":0.10535435992649982,"57":-0.03165678572713078,"58":-0.061274987654206976,"59":0.04597854746995769,"60":-0.011130046592140475,"61":0.03752775844584707,"62":0.06071528677526794,"63":-0.05606893466372895,"64":0.19223628682773822,"65":0.02915481207308266,"66":0.007201737899876541,"67":-0.02332794330627514,"68":0.16911012154456742,"69":0.05410468590456512,"70":-0.10247450853645301,"71":0.023591996395651273,"72":0.05422335206553273,"73":-0.0724060125070456,"74":0.03250447958475234,"75":0.04573366049097381,"76":-0.014341642333552052,"77":-0.06509952380985812,"78":0.1190923550139081,"79":0.033825439390114787,"80":0.006127062530963909,"81":0.012344614325590574,"82":0.04401615325476423,"83":-0.04855264559026621,"84":0.02024665929395784,"85":-0.08370249179399059,"86":0.05130875262690356,"87":0.013754821042488095,"88":-0.022501370998934837,"89":-0.07850391196067384,"90":0.08095794477014823,"91":0.02217204596763387,"92":0.0839078050227181,"93":-0.04322916765467804,"94":0.006110692827695965,"95":0.06917824895014697,"96":-0.05938544168145787,"97":-0.04058224920477416,"98":-0.032411683042913426,"99":-0.00733796046261965,"100":0.07085423662799903,"101":-0.11007463195713425,"102":-0.036402538174344024,"103":-0.06555246195804759,"104":-0.07295650404113563,"105":0.1097843380245899,"106":0.08972778920931343,"107":-0.06875892570576973,"108":-0.006149271993203171,"109":0.03946320150098933,"110":0.10708675308038436,"111":0.012074746906920324,"112":-0.05507944556194976,"113":0.016602042123955395,"114":0.05515753534638373,"115":-0.01095018763894259,"116":-0.006104739855617757,"117":0.2145470717603766,"118":0.10234866245995639,"119":-0.041201765452931124,"120":-0.09288455798429035,"121":0.04916572329873236,"122":0.008684920722926953,"123":0.056511119610305256,"124":0.0030387622529822484,"125":-0.005397836351424884,"126":0.10700932589344375,"127":0.00031145839975976053,"128":-0.0790886796974608,"129":0.04432333502015326,"130":0.008917273975458752,"131":-0.09157259667709412,"132":0.027729669048936062,"133":-0.029616068267799195,"134":-0.027005529561075877,"135":0.11202806013157797,"136":0.06280859355110661,"137":0.025017948860293963,"138":-0.026657717720978222,"139":0.15914818318890023,"140":0.07978740533294512,"141":0.06860974382643456,"142":0.04161736042273882,"143":0.040008269728503534,"144":0.1756957002662462,"145":-0.08135908365366915,"146":-0.0774944298984044,"147":-0.04577091230825571,"148":0.013573354020355238,"149":-0.04087617397603875,"150":0.04916385206888163,"151":-0.08673763635831103,"152":-0.02988177769741964,"153":0.09970213178634157,"154":0.04689891939515248,"155":0.02995602024442312,"156":0.04743340939552029,"157":0.010304782206811608,"158":-0.10840818116394683,"159":0.039588235516956574,"160":0.0600568207755405,"161":-0.08971719214994918,"162":-0.06301091262395883,"163":-0.09515151993180175,"164":-0.06508267905274812,"165":0.002618884938574298,"166":0.02804314259307953,"167":-0.011807158062357916,"168":0.07775968545464292,"169":0.019202976582731363,"170":0.0553553753073565,"171":0.058619199624769344,"172":0.10558996013020457,"173":0.037397757171722563,"174":0.13783838755405736,"175":-0.11798366323201064,"176":0.10226594675298989,"177":0.009646956075211998,"178":-0.06639636096772392,"179":-0.05770822510206462,"180":-0.07267071525173074,"181":-0.018277873751583615,"182":0.007099057077436471,"183":0.045549485772777426,"184":0.028912396562639324,"185":0.023564646328957665,"186":-0.04046990228584391,"187":0.10555961691712402,"188":0.03401428115998721,"189":0.09100254118593548,"190":0.06849825043029159,"191":-0.023835659335774678}},{"sx":1,"sy":1,"depth":192,"w":{"0":0.05018989509493652,"1":-0.026967904455277324,"2":-0.029046046491350726,"3":-0.09412224438783748,"4":0.06291101887345253,"5":0.053795353551438024,"6":0.09551981622187385,"7":0.07423899622110039,"8":-0.049040956252534504,"9":-0.0846087244148483,"10":-0.047420929276495015,"11":-0.08019491952434762,"12":0.0033353650270745963,"13":-0.09698235483040092,"14":0.04208651204385653,"15":-0.06926870022557417,"16":-0.06131707716186233,"17":-0.024463449495696156,"18":-0.049721371064415223,"19":0.024368369968507077,"20":-0.08297184030974689,"21":0.05869884519390494,"22":-0.1177029510468067,"23":-0.09555864963280977,"24":0.05348509631817875,"25":-0.02478330526457101,"26":0.15237963409893707,"27":-0.09751434627367936,"28":-0.0533616803817121,"29":0.0713171195098633,"30":0.031660128042267525,"31":0.03585931104782203,"32":-0.12728367103758356,"33":0.1279053310037291,"34":0.007817367434793299,"35":-0.018192896003296714,"36":-0.02808027373494506,"37":-0.0071442127800520954,"38":-0.011546460616792984,"39":0.0646276293901991,"40":-0.07843373781722032,"41":0.04898768111055898,"42":0.04125000667667295,"43":0.013162575242120968,"44":-0.022721506009865517,"45":0.06367369858065787,"46":-0.046918597147836645,"47":0.12504232127592319,"48":-0.007159486372368132,"49":-0.02661329272882109,"50":0.024494127122098495,"51":-0.06938856144342198,"52":0.07143085573772673,"53":0.012259995338435567,"54":0.009172507111437182,"55":0.005552034713994071,"56":-0.04446199585814961,"57":-0.13886896300074508,"58":-0.03613581356081889,"59":0.09902795150488616,"60":0.019319755427252335,"61":-0.06484710215622946,"62":0.0163418158633579,"63":0.00043231474235955284,"64":0.08343207692289262,"65":0.07778802616055833,"66":-0.01909787809900348,"67":-0.07752578754145732,"68":0.017067139836192784,"69":-0.2044247686057727,"70":-0.10677002633792432,"71":0.0457274138436585,"72":0.034836240445166373,"73":-0.047394501365772806,"74":-0.02723310329511082,"75":0.017456926444804333,"76":-0.02108299678411873,"77":0.003908352225924189,"78":0.1522059951235089,"79":0.01848567172366716,"80":0.08234374124717327,"81":-0.06872305117668336,"82":0.06355672010848552,"83":0.052258079780661756,"84":-0.07144088974776117,"85":0.14899958657661982,"86":0.05077114547855092,"87":-0.10619562375250056,"88":-0.06327280265397867,"89":0.005558262696121518,"90":-0.05682907738974776,"91":0.05646143683595972,"92":0.055117859648464496,"93":0.037151839969522815,"94":0.037346902351233606,"95":0.08898982473311438,"96":-0.035072291241743006,"97":-0.0027113378864320054,"98":-0.00004997596567955783,"99":0.02090299336061063,"100":0.013658281963735175,"101":0.12186915067649655,"102":0.04064519364452284,"103":-0.035145764481312076,"104":-0.0035146551057365504,"105":-0.034062957372515024,"106":0.0033356714284392157,"107":-0.12725232279533055,"108":-0.009936979446276346,"109":0.028899771318238354,"110":0.03698562805330422,"111":0.07168516060905827,"112":0.0008402694264276551,"113":0.07080009847162066,"114":0.027623026679839176,"115":-0.06304442610556923,"116":-0.06682471406937826,"117":-0.0042840047268896736,"118":-0.07392621542002135,"119":0.05020941124915532,"120":-0.05015943491220399,"121":0.0014190882659451112,"122":-0.11127747189287994,"123":-0.04996367761575525,"124":0.0068208086011838755,"125":-0.15196234546670342,"126":0.01548814333021117,"127":-0.13243526694754482,"128":0.15586142183466628,"129":-0.07019750230500812,"130":-0.04882855302439348,"131":0.07184040264217417,"132":0.0029545436186629173,"133":0.04267173205372987,"134":0.054225994323711564,"135":-0.020304995849030723,"136":0.03961413155580176,"137":-0.068258421702198,"138":0.005824779189274085,"139":0.00472649793847954,"140":-0.037264752683585534,"141":-0.016748820413429687,"142":0.03411471302029333,"143":0.05676585203781343,"144":0.09980381193110581,"145":-0.048576392274868894,"146":-0.10384661122299957,"147":-0.007607230849140147,"148":-0.07575834006991833,"149":0.05274053684578929,"150":-0.054736627529039565,"151":0.010120551769519,"152":0.004387599652815647,"153":-0.02013650799797069,"154":-0.015675616811177826,"155":0.06378542910100027,"156":-0.05471702292132713,"157":-0.046685200455400234,"158":-0.08096008160148067,"159":0.11702661345130559,"160":-0.032157895430549296,"161":0.012537035855134741,"162":-0.026474805083519994,"163":0.05740664031595739,"164":-0.01285393148946598,"165":-0.06681411240531823,"166":-0.0722975995102845,"167":0.0649618318166272,"168":-0.02300089342627858,"169":-0.006966336978536336,"170":-0.0687731858487172,"171":-0.018905618387030358,"172":-0.026681989816326815,"173":0.0024249564350223747,"174":0.09005834943396718,"175":0.06428475112959986,"176":0.0678376851157689,"177":-0.059871122062036014,"178":0.11301214642430304,"179":-0.07532675709032903,"180":0.015268388999384468,"181":-0.10488069926128901,"182":0.05318727867729016,"183":0.135482834372525,"184":0.03913251942284419,"185":-0.011782021017895555,"186":-0.03065265858000015,"187":0.023381557849213436,"188":0.08649378340385203,"189":-0.01397976819439166,"190":-0.05791482614753577,"191":-0.02802008908431502}},{"sx":1,"sy":1,"depth":192,"w":{"0":0.043257032298415946,"1":-0.023076620013687404,"2":0.039808092613863325,"3":-0.07304900061425015,"4":-0.0795308010708314,"5":0.09138301376638776,"6":0.07889621795737083,"7":-0.035896968870132766,"8":0.013169329658391127,"9":0.09515346714877292,"10":-0.03566271865998592,"11":-0.041188043187629614,"12":-0.10475755147815705,"13":0.0004155116473132354,"14":-0.001794027816952439,"15":0.019716671260965678,"16":0.05086314149636518,"17":0.02510575046642252,"18":-0.05569872515619152,"19":-0.05042336077206759,"20":-0.05118619290486251,"21":-0.03160323342836174,"22":0.07244730670069767,"23":0.02078852799543448,"24":-0.06396428036539359,"25":-0.022977488800157632,"26":0.057792228917279004,"27":-0.011241563263220608,"28":0.03328309852931951,"29":-0.038151163675994165,"30":-0.1294858837845727,"31":-0.06201008132468411,"32":0.002501349926948993,"33":-0.014149696199699927,"34":-0.19460655393485832,"35":0.007776811146868924,"36":-0.05220155341113267,"37":-0.10584536566782206,"38":0.029742054254804827,"39":0.031030898136968604,"40":0.02396175653879846,"41":0.1041833110835405,"42":0.05412600740765035,"43":0.046308342019756935,"44":-0.06459559595925284,"45":0.07956639090864799,"46":-0.008325746490952841,"47":0.06870971707527322,"48":-0.050427290117846676,"49":-0.04411989661865956,"50":-0.010629939845257206,"51":-0.04336579977193971,"52":0.029080040200063686,"53":0.09503800249852366,"54":-0.004396445223171614,"55":0.03826080395143968,"56":0.11117798748062008,"57":0.09043336076967129,"58":-0.04626799730984883,"59":0.014548460164293474,"60":0.12012464433973716,"61":0.0649152063742091,"62":-0.03652759490971402,"63":0.09323362430963303,"64":-0.005847626792161412,"65":0.011644468354805895,"66":0.04834357030140726,"67":0.03331227041082904,"68":-0.09314755129996419,"69":-0.04596013473517066,"70":-0.003221725209084689,"71":0.033107123512894944,"72":-0.05320577428561688,"73":-0.04264590441313468,"74":-0.006695225601871258,"75":0.010061839321972157,"76":0.028349772555330246,"77":-0.05468487996101039,"78":-0.0486079757326647,"79":-0.0355074793129428,"80":0.03798339869572688,"81":-0.08638582827229083,"82":0.08745473972028421,"83":0.012884071718788704,"84":0.1363081025426025,"85":-0.0026856843761887336,"86":-0.05328195136977322,"87":0.04893133419137632,"88":0.05772079438169986,"89":-0.019031804006815145,"90":0.022172987979152674,"91":0.16109429669377967,"92":-0.05077799746961716,"93":0.0006935165261467582,"94":0.050958817163395245,"95":-0.08205663274036151,"96":-0.08352201894001691,"97":0.07263709630920548,"98":-0.04741546706304935,"99":-0.0005066271783518001,"100":0.04315930928566478,"101":-0.010813127310929373,"102":-0.0754303682821369,"103":0.09202474363785701,"104":-0.12538722616940473,"105":-0.08224760330839477,"106":0.003910390049525462,"107":-0.09183485869293713,"108":0.06335778741420005,"109":-0.10820776694922588,"110":-0.0024917207572009406,"111":0.04325877533723785,"112":-0.06412457779243118,"113":-0.048515041182002214,"114":0.10295734231140033,"115":-0.057901927476784965,"116":0.03482685506078052,"117":0.015684721463221564,"118":-0.04536182283659772,"119":-0.05023298803241816,"120":0.026247400366028326,"121":-0.08438159433610475,"122":-0.08273296535674202,"123":-0.01165881372431882,"124":0.03733302009624008,"125":-0.02796971063191062,"126":0.10627718863826258,"127":0.0032014556171391525,"128":0.02029844042260027,"129":0.015509450334520714,"130":-0.08962727648838742,"131":-0.020618512963915477,"132":-0.003132979169094335,"133":0.01318846605997261,"134":0.008025959207012958,"135":-0.016629957136151164,"136":-0.025797780089851313,"137":0.041162878973626575,"138":0.04223056351374802,"139":-0.10530010764261061,"140":0.09073214449087882,"141":-0.008153301243054618,"142":0.011254127594724736,"143":-0.041604117250539085,"144":-0.020448570607029898,"145":0.020193476731744996,"146":0.019718274884359992,"147":0.055665847032722954,"148":0.014165035678473306,"149":-0.009435033290191354,"150":-0.06671833920523912,"151":0.050966177556368744,"152":0.009438852148915213,"153":-0.030498246821942392,"154":0.017797951910380114,"155":0.021249947247359895,"156":0.043498053164417946,"157":-0.10572717681985866,"158":0.004750019233508836,"159":-0.049435478256673264,"160":-0.030910038216970043,"161":0.13174965604649286,"162":0.012411535991657997,"163":-0.07999394482037994,"164":0.015344427052494022,"165":-0.08239734940422826,"166":0.09487413120285633,"167":0.07996897792066487,"168":0.03791651644575083,"169":0.04049594471874878,"170":0.04864920146414887,"171":0.022792649294054015,"172":0.0586799927009696,"173":-0.09495293942510362,"174":0.08259784377576349,"175":-0.028310831237565958,"176":-0.05891678986752845,"177":0.08248512228061029,"178":-0.14214040076138335,"179":-0.05394454831269936,"180":-0.08734003714201957,"181":-0.10714607470410023,"182":0.042494036710601736,"183":-0.0974073720349402,"184":0.003138132571906141,"185":0.04415497173413698,"186":-0.13004116581564687,"187":-0.0073215079134934845,"188":0.06662125564663819,"189":0.042945769712408356,"190":0.07764261070063302,"191":-0.0545780191839971}},{"sx":1,"sy":1,"depth":192,"w":{"0":-0.005044323298260227,"1":-0.0013056137350066484,"2":-0.11882125637898074,"3":-0.15648370838780654,"4":-0.20204958405745727,"5":-0.04930221010931857,"6":-0.09292632036533563,"7":-0.10490300429952032,"8":-0.1023010205881213,"9":-0.047650802076226004,"10":-0.13312215313611375,"11":0.05360301546733942,"12":-0.13109652513521647,"13":-0.0794405405560649,"14":-0.010050594686054083,"15":-0.148456941463896,"16":0.019783408794180446,"17":-0.05169363648715841,"18":0.022022250480233863,"19":0.02432263285695445,"20":-0.0033238971742894697,"21":-0.1000363662011826,"22":-0.054269396346218975,"23":-0.02511657735281482,"24":0.07229699625778031,"25":-0.1319536674358743,"26":0.036195334554072124,"27":-0.06620517215020028,"28":-0.04544959797041342,"29":-0.08375923297449038,"30":0.0327373983847015,"31":-0.02726952379457223,"32":0.004218624552104214,"33":0.005910069164418609,"34":0.0015443968482944375,"35":-0.06401571215175807,"36":-0.01685806147272872,"37":0.07073110244641452,"38":-0.12252672108414574,"39":-0.03152064821474851,"40":-0.06776910111586025,"41":-0.06144095478740699,"42":-0.07085751744470002,"43":-0.04916005130352228,"44":0.06615214190962022,"45":0.03550476458342526,"46":-0.09956672798517907,"47":-0.06414747952581118,"48":0.01596805874265386,"49":-0.01017190176922515,"50":-0.004925783521446669,"51":0.0443945872580579,"52":0.024802484556065155,"53":-0.09951158014929726,"54":-0.10179260997675009,"55":0.022710864251392696,"56":0.049332666372146346,"57":0.01057630003145186,"58":0.1004579538218802,"59":-0.07023206239338345,"60":-0.07926771206403066,"61":-0.034685429854600804,"62":0.12379971134536316,"63":-0.07159943899838918,"64":-0.050149682492954116,"65":-0.1830744020966756,"66":0.004193647362319942,"67":0.11856133726630923,"68":0.07206913444482144,"69":0.0799054627551921,"70":-0.043133152257369745,"71":0.02297591813737296,"72":0.006741614254439733,"73":0.083113186924552,"74":0.0032937388610927583,"75":0.1316097293259277,"76":-0.056035295607478754,"77":-0.026655802167018815,"78":-0.07734631647662185,"79":-0.004676864319715495,"80":0.014963957744139491,"81":0.07071653334669498,"82":0.00339186811763805,"83":0.027552432018337437,"84":0.006796925859289412,"85":0.09532425181153469,"86":0.014636987186475686,"87":-0.030260401793910825,"88":-0.016727009440394156,"89":0.04046934931601068,"90":0.029601659382268324,"91":-0.00679301549030581,"92":-0.016471339613579144,"93":-0.009021487136541455,"94":0.03405936217416627,"95":0.061573780087238815,"96":-0.06444496890105722,"97":0.11601116806250145,"98":0.01812726809236279,"99":0.04979250239287303,"100":0.00019091637884588653,"101":0.010311236405606041,"102":-0.12868124532124184,"103":-0.05691307687300035,"104":0.02706046727412612,"105":-0.01696773709928407,"106":-0.20967021150779772,"107":-0.08929565194707756,"108":0.15438798856500152,"109":-0.025840758420823843,"110":0.04942321413187763,"111":-0.07369924464217105,"112":0.003892790504198441,"113":-0.1328098386301381,"114":0.05477365091995205,"115":0.06146794762425464,"116":0.020324702835251247,"117":0.027648763600145888,"118":-0.03666178678395267,"119":-0.11399077631755203,"120":0.029324884909779345,"121":-0.05560695456308838,"122":-0.03445686053202974,"123":0.07570433218103592,"124":-0.0064005146281661636,"125":-0.07689665801424113,"126":-0.06004259421446889,"127":-0.04972310602808053,"128":0.004838000966026216,"129":-0.06367701018421974,"130":0.16896555244569023,"131":0.21775704557542894,"132":0.040399067505487184,"133":0.16420639318120553,"134":0.16512997960225137,"135":0.1599938469160007,"136":0.14019623066038175,"137":0.18142130041456223,"138":-0.14408534000649478,"139":0.08064981347881924,"140":0.11400162700686296,"141":-0.0003730174068376489,"142":-0.10667958841840423,"143":0.03434938194014573,"144":0.0019201569485578682,"145":-0.034600825278593574,"146":-0.025178594109235387,"147":-0.0028301375435803647,"148":0.07287804369806004,"149":0.04268598803070378,"150":0.028051003444447886,"151":0.01971676860170239,"152":-0.06161892267757446,"153":0.04861527624187422,"154":0.03561902006252474,"155":-0.005781651434954159,"156":-0.09478653721024607,"157":-0.10436199898262147,"158":0.08648698117480622,"159":0.0685411698335594,"160":0.0797779162639946,"161":0.015364423520201922,"162":-0.005224559997782483,"163":0.10953384521622689,"164":-0.1575341211083924,"165":-0.034144381734521244,"166":0.02163968569355002,"167":-0.013105334027855268,"168":0.021818076568244915,"169":0.13027315883482835,"170":0.14097888701841718,"171":0.02593559110529731,"172":-0.073757770191695,"173":0.057199362412179454,"174":0.07371176300212544,"175":0.1368723499234332,"176":-0.059291464905879894,"177":-0.014492670757786515,"178":0.04060984365448316,"179":-0.05137514772897881,"180":0.012316604220532084,"181":-0.045947574074326106,"182":0.12699890993502264,"183":0.09429694356203439,"184":0.006045174443196239,"185":0.10607334817075356,"186":0.02914545474625749,"187":-0.04022222362259101,"188":0.08581785759518243,"189":0.05306430454045991,"190":-0.02363468002512652,"191":0.0912162969933971}},{"sx":1,"sy":1,"depth":192,"w":{"0":-0.06138544608447452,"1":-0.08079306449065277,"2":-0.08234662804099024,"3":-0.16727785227422826,"4":-0.011617520834832853,"5":-0.05231968936871514,"6":-0.03168966769618824,"7":-0.008688351458969908,"8":-0.017717945642333293,"9":0.08053862164371532,"10":-0.013861049782565305,"11":-0.04801253179705821,"12":-0.10059679982492785,"13":0.010791230972923041,"14":0.0377956143492847,"15":0.07341692309586761,"16":0.004988893780814847,"17":-0.01781841816678762,"18":0.008835796499066437,"19":-0.0828923847242257,"20":-0.07687867315257373,"21":-0.11205721081889132,"22":0.02050064934491457,"23":0.04093592846673803,"24":0.0018970025467651692,"25":-0.03263824293263815,"26":-0.08185009521317387,"27":0.06576957898405789,"28":0.04724805530541843,"29":-0.029450761652863575,"30":-0.0028604358490926227,"31":-0.039501942298810114,"32":0.03793081713744149,"33":0.1456114620390102,"34":0.04821242074302538,"35":0.0469307214205553,"36":0.021299496706718716,"37":-0.07150681250831349,"38":-0.0892299257280247,"39":0.027887376964630988,"40":-0.028606922017029694,"41":-0.03852717448788509,"42":0.0039843838837796235,"43":-0.02666991743160756,"44":0.015492849837846432,"45":0.050638986744992495,"46":0.019435636194900633,"47":0.07600465776346571,"48":0.07155402694714812,"49":-0.03421828116552365,"50":0.04416338479194936,"51":0.02544555498946629,"52":0.0049724420953512795,"53":-0.08602648763542614,"54":0.06637696742236383,"55":-0.11250363408327715,"56":-0.012240641931642945,"57":0.06625166537948164,"58":-0.03412554990997634,"59":-0.018028921730710235,"60":0.137730466716602,"61":-0.038029646632097736,"62":0.06243815478131366,"63":-0.07932441025833208,"64":-0.15521050716575507,"65":-0.03880298394192953,"66":0.11090360023353911,"67":-0.04655636595449892,"68":-0.1331938628694901,"69":0.06687569629246734,"70":-0.005627217331775251,"71":0.030984222642292652,"72":-0.05481665714171263,"73":-0.14583549208778146,"74":0.017213131733789095,"75":0.1004882685765474,"76":0.03856289597472998,"77":0.05909075195085326,"78":-0.08770280816164171,"79":0.05865278277226881,"80":0.05887734564897823,"81":0.1191167992717956,"82":0.038716542196556875,"83":0.07253158692003128,"84":-0.10864654551280126,"85":0.05668211025872097,"86":-0.059350517447683535,"87":-0.03423146530243394,"88":-0.07071681759029089,"89":-0.05543448387694212,"90":-0.052576948838997314,"91":0.08321252526372715,"92":-0.13094562794944634,"93":-0.02928039076294202,"94":-0.051101486950419966,"95":-0.06878902677601595,"96":-0.06350987503808682,"97":-0.013431634636298378,"98":0.00794192748318117,"99":-0.05337113331670054,"100":-0.04684565831320239,"101":0.1080833949743998,"102":-0.10918410278408286,"103":-0.035729636864250736,"104":-0.051317997114565375,"105":0.08472770008762673,"106":-0.030045410641133728,"107":0.029586404564289976,"108":-0.03618112259594058,"109":0.032459967963578355,"110":-0.002277774293399097,"111":-0.01127915429333779,"112":0.02261048087360982,"113":0.032464776140666764,"114":0.020368669393413998,"115":0.04690757807498761,"116":-0.0305493689875677,"117":0.04013482265371944,"118":0.012332427469702565,"119":0.07609686654030264,"120":-0.055024513100976995,"121":0.10422713936010256,"122":-0.023622820123329166,"123":-0.022945021076680765,"124":0.04298691044192264,"125":-0.016820675199039025,"126":-0.03647067599817862,"127":-0.00884989537049223,"128":0.07353062855935616,"129":-0.0023174424099576796,"130":0.029972077698813195,"131":0.05121265672462811,"132":0.04016395305241738,"133":-0.007689735907946997,"134":-0.13963168519066985,"135":-0.19064313341958497,"136":-0.0736373744390338,"137":-0.05515895969296162,"138":-0.015195263725784778,"139":0.032235238774093906,"140":-0.03324688029123251,"141":0.004130041518238617,"142":-0.008067509659401187,"143":0.0007597858082600284,"144":-0.02180641514530732,"145":0.010835050603530171,"146":0.13820558442879669,"147":0.1617207628446438,"148":-0.08861184701640175,"149":-0.14462649600668745,"150":0.07021071617127952,"151":0.06489522519999469,"152":0.07489196689058417,"153":0.0389796574797228,"154":-0.033106821936255075,"155":0.048378553449227917,"156":-0.058793355364706715,"157":-0.0041998981825049275,"158":-0.021548624877102497,"159":-0.03251463951897691,"160":0.009291227520123383,"161":0.01999571243083348,"162":-0.0400187481620709,"163":-0.11356064181789251,"164":-0.06245559502157228,"165":0.000531999900635709,"166":-0.04938803758016807,"167":0.016015519877203416,"168":-0.07401990825813907,"169":-0.03582498821637609,"170":-0.05514991677339063,"171":0.04743289086300512,"172":0.07269939986013078,"173":0.034251107427320376,"174":0.042629208833954865,"175":0.010022076229967243,"176":-0.07565176879742706,"177":0.08254798604167038,"178":0.06461943122803576,"179":-0.047541819297499524,"180":0.039072733827343824,"181":0.10270137358761629,"182":-0.05894754413640566,"183":-0.0806516872451088,"184":-0.024855192068539336,"185":-0.06092590140056553,"186":-0.05610433864965214,"187":0.10737585283184813,"188":-0.1228277087919709,"189":-0.08822572551466114,"190":-0.000891959282246131,"191":-0.11007097319145519}},{"sx":1,"sy":1,"depth":192,"w":{"0":-0.029329125315532015,"1":-0.13427996057494285,"2":0.12336809727719705,"3":0.03828864346897326,"4":-0.05911702686911093,"5":0.009432628628286697,"6":0.03521761436119415,"7":-0.049941477368076886,"8":0.08185144204126511,"9":0.08481538957523767,"10":0.0880235769273299,"11":0.10793532990905423,"12":-0.01559991700598736,"13":0.06318778517052841,"14":0.013352040115879767,"15":-0.059845324770034965,"16":0.033672851587193534,"17":-0.010420759875688398,"18":-0.004585670951034665,"19":0.05990178820134041,"20":0.02638210981159357,"21":-0.043029886441741355,"22":-0.04476887656345938,"23":-0.07406589201907364,"24":-0.06052311066279537,"25":0.08284191755138061,"26":0.01328653057897018,"27":0.09209223040110227,"28":-0.0255580634776223,"29":-0.016678083340274943,"30":0.08157053853635567,"31":-0.009368989846899522,"32":0.06746715589849049,"33":-0.07402653539992225,"34":0.11617298028169804,"35":-0.01389973479193879,"36":0.01103271243867416,"37":0.009995926043511311,"38":0.07261706458226287,"39":0.06699573412523019,"40":0.03370213528148308,"41":-0.08133183635610285,"42":0.0038498268300819613,"43":-0.07238659748197421,"44":0.06274102416388443,"45":0.005543038756634342,"46":0.00961267058686791,"47":-0.08330964129584723,"48":0.04698566047502906,"49":0.029046075011466176,"50":-0.0260339088211052,"51":-0.08479241013851536,"52":-0.04297274513942307,"53":0.0002531733589056444,"54":0.01938012950243769,"55":0.05594746522411157,"56":-0.0360113069811387,"57":0.059805926044662366,"58":0.10401501967003662,"59":0.1460786714508858,"60":-0.04017957852986557,"61":-0.1585921883871118,"62":-0.0022839172015164896,"63":0.011358822088596579,"64":0.05191124428789656,"65":-0.011675102366641925,"66":-0.04022837665562317,"67":0.06090612014688162,"68":-0.07164613005689204,"69":-0.029853475229274687,"70":0.030357816789547406,"71":-0.054560241156409645,"72":-0.08838996189101055,"73":-0.005581392980333204,"74":0.004101764869351861,"75":-0.13933843098438597,"76":0.0970874852964173,"77":0.06489896258261801,"78":0.009774392686591334,"79":0.08913161087349614,"80":-0.01936225356450609,"81":-0.10331763365846591,"82":0.030620419910344712,"83":-0.09456849074102365,"84":-0.012996316441816449,"85":0.1384132552866385,"86":-0.012873565976587136,"87":0.05125241228018376,"88":-0.03334798926031775,"89":0.036028746745530485,"90":0.08999513007900536,"91":-0.009928565049061453,"92":0.05708832496516965,"93":-0.08294095655906907,"94":-0.06600986801343624,"95":-0.035833464734324874,"96":0.034745663712100326,"97":-0.0885033934678011,"98":0.04109448458011077,"99":0.07955259251758255,"100":0.04324365023013884,"101":-0.031322184678138056,"102":-0.08620946532811316,"103":0.025388368458730645,"104":0.06497615928953698,"105":-0.049425137414152005,"106":-0.09635207308572433,"107":0.17576197995020232,"108":-0.0343592000647541,"109":0.03289802320166337,"110":0.08275558768554933,"111":0.02396778199557631,"112":0.06980171332169861,"113":-0.06712159544431474,"114":-0.1389585146644867,"115":0.0029783114672443647,"116":0.1223367936610419,"117":0.05106232159257991,"118":0.013319026029509854,"119":-0.07688928769290586,"120":-0.09330008913238304,"121":0.003632769817110588,"122":0.056320955211733165,"123":-0.1281040950897619,"124":-0.01127280720547077,"125":0.07815285753953678,"126":-0.07329484623583352,"127":-0.03031723084797543,"128":-0.03512085386114988,"129":-0.035335448502730245,"130":0.005470783731469711,"131":-0.05430636008687285,"132":0.025427276808317592,"133":-0.1295089238808222,"134":-0.032527851781627065,"135":-0.040313655505714745,"136":-0.04526552207246121,"137":-0.040590638557180876,"138":0.013016505163110597,"139":-0.15243162142225825,"140":0.043392352061960966,"141":0.12216511212943092,"142":0.12506748601880321,"143":0.004790951694720121,"144":0.09159141968780275,"145":0.0031267750562290124,"146":0.08354634028644466,"147":-0.01055919767633315,"148":0.05850039920912127,"149":-0.06292914401395872,"150":-0.07166741751376715,"151":-0.03894941272262076,"152":-0.03766643517555805,"153":-0.08856055317059633,"154":0.03985354993457879,"155":-0.00939843976765979,"156":0.09713557530999781,"157":-0.02285827276364373,"158":-0.06577580877131158,"159":-0.009658972159974381,"160":-0.008383879721809838,"161":-0.04596782052133841,"162":-0.05911432954773435,"163":0.06726092260136045,"164":-0.0787350642456585,"165":0.0760521681262394,"166":-0.007197636386451813,"167":0.1190122333770033,"168":-0.039217554402014125,"169":0.058253775862273705,"170":0.011871371250388202,"171":-0.021136198650033123,"172":-0.07423396525991595,"173":-0.07719021599234963,"174":-0.08785000433438199,"175":0.05866123584506904,"176":0.0018433137738092114,"177":-0.03602473440816353,"178":-0.04629515326216938,"179":-0.0376558341909186,"180":-0.0338554241622881,"181":0.06536980714549147,"182":0.010572815884319306,"183":-0.022471543685416453,"184":-0.003110473044821351,"185":-0.005123067274074859,"186":0.14024915171429075,"187":-0.015274790805629523,"188":0.03815620840817427,"189":-0.021014947759905818,"190":-0.011861997695460893,"191":0.007111711760399348}},{"sx":1,"sy":1,"depth":192,"w":{"0":0.006444497481595565,"1":-0.02770582259674767,"2":0.1593787057597713,"3":0.02882656174837751,"4":0.09337605746880419,"5":0.10304575539096374,"6":0.08874342515432168,"7":0.07635723473158308,"8":0.0005791976733405176,"9":0.10337232486495795,"10":-0.04858202453268501,"11":-0.0694614696127909,"12":-0.0071874303815053315,"13":0.029846909214611396,"14":0.07217147148595261,"15":-0.1178812320232663,"16":-0.10525144348801058,"17":-0.04610556257965065,"18":-0.07491294286620453,"19":0.03444298621604619,"20":0.041898117335764415,"21":0.035639979634909044,"22":0.17457579537975604,"23":-0.07415915192944383,"24":-0.01018723184119519,"25":0.05693153061290167,"26":0.09751976474966914,"27":-0.0360515423024642,"28":0.006164470247988453,"29":-0.01976971580753777,"30":-0.0051920533001824426,"31":-0.03157131518993175,"32":0.10169074417238018,"33":0.0342508828961681,"34":-0.06786356752017024,"35":0.0845943440714932,"36":-0.06994524676659014,"37":0.1159028224680322,"38":0.03502543222193871,"39":-0.012529828310236373,"40":0.02533178204531886,"41":-0.010682174676561485,"42":0.10066242461639091,"43":0.07503093465178429,"44":-0.020378537651438683,"45":0.060686287809716896,"46":0.11783901732744984,"47":-0.05769545385536702,"48":0.041929926417965696,"49":0.021558903194929466,"50":-0.13305970759342667,"51":-0.013365553561263458,"52":0.04838299899010622,"53":-0.06307847020352177,"54":-0.007357049535853729,"55":-0.018577105771479998,"56":0.10640184569467155,"57":-0.015344440401163662,"58":-0.04883871621870777,"59":0.01415158446901416,"60":0.08069320374891932,"61":0.04836026677050978,"62":0.009147758421474472,"63":-0.0117829073986393,"64":0.05534806252848922,"65":-0.0824274805033911,"66":-0.12480715153086654,"67":0.08309985980959632,"68":0.044831199260525756,"69":0.07065343638299351,"70":-0.09896189003979139,"71":0.01763076857052272,"72":0.0193227601417107,"73":0.0001423574401795522,"74":-0.034484472551275916,"75":0.03896735382152694,"76":0.05525076290973028,"77":0.0012561778318700418,"78":0.06908853404815582,"79":0.011083147488950182,"80":0.04192548602464369,"81":-0.03429508542838783,"82":-0.0433622526289338,"83":0.08963888547621059,"84":0.05595862275637061,"85":0.015725356874776445,"86":0.02567845077238891,"87":-0.01962548222159442,"88":0.006266094743872694,"89":-0.057502006254279155,"90":0.02526543954377624,"91":0.014354974142825352,"92":0.0920732516717532,"93":0.0072618943445019075,"94":-0.046848013345882934,"95":-0.035851573380106076,"96":-0.12527526683403317,"97":-0.10724276229231705,"98":-0.09981086954590042,"99":0.00952202005530997,"100":-0.011287774863736496,"101":0.07901678733821403,"102":0.11707460976264185,"103":-0.02115176235768879,"104":-0.06809203201976988,"105":-0.0739645338649256,"106":-0.004041825463951814,"107":0.04104504124213296,"108":0.04864571534969012,"109":0.029978259488997617,"110":-0.013770239162617848,"111":-0.02281210985355863,"112":0.02424911637603159,"113":0.03490774419476157,"114":-0.008369280864521498,"115":0.04170745263774918,"116":-0.020061935208774112,"117":0.14264481149782254,"118":0.07563475626661922,"119":0.016701156419557786,"120":-0.12063975808275398,"121":-0.07423503183249702,"122":0.03936648197407331,"123":0.0047007959249097345,"124":0.12772872718555614,"125":-0.06269992859078162,"126":-0.013383197299432308,"127":-0.05494161716846887,"128":-0.018190063338913917,"129":0.03216973642125224,"130":-0.06975520267486054,"131":-0.04936272922582165,"132":0.007054325338226587,"133":-0.1236545712109723,"134":-0.13982081483103764,"135":-0.02794715117646093,"136":-0.013296798022980418,"137":-0.05716393436464277,"138":-0.0725673895877337,"139":-0.08776275876137221,"140":-0.02257601368049293,"141":-0.06823185894645276,"142":0.007870206739950137,"143":0.14153146848970127,"144":-0.014261842534794258,"145":-0.0393323212910641,"146":-0.049882537740239936,"147":-0.13051767007804374,"148":-0.07936427933723579,"149":0.03294986205745884,"150":-0.08881806547260408,"151":0.04553882693808895,"152":-0.10034641249427528,"153":-0.030388384153517817,"154":-0.012775194170762994,"155":0.074792423078405,"156":-0.05626544461997302,"157":-0.09280792524376562,"158":-0.029716958052021326,"159":0.020868964636044648,"160":-0.09809453702797542,"161":-0.051136847274500116,"162":-0.046968458009871025,"163":-0.011413085181640956,"164":0.06534547078809205,"165":-0.02565212547874912,"166":-0.03035968633681958,"167":0.006803081571276642,"168":-0.05410971266906136,"169":0.02697420831705304,"170":-0.031410017576939515,"171":-0.05627849491398756,"172":0.04217624249626962,"173":-0.0011413007625371084,"174":0.035228354107352415,"175":-0.05071902300967938,"176":-0.0033586111174837502,"177":0.017424974919368275,"178":-0.025975542062091656,"179":0.01656995805932444,"180":0.07472120978496523,"181":-0.0008380880837888867,"182":0.10625951008248347,"183":-0.024427704311179563,"184":-0.07932779693837981,"185":0.03006231512007782,"186":-0.05534111316299509,"187":-0.07995248130463042,"188":-0.046737739533836746,"189":0.051128019289159866,"190":-0.030428342423948016,"191":-0.0341984557941152}},{"sx":1,"sy":1,"depth":192,"w":{"0":-0.07119488868792084,"1":0.029097831886299247,"2":-0.04762259169077737,"3":0.07493472775780628,"4":0.06653572156640214,"5":0.16439095751493196,"6":0.06409548357845936,"7":0.02342998623756395,"8":-0.025662473717002386,"9":0.0031960485092947795,"10":0.010878850753809574,"11":-0.09495262279620717,"12":-0.02166387800037632,"13":0.061500757369238,"14":-0.060753510051719806,"15":-0.06262048517117144,"16":0.10991717426317071,"17":-0.006838735618388374,"18":-0.01748719369367345,"19":0.05247035926510494,"20":-0.0005672802494460417,"21":-0.09437240885188797,"22":-0.04090604279952236,"23":-0.03894672667814001,"24":0.027538333953771792,"25":0.0013406656263948314,"26":0.05553061020715586,"27":-0.06481167844496091,"28":-0.06391909016673734,"29":-0.017751102818084126,"30":-0.08981522941404148,"31":-0.05491500045807387,"32":-0.006006732368575097,"33":-0.08251048765479771,"34":0.04545916846310484,"35":-0.1541159065900741,"36":0.04005800075469911,"37":0.005023204135594624,"38":0.052104299938638694,"39":-0.006323703784002011,"40":0.03291697636269376,"41":0.09519473632120393,"42":0.09520709447721783,"43":-0.008394846402308488,"44":-0.008434989603171888,"45":-0.1277583299440528,"46":0.06741317213851498,"47":-0.010226681994120208,"48":0.042060336284375964,"49":-0.06258420315017225,"50":0.09946976013926086,"51":0.0447291258580426,"52":-0.10223708915203165,"53":0.04330319484815645,"54":0.014489415184470845,"55":-0.0147600006016357,"56":0.10034226448232188,"57":0.05305560052700827,"58":-0.02600132778361739,"59":0.0861470697658762,"60":0.08769554157841856,"61":-0.09497757563700986,"62":0.026468620460273797,"63":0.03859319039421372,"64":-0.051822378381908465,"65":-0.00010849804734451839,"66":-0.0875621821303002,"67":-0.003998420513690418,"68":0.09713958267918282,"69":0.04897239740453687,"70":-0.12262379331936026,"71":-0.08888607639943395,"72":0.07137393570166069,"73":-0.1371431442756685,"74":-0.03995699987686708,"75":-0.028043810955851713,"76":-0.0926653465706613,"77":-0.026888665902349635,"78":0.039531612269161236,"79":0.05061045715898385,"80":-0.03061638124113569,"81":-0.00841787784546168,"82":0.04521837263341887,"83":0.036457301575297175,"84":-0.07872345685911616,"85":-0.049955119510204635,"86":0.13992605360058735,"87":0.04109609997223118,"88":-0.024088071253592636,"89":-0.0787386092040317,"90":-0.029854156294746616,"91":-0.08982852307460176,"92":0.07256475869264882,"93":-0.06563515493786891,"94":0.03131540179388604,"95":0.07490574954188818,"96":-0.08566622517052619,"97":-0.09052721758362543,"98":-0.009543290628054152,"99":0.0935174764201961,"100":0.030106812369253878,"101":0.08072065325058772,"102":0.10394664264405468,"103":-0.1014466670167475,"104":-0.11042623403241228,"105":0.01237178991780195,"106":0.06932866072015405,"107":-0.017435359652759826,"108":0.03904796475012055,"109":0.10026202576356871,"110":0.09255260531087384,"111":0.011666875635892153,"112":-0.04995838275512796,"113":0.048881439422682825,"114":0.09104211420469936,"115":-0.012928283112463265,"116":0.007780845025995466,"117":0.025740788555689863,"118":0.0106539679510349,"119":0.10181282588768607,"120":-0.053716065009433,"121":-0.07704079311199602,"122":0.010092768116638381,"123":-0.01927300211914333,"124":-0.006244926319559742,"125":0.029982560762509818,"126":-0.05189911641670525,"127":0.021634881308323455,"128":-0.027974671653930718,"129":0.025346685377633484,"130":-0.068018093031251,"131":-0.06567887849916972,"132":-0.045875519071810804,"133":0.01606860178177108,"134":-0.024524209635663364,"135":-0.03393125626623431,"136":0.0065329359886274535,"137":-0.09551748088461899,"138":0.07328613712193993,"139":0.0013057357424858043,"140":-0.0799354666397369,"141":0.09945217119856391,"142":0.009695443367623,"143":-0.13861167452765233,"144":-0.0003992608810807911,"145":-0.021033934263624845,"146":0.0847106321939473,"147":0.12139317014458612,"148":0.012595282981359675,"149":0.04726034490524196,"150":-0.03069638821450607,"151":-0.09336359080646678,"152":0.09921274716873969,"153":-0.006699216652983023,"154":0.01583033077413926,"155":0.04149780166876673,"156":-0.20187204159635116,"157":-0.017297102178370702,"158":0.039126878840631533,"159":0.05594399430796809,"160":0.09573358797237776,"161":0.07061517928212417,"162":-0.08058069099081556,"163":-0.011943785877433121,"164":0.05047034608453955,"165":-0.08070335498770183,"166":0.012991046105757636,"167":0.0797625145322713,"168":-0.010313603581282116,"169":0.06220703554648266,"170":0.06793514124703873,"171":-0.024449717910008165,"172":-0.04273030815956335,"173":0.02521782120583957,"174":0.022348723685882883,"175":0.05619026968358047,"176":0.059572581234414,"177":0.050049200495816626,"178":-0.05570631246373649,"179":0.0005613893477122014,"180":0.01985779608267922,"181":-0.013706178696071984,"182":-0.03166467569624635,"183":0.014879761898680446,"184":0.023325471328328094,"185":0.007885831109120849,"186":-0.08747184546669334,"187":0.040948158238627345,"188":0.13295671647393353,"189":0.05327118379697697,"190":-0.08802506443920978,"191":0.060411767266506156}},{"sx":1,"sy":1,"depth":192,"w":{"0":0.053709002756200566,"1":0.07419833139874815,"2":0.020268772758451674,"3":-0.023179918623425062,"4":0.014617039413328233,"5":-0.03090443685717437,"6":-0.006111501532216047,"7":-0.014684970213469286,"8":-0.04844351382322095,"9":-0.05299204242748528,"10":0.05022489127582985,"11":-0.11223441355949972,"12":0.020680955104846785,"13":-0.014255019068604923,"14":0.02761142644289161,"15":-0.023534085476267282,"16":0.07965705565691426,"17":0.0015866719346838644,"18":0.006500864365468543,"19":0.11177917254820831,"20":0.053994521889673304,"21":-0.018146567159137327,"22":-0.0873314752778591,"23":0.00007775392685457018,"24":-0.02332786862480496,"25":0.0027129948766268625,"26":-0.006355005270779531,"27":0.05987627368255649,"28":-0.041907285775208095,"29":0.0317154830344097,"30":-0.05244097273363608,"31":0.11509851463337985,"32":0.041285796102281,"33":0.0345342083312372,"34":-0.0026372426562027806,"35":-0.03749777256873783,"36":-0.08544132050961079,"37":-0.015550942589402317,"38":-0.1113723932141893,"39":-0.16210208158275005,"40":-0.019485946966262123,"41":0.015547697656727411,"42":0.004357952564857288,"43":-0.08095368973452029,"44":0.02968769999796198,"45":-0.05040511512590607,"46":-0.0547157214421213,"47":0.07918809132927247,"48":0.0003201885364250775,"49":-0.05061435427951324,"50":-0.007922721990760658,"51":-0.02287704009536211,"52":0.007460797379261412,"53":-0.03451659449482117,"54":0.11007484808951837,"55":-0.0709122209616507,"56":0.024665620939267826,"57":0.007624442487237668,"58":0.07845870556450454,"59":0.023041954234645095,"60":0.05692797326154994,"61":-0.048453644166657664,"62":0.033604640332322785,"63":-0.06430231392589132,"64":0.011254996962205686,"65":-0.01195385443564775,"66":0.06571175151531103,"67":0.060216021019613465,"68":0.024370375390527978,"69":-0.00276720397970822,"70":0.012011886385998117,"71":-0.010163278811682927,"72":-0.047707883538448285,"73":-0.021181168312957202,"74":-0.005244857762501427,"75":-0.07072106389232569,"76":0.04938484448781917,"77":0.05101840924323598,"78":0.010292256606499316,"79":-0.02216093895754497,"80":0.04373111588509588,"81":0.04084359056525328,"82":-0.1336630771786802,"83":0.014970613005704998,"84":0.027045024554691738,"85":0.010611039406500114,"86":0.044135359942510576,"87":-0.03431309253847019,"88":-0.11265184530761713,"89":0.12053158556725635,"90":0.021420083141856658,"91":-0.020506944744021455,"92":-0.020717127316419122,"93":-0.069427432417511,"94":-0.016160889500493804,"95":0.10229804532085077,"96":0.055479388584077534,"97":0.08725971470451643,"98":0.008265114326912742,"99":0.022937803942016454,"100":0.06385524601539923,"101":0.01451946741432376,"102":0.055000977072189525,"103":-0.02119127118288677,"104":-0.098739394567508,"105":0.010179817339847548,"106":0.030266342615786316,"107":-0.06195212978646358,"108":0.06188535260539727,"109":0.03923883977141921,"110":0.035589474015590865,"111":0.07691492997159668,"112":0.06516270111849008,"113":0.07853798954496541,"114":-0.04277315294521839,"115":0.04504346053807146,"116":-0.01925570723811495,"117":0.09411548364525142,"118":-0.037506391703168454,"119":-0.0816344577925482,"120":0.052458085060778314,"121":0.03250784986140894,"122":0.13639029350704096,"123":-0.061578759857718775,"124":-0.03773547365509014,"125":-0.009956160090763213,"126":0.03599157936919064,"127":0.11247490606921373,"128":0.060654683231203224,"129":0.10548928306423594,"130":0.03160759355659963,"131":0.03181173319132663,"132":-0.021078694077953694,"133":0.012906419974218725,"134":-0.08308803465131341,"135":-0.0869806519669023,"136":0.006783862863457071,"137":0.036660835569766216,"138":0.01870505821543931,"139":0.04610164090323552,"140":0.0013355229657744574,"141":0.05044492608871624,"142":-0.0267783941960242,"143":-0.06900894231342133,"144":0.014656104956726878,"145":0.03152824887429295,"146":-0.11073552489051647,"147":0.03539107073647845,"148":0.013424766731659198,"149":-0.04215879529936975,"150":-0.005944550611856253,"151":0.02808403887184607,"152":-0.004201842003765933,"153":0.04413316249055359,"154":0.05747408293798968,"155":0.06577302128604101,"156":-0.06093624681074771,"157":0.0809502463882429,"158":0.06283465444480729,"159":0.06486667820074245,"160":-0.15648103446172773,"161":-0.09063988062096638,"162":0.04769110520864235,"163":0.0024394161658031497,"164":0.016635503375740913,"165":-0.020932016239779572,"166":0.013343583210637625,"167":0.13413782137485558,"168":-0.009043991553500042,"169":0.028624345038825345,"170":-0.033327724410873366,"171":-0.026052689493675,"172":0.06189680661589836,"173":-0.029363105275011212,"174":-0.01820891465600723,"175":-0.0030923829512894143,"176":-0.054698336034484527,"177":0.014002086259121747,"178":-0.015072473275611327,"179":0.056895136439049816,"180":-0.0036021562248867746,"181":-0.0650422894226072,"182":0.04377176337098702,"183":-0.0006277674731520385,"184":0.05877604908452225,"185":0.10372986674119135,"186":0.07491866908978577,"187":0.002008951809416757,"188":-0.12028438446568772,"189":0.022796259302643007,"190":0.035403109504014776,"191":-0.015319179389251822}},{"sx":1,"sy":1,"depth":192,"w":{"0":-0.010136410271717808,"1":0.017290153963621113,"2":0.019191360876123966,"3":0.08351124699107614,"4":0.08743262439398386,"5":0.18005084504314336,"6":-0.037765830990517384,"7":0.0627983439526553,"8":-0.024302097577779205,"9":0.049504493301263046,"10":0.10353874341453231,"11":-0.01447270696119671,"12":0.00927843550099553,"13":-0.025255597811284617,"14":0.13572177896032198,"15":0.0835765139657064,"16":-0.01722497137134659,"17":-0.07964300721194738,"18":-0.06516643393749613,"19":0.06343833894576396,"20":-0.04592318089477469,"21":-0.018891305958549945,"22":0.06910085544883811,"23":0.05574018911887321,"24":-0.10605912865591904,"25":-0.049787316757591626,"26":-0.07454313890138134,"27":-0.1458195301531463,"28":-0.04511477024096233,"29":-0.018831920726215343,"30":-0.02700785345523995,"31":-0.08747325121774308,"32":0.11885247837764472,"33":0.03145594632163957,"34":-0.12753895553394304,"35":0.07216898306811095,"36":-0.010283952995694486,"37":0.0150724788567381,"38":0.03190957765496991,"39":-0.10547675641328176,"40":0.01167829836153378,"41":-0.0078392753949702,"42":-0.021074717331567672,"43":-0.015814049152160975,"44":-0.006502660009550301,"45":0.03492404182063714,"46":-0.10068331121725207,"47":-0.048957134141809584,"48":-0.016869143660535088,"49":0.03572835979468004,"50":0.03897427773875204,"51":-0.09727141914502205,"52":-0.058738847142284646,"53":0.02542202601799869,"54":0.06547379782973994,"55":-0.011711982682214832,"56":0.02225866461535679,"57":0.001118026457084064,"58":0.05625604890346722,"59":0.01933578111623117,"60":-0.01551995548597126,"61":-0.01609867886668678,"62":-0.01665453796334741,"63":-0.060958691610924,"64":0.035572301616263464,"65":-0.016839940942336963,"66":-0.0453347390307404,"67":-0.04455321502556848,"68":-0.038777361022927774,"69":0.06793232618299948,"70":-0.034472158139735434,"71":-0.015682021878327602,"72":-0.03450330148798645,"73":-0.055876736651577504,"74":0.08973843266953765,"75":0.07536752489560947,"76":-0.06493437414080792,"77":-0.08860102478894516,"78":-0.07173459137947223,"79":-0.02292578539735892,"80":-0.13990323738858165,"81":-0.009358830278448117,"82":0.008665275762257714,"83":0.10679121503246405,"84":-0.018467535449450224,"85":0.08482404382822595,"86":-0.013523063127986037,"87":0.05847831722413072,"88":-0.00632723885966606,"89":-0.029042722509790907,"90":0.15187606516077254,"91":0.047508360529080765,"92":-0.04156780502864432,"93":0.07397407632863644,"94":0.014290592781319207,"95":0.0652816837582703,"96":0.035663659471378555,"97":0.005822103380572687,"98":0.01348484376050494,"99":-0.013895457607051385,"100":-0.0634277824913754,"101":-0.07573276551179824,"102":0.042087477045908116,"103":-0.0016545000916118185,"104":-0.05882112300338847,"105":-0.07703689657851352,"106":0.05079710281410771,"107":0.0644227688488559,"108":-0.06853787348301017,"109":-0.17178020234262123,"110":-0.055574014667403034,"111":-0.05468626924406207,"112":0.12352876617298407,"113":-0.03447034893637489,"114":0.005993500199530549,"115":0.03997458367882552,"116":-0.03310984895793645,"117":0.0039009144863574635,"118":-0.09723436761626614,"119":-0.02325144399191857,"120":0.058505641661941,"121":-0.031101487866209577,"122":0.024784089684728023,"123":0.01035113425270221,"124":0.0013363957265327931,"125":-0.024290384397669982,"126":0.01434226672473119,"127":-0.05801540133993288,"128":-0.037497648601794255,"129":-0.02437129274143267,"130":-0.02040080765059044,"131":-0.08918717263233152,"132":0.018246618184214237,"133":-0.013911935923662657,"134":-0.0399426442271364,"135":0.07352776853251188,"136":-0.008269430860857348,"137":-0.028711069464221757,"138":-0.06526627979618578,"139":-0.015639892592123093,"140":0.07723855924355527,"141":-0.04332277321987768,"142":-0.04004626658837905,"143":0.0598914723180621,"144":-0.04122673581719431,"145":0.012504559672260895,"146":-0.049362467454285866,"147":0.10321920817346332,"148":0.17194808550854135,"149":0.04537070482573003,"150":-0.035991684220580814,"151":-0.04814525528077303,"152":0.025319623870332538,"153":-0.029910315153224044,"154":-0.060689667977460296,"155":0.05465876641166432,"156":-0.04953349442544273,"157":0.009408565274949985,"158":0.0914119589599775,"159":0.04230082774130401,"160":0.02923408745240469,"161":0.15125915568519158,"162":-0.04445364445168611,"163":-0.08201440207839542,"164":-0.050598266015059394,"165":0.10618679928047643,"166":-0.021167789101662407,"167":-0.03983771941530425,"168":0.07145785058741805,"169":-0.016275361469986992,"170":-0.003908743285730755,"171":0.11390196556371662,"172":-0.02995066287043652,"173":-0.05180482018095702,"174":0.06970357726672055,"175":0.0470923759425969,"176":-0.07605864683386418,"177":-0.07653416945101674,"178":0.03315239267124567,"179":-0.11788070699759691,"180":0.12353714745101022,"181":0.026139658769161526,"182":0.02148018810274922,"183":-0.10733683265679504,"184":0.030901103702872402,"185":-0.0163016502063296,"186":-0.1757722195413026,"187":0.03673219088781124,"188":0.016778411585360396,"189":-0.020129386301645718,"190":-0.0054946247794369915,"191":-0.0018342600251276288}},{"sx":1,"sy":1,"depth":192,"w":{"0":0.010952248429632662,"1":-0.001666115330537986,"2":-0.06653093128901026,"3":0.15352827063403263,"4":0.044715180400343106,"5":0.04911096766424987,"6":0.0724039493233209,"7":-0.07126458235657941,"8":0.05107762057589558,"9":0.08977102886774775,"10":0.024791273238882316,"11":0.07039230091979948,"12":0.03454747264939122,"13":0.04566592929266179,"14":0.07483817732411059,"15":-0.024711541686966765,"16":0.04858458001653546,"17":0.10464357175105593,"18":-0.12475549366489551,"19":-0.03755042511717334,"20":0.04419346601253573,"21":-0.07495270727055027,"22":0.019942931048867414,"23":0.03810435015969213,"24":0.00006266554753462103,"25":0.03625949911557181,"26":0.014512462098933617,"27":-0.09751538633962734,"28":0.0676286393963515,"29":0.07432877607576209,"30":0.06362650607431444,"31":-0.024869828918003527,"32":0.0033347972779079614,"33":0.04497408833040853,"34":-0.05730906323441221,"35":-0.013665868483373589,"36":-0.04439420797713871,"37":-0.060269127447476624,"38":0.06690837591320732,"39":0.08090117055753408,"40":0.019344680140389543,"41":-0.06510192329588509,"42":0.08317392027933472,"43":0.021559638060889636,"44":0.049019700777466084,"45":0.037708063553686375,"46":-0.00493580227975982,"47":-0.030859051701664107,"48":0.036037058321797016,"49":0.03063701439297352,"50":0.010194519900831613,"51":0.025239289829669033,"52":0.08698006024071514,"53":0.00981636715328247,"54":-0.0007157450179954677,"55":-0.06385991766654228,"56":-0.013566766436116137,"57":0.0849393626439828,"58":0.032295997151590615,"59":0.002872569267582655,"60":0.07883512138843306,"61":-0.0689867772259053,"62":0.11361232265825595,"63":0.035753855916201616,"64":0.07733424398496773,"65":0.03623782095955214,"66":-0.04432291712355838,"67":-0.10783568100340389,"68":0.1287329572503431,"69":-0.07698681764954841,"70":0.04253434741245719,"71":0.003346780961744627,"72":0.08594934620433156,"73":-0.07892472911852692,"74":-0.045895720448544765,"75":-0.10278973670644989,"76":0.05385470641333913,"77":0.04077605901914926,"78":-0.12832802382533676,"79":-0.02413778571204643,"80":-0.021963709328582093,"81":0.011204987304817378,"82":-0.016639381461358585,"83":0.016601383188517276,"84":0.003923285718334419,"85":-0.0011493250300949336,"86":0.04950021612190154,"87":0.02246017858363719,"88":-0.01805971040288789,"89":-0.0926142154311402,"90":0.04133555590545511,"91":0.14447010749203487,"92":-0.048276987532847454,"93":0.01746707660180061,"94":0.06494830186964112,"95":0.11692134792983679,"96":0.09083404683329474,"97":0.09961033430975832,"98":-0.05708957651414865,"99":-0.01920403260327889,"100":0.04385528522985275,"101":-0.06932632821902178,"102":-0.05751276864620291,"103":0.0019776149891339912,"104":0.06094432832806032,"105":-0.050390119683008806,"106":0.09867305026778533,"107":0.014084545353652807,"108":-0.021152045401781852,"109":0.012015636797031074,"110":0.0008982092311034513,"111":-0.012240717629960178,"112":0.023726196051071482,"113":0.020465461450531516,"114":0.11895492436768737,"115":-0.010317277743194983,"116":0.03472128776758972,"117":-0.039868886240855196,"118":0.049028261747250085,"119":0.08359004924697852,"120":0.009858246723894487,"121":0.017942262740171962,"122":-0.058924084467772746,"123":-0.06624922048836239,"124":0.07395230949825925,"125":-0.028754158675411617,"126":-0.10570444500069373,"127":0.021392100306539392,"128":-0.007446438898482779,"129":-0.10667187684776999,"130":-0.07410756520498807,"131":-0.09248649590272777,"132":0.0072929845937295314,"133":-0.1524369292309328,"134":-0.09769252134088949,"135":-0.08891980606743007,"136":0.006795508073731678,"137":-0.15392713243877848,"138":-0.07528180266752034,"139":-0.0038715069391139214,"140":-0.07546182619586693,"141":-0.018595383915919084,"142":-0.10926950376017877,"143":-0.041476256426972766,"144":0.08525023296696113,"145":-0.021616959924181504,"146":-0.015293533323233969,"147":-0.002066543277154331,"148":-0.08965203578492084,"149":0.018975072506573466,"150":-0.0011760931762410543,"151":-0.025404853743357728,"152":0.08312251045808572,"153":-0.012694364171792195,"154":0.10163007733714503,"155":-0.0461391948329708,"156":-0.03524006871042053,"157":-0.09679661890743584,"158":-0.040638793783359044,"159":0.08263803571328235,"160":-0.025876018764318682,"161":-0.005297431964319527,"162":-0.03226533216484344,"163":0.030071901260835004,"164":0.0013432977192068653,"165":-0.10894153644097553,"166":0.021736475408085765,"167":-0.06930331801554232,"168":0.04221357020357313,"169":0.05573969615436254,"170":0.04567250732563801,"171":-0.02591232238414083,"172":-0.06616235644030492,"173":0.05971747450995653,"174":0.05565444859583929,"175":0.08957628757741537,"176":0.15156107544339772,"177":0.025115949558909764,"178":0.0837340886488713,"179":-0.1539187979044481,"180":-0.03466113052014589,"181":0.04635788338884516,"182":-0.0024440156940697595,"183":-0.07358094699584727,"184":0.08588472530814241,"185":0.10401273273562274,"186":0.027532389478177377,"187":-0.15056909241634564,"188":0.14213505261581422,"189":0.033152756267796755,"190":0.003614222764837256,"191":0.051683388850637335}},{"sx":1,"sy":1,"depth":192,"w":{"0":-0.060413629547858755,"1":-0.04274106217968466,"2":0.044060514895526,"3":-0.006424168546193758,"4":-0.003481197267701002,"5":0.033206375145612345,"6":0.10634552821067154,"7":-0.04630924749601459,"8":-0.04263643787008539,"9":0.13468180025665497,"10":-0.015277872248192468,"11":0.038060674517456955,"12":-0.05349174741845857,"13":-0.038629579999912886,"14":0.038157343038252724,"15":-0.02254402889972141,"16":0.021123391653433715,"17":-0.08760976351838995,"18":-0.03571664809516101,"19":0.012169208155858454,"20":0.03740944431978546,"21":-0.05008616135397715,"22":-0.044384450400385106,"23":0.14911955383058295,"24":0.10623042697873737,"25":-0.006242872509773932,"26":-0.010152804020593705,"27":-0.03014102946050333,"28":-0.03950772431245882,"29":0.016902465890407243,"30":-0.05458188443019863,"31":0.020452293622354248,"32":0.052863832113966926,"33":-0.01552948801028577,"34":-0.025062001252902706,"35":-0.07765602619322691,"36":0.01670717113523862,"37":-0.020804957841009216,"38":0.08758289799293563,"39":-0.03281728557958686,"40":-0.08119709423549022,"41":0.04814196186480624,"42":-0.0792234884625226,"43":0.00359220404636135,"44":-0.0030097135303601362,"45":-0.07786434714338562,"46":-0.02696440904256698,"47":0.18378835097758336,"48":-0.03260768914255878,"49":0.08847759741342306,"50":0.014260135932482414,"51":0.041177845887465724,"52":0.06070005153340722,"53":0.04582230978058015,"54":-0.035885880750229804,"55":-0.029959257143831585,"56":0.04514875736888351,"57":0.08182684041142041,"58":-0.05810104231271771,"59":-0.08541342816054001,"60":0.03480562463490998,"61":-0.022839897119205588,"62":-0.057655307980200916,"63":-0.09245083613495152,"64":-0.07447732469984976,"65":-0.059329534983440554,"66":-0.021786209687280386,"67":0.0017573139694960396,"68":0.022682334399267447,"69":0.008482566209802513,"70":-0.025486162290136737,"71":-0.009738373992042821,"72":0.08486438430581704,"73":-0.028303471199598567,"74":0.011195267337594982,"75":0.020026001823590506,"76":0.11841533544510371,"77":0.060574947397299066,"78":-0.06599948214734691,"79":0.015803171459444723,"80":-0.01603967883315857,"81":0.01387093980748297,"82":0.046285697114071815,"83":0.004671538555822344,"84":0.06207535765992247,"85":0.015362234489213906,"86":0.05722352559435868,"87":0.03134979389429163,"88":0.007233972590339559,"89":0.06401704426505692,"90":0.021591438396469213,"91":0.02943253390809649,"92":0.08799217026671131,"93":-0.06791764027852103,"94":0.1523022666970279,"95":-0.05382959837182078,"96":0.03594179408550755,"97":0.07466343196546174,"98":-0.006304750361225598,"99":0.0855525084950595,"100":0.006577893866594066,"101":-0.02687388156380384,"102":-0.02491178665256159,"103":-0.0417705882113869,"104":-0.11033590876733355,"105":0.055460935038030644,"106":0.031022124288750466,"107":-0.05699429327070938,"108":0.018809434295219765,"109":0.05596437644616917,"110":-0.019642416162221402,"111":0.06592159742437229,"112":0.024455395021646103,"113":-0.014611242075653135,"114":-0.06215721485233204,"115":-0.04186820518598363,"116":-0.050396091920449665,"117":0.11797822113652458,"118":0.006963510322046763,"119":-0.13804159808860922,"120":0.04972186241377987,"121":0.03919153329379826,"122":0.01693284715918322,"123":-0.04180142236947148,"124":-0.029395065765571576,"125":0.01689876412281454,"126":-0.06841267389397142,"127":0.0077506273919541865,"128":0.053306439124835896,"129":0.14309664298623065,"130":-0.1218478486000385,"131":0.06275826084122646,"132":-0.02179742664607668,"133":0.12343113119502735,"134":-0.004878898741362784,"135":-0.019185329222991713,"136":-0.12643721008670195,"137":0.012620769523981556,"138":0.02394371830141659,"139":0.1158126675985747,"140":-0.06762301978194052,"141":0.04151333109145494,"142":0.055332525065240105,"143":0.1155137414203606,"144":-0.018171018725696278,"145":0.013099404666215581,"146":-0.09823544108813295,"147":-0.012634200838898843,"148":-0.003595141846577762,"149":-0.09280718101427962,"150":-0.0023588654905633308,"151":-0.0025905791838940636,"152":0.03353715315487709,"153":0.060257652458111786,"154":-0.011766983542964042,"155":-0.01834063613899762,"156":0.08373273242470149,"157":-0.03411219223229134,"158":-0.025790157479379596,"159":0.055893240908505414,"160":0.08452909203919573,"161":0.04275775896786234,"162":-0.08568601256282711,"163":0.09624713468249274,"164":0.04449734619197013,"165":-0.06277454618200062,"166":-0.11260675174867202,"167":0.03785872621302401,"168":0.08247650452853611,"169":0.0022836844751226762,"170":-0.018102823528985085,"171":0.027214086549897515,"172":-0.0052242891933138615,"173":0.04996703400510483,"174":0.010327270428441832,"175":-0.004441309260068058,"176":0.023462648710778685,"177":0.04409231377800723,"178":-0.13856223584832142,"179":0.02515511196394296,"180":-0.08755901003857004,"181":0.03791972618282929,"182":0.00044023424639987746,"183":-0.03182964370784307,"184":0.084741404280149,"185":0.11700881498853001,"186":0.003403435926689079,"187":-0.09699211034360092,"188":-0.043498301098540824,"189":0.0025236094326199806,"190":-0.05651468675306092,"191":-0.1525879933542241}},{"sx":1,"sy":1,"depth":192,"w":{"0":-0.031419690008430375,"1":0.005302351000146243,"2":0.09871598475241432,"3":-0.020776706945397738,"4":-0.11511097297298058,"5":0.09241959772486376,"6":-0.09788532293768153,"7":0.002900245810188865,"8":-0.02641611475844049,"9":-0.16038767824524577,"10":-0.09538822379333169,"11":-0.008721732514027818,"12":0.053717712694730975,"13":0.10540349353419386,"14":-0.12631568001005156,"15":-0.08038636088424088,"16":0.024402907051599757,"17":-0.027718932993823654,"18":-0.033697877690192134,"19":-0.03078941332355993,"20":-0.07558144744994447,"21":0.06949807556572755,"22":-0.0010816600746993627,"23":-0.032611920141209914,"24":0.02878817197607972,"25":-0.06487256449186589,"26":0.09147828321182559,"27":0.03471015540309455,"28":0.013210809877102278,"29":0.0446319150679266,"30":0.025298873196129813,"31":-0.03396404662180771,"32":0.05922255366861623,"33":-0.03481972502714682,"34":0.013689931339859447,"35":0.09471618694982757,"36":0.0671785661584346,"37":0.04523623129807721,"38":-0.0004939214581057008,"39":0.021448516321951112,"40":-0.023906539565193275,"41":-0.08979672529872294,"42":0.07440524193688589,"43":-0.0647618363131229,"44":0.06589224425882059,"45":0.006430468268485348,"46":0.021467844806776017,"47":-0.013756392673519795,"48":0.01613524721759854,"49":0.012449030802340137,"50":0.08639798312916944,"51":-0.1155276100492674,"52":-0.11755660893717494,"53":-0.0007178958864131174,"54":-0.08632893966912761,"55":0.006059018004646631,"56":0.0021487495008746097,"57":-0.030660627827067233,"58":0.03780348247801369,"59":-0.11038500284755323,"60":0.01452373876292142,"61":0.0819549708355866,"62":0.0654691347119704,"63":-0.03880544274575088,"64":0.06435827071848677,"65":-0.018423025826275887,"66":0.049642306554190184,"67":-0.051746210694548524,"68":-0.15765733357991665,"69":-0.017349623283795204,"70":-0.020756853528668028,"71":0.003899727092990652,"72":-0.06284999423800408,"73":0.037961492277576975,"74":-0.08231573077113187,"75":0.057765112529142855,"76":0.17935242973052973,"77":-0.025749834687744166,"78":-0.11900401552504779,"79":-0.05465487284058173,"80":0.015083055634669253,"81":0.024001166600875243,"82":0.024072021627247222,"83":0.026616274835360578,"84":-0.022657602424388405,"85":0.005280443649266889,"86":-0.05455821069856872,"87":0.06169004106158073,"88":0.05520274036460364,"89":-0.11365723280608672,"90":0.1402035915789919,"91":-0.043351631962681915,"92":0.06212730161960017,"93":-0.01730324295533859,"94":-0.040225164084059725,"95":0.04294106255385497,"96":-0.003403347813956655,"97":0.030217985338720065,"98":0.044903543695290093,"99":-0.10109885431089372,"100":0.018187804672199676,"101":0.14025695373575583,"102":0.0929524436016532,"103":-0.02403562321665718,"104":0.01268592842606736,"105":0.05453212948755713,"106":-0.027003476863806428,"107":-0.01567569389199819,"108":0.03312395612648236,"109":0.07537613499520092,"110":-0.007767505728330594,"111":-0.10489138192912643,"112":-0.01042394722673744,"113":0.0022643488207508386,"114":0.05000051674957949,"115":0.004634480100050949,"116":0.01646500693589779,"117":0.05761999035898151,"118":0.05675194016815872,"119":-0.05084142085451037,"120":-0.028760792374902467,"121":-0.12850542785479385,"122":-0.017994879808923208,"123":-0.032743567451835646,"124":-0.03247253752668809,"125":0.040967039913369606,"126":0.05483619702227941,"127":0.0716201111097528,"128":-0.0839277907798573,"129":0.09481558131788932,"130":-0.07962849984546339,"131":0.07094368795171081,"132":-0.08395770961397331,"133":0.0938901258289284,"134":0.03432332424325933,"135":0.07093877271283988,"136":0.20410542708783433,"137":0.14272479557637793,"138":-0.009443422160359866,"139":-0.016832904680096638,"140":0.04264301133496608,"141":0.03180024926923939,"142":0.06625931966880014,"143":-0.08498178855332622,"144":0.07574372996447241,"145":-0.028033066620747775,"146":0.03265449625482751,"147":-0.00673001740065254,"148":-0.06341163883466458,"149":-0.06787604650341222,"150":0.06667984949110575,"151":-0.10033360410740817,"152":-0.016638654907697326,"153":0.0011417386148009896,"154":-0.06488680697647982,"155":0.03945763224707743,"156":0.002918722984591405,"157":0.06427492929887134,"158":0.02827266637714212,"159":0.08375135302216856,"160":-0.010723792802093441,"161":0.024102846479044298,"162":-0.035066462493992326,"163":0.015710171030994344,"164":0.037032624898652645,"165":0.03176457194566304,"166":-0.034497922662435516,"167":0.011351710463809865,"168":0.014072239442597334,"169":-0.03423812195910375,"170":-0.03533649025417945,"171":0.050553559386751545,"172":0.03730138846587636,"173":-0.05102567645508875,"174":-0.0026332412515405004,"175":-0.02965800641259005,"176":-0.005294521348901377,"177":-0.01807291903371877,"178":-0.010156613288878048,"179":-0.05691173458791645,"180":-0.038323098095591646,"181":0.10806387706021187,"182":-0.08217274674427946,"183":0.02886566206983171,"184":0.014141286406576725,"185":0.011925426665988361,"186":-0.05311826752631036,"187":0.16262531525187096,"188":-0.011730641669031082,"189":0.0038314978032606517,"190":0.009960829979220534,"191":-0.0711734489895321}},{"sx":1,"sy":1,"depth":192,"w":{"0":0.042741474829845666,"1":0.06515605809679133,"2":0.06887153012854914,"3":0.23010276177982597,"4":0.15611804839891408,"5":0.13174544824596765,"6":0.10335875896253832,"7":0.0627497807611758,"8":0.06318627207515763,"9":-0.035900006409079574,"10":0.11814821581448538,"11":-0.04032202381736189,"12":-0.00715021382987996,"13":0.1525216211733597,"14":-0.07279469305515564,"15":0.1167061150702667,"16":0.06816529924775866,"17":0.03982302426097598,"18":0.01841645377355867,"19":-0.11385473908620194,"20":0.06631932403138048,"21":0.005672572300359379,"22":0.15502006900623216,"23":0.08319841418994031,"24":0.10607624376831115,"25":0.06548815806300662,"26":0.16583521201292928,"27":-0.04448506085460904,"28":0.01313805984323429,"29":0.0407533964324485,"30":-0.04916482587053765,"31":0.026300026087074654,"32":0.01842713267878904,"33":-0.08879887991206793,"34":0.06990226155651381,"35":0.06212741063432168,"36":0.04829364684949485,"37":-0.05247412574404241,"38":-0.05695062302608381,"39":0.13290865601936594,"40":0.04538442349223368,"41":0.04356499558047723,"42":-0.14083071993475238,"43":-0.017030380460173487,"44":0.017194237550081776,"45":-0.18239291657553214,"46":-0.05135799773163021,"47":-0.018751122281013156,"48":-0.042913758189154785,"49":0.07006118973441886,"50":0.0006249288081194687,"51":-0.07146735966507127,"52":0.01334596897063891,"53":0.08485184174311966,"54":-0.028569641702104732,"55":0.007176672028085196,"56":0.051917865614985785,"57":-0.06921803734398206,"58":0.031180556021357147,"59":0.004274667400366346,"60":-0.0285194257687074,"61":0.0013137982588656543,"62":0.09310753144438623,"63":0.02435285497392936,"64":0.1497139153809655,"65":-0.03125730603613197,"66":-0.17268198688431113,"67":0.0639051260789336,"68":-0.02706683326772385,"69":-0.00777488121106493,"70":0.04094231097882986,"71":0.05412590610912976,"72":-0.034568998677442994,"73":0.06332768783615164,"74":-0.06324388623129391,"75":0.11084476954000108,"76":0.03965815266800846,"77":-0.03727989222833339,"78":0.07916965346511785,"79":-0.023127295714705676,"80":-0.013582775362159375,"81":-0.06180847176153489,"82":0.099323852925073,"83":-0.011237583953457865,"84":-0.06440117820785285,"85":-0.09949054665007427,"86":-0.033539912338474746,"87":0.016043209078873546,"88":-0.058269762368769705,"89":0.06200237638534036,"90":-0.0074035484337717705,"91":-0.011330639761550403,"92":-0.048640001874376684,"93":0.03147514934129043,"94":-0.03141286862989511,"95":0.06449911378011591,"96":-0.048281513151649295,"97":0.007433985244216941,"98":0.036429565241420006,"99":0.004338256985505916,"100":0.05709384624647327,"101":0.10818971174585289,"102":0.008732820367057163,"103":0.08574419795359517,"104":-0.03924019313333719,"105":-0.022464002103610336,"106":0.038491040622937456,"107":0.03826333924216657,"108":0.07240066973040123,"109":-0.03588959605542999,"110":-0.13143490863925675,"111":-0.04655777792311426,"112":0.06879597873054584,"113":-0.018871512959711154,"114":0.06831812121082563,"115":-0.08034366427694441,"116":0.0012917821234878365,"117":0.02150529941078049,"118":-0.04901661121387312,"119":-0.010188464142455857,"120":0.045505843535687894,"121":-0.010637674983466572,"122":0.004078852512822123,"123":0.04500805660666113,"124":0.0010121383412593124,"125":-0.006623304794034179,"126":0.018876413481818125,"127":0.01847208831677203,"128":-0.04928649247492798,"129":0.10064549244545763,"130":-0.1607838997712182,"131":-0.17562118334000432,"132":-0.10492773392682447,"133":-0.12314080668838827,"134":-0.045004927238062056,"135":0.09092473914482667,"136":0.10068710768321411,"137":0.03982843579102285,"138":0.041926157521439404,"139":-0.025673840019016403,"140":-0.03382706690508,"141":0.06783712785765443,"142":-0.017975629408099752,"143":0.11397243225516,"144":0.09165706591235825,"145":-0.07431119609968595,"146":-0.0839999626953328,"147":-0.11728406937162154,"148":-0.061099179017736385,"149":-0.06887422288280827,"150":0.030463825714044036,"151":-0.0253191687238772,"152":0.06384948028663036,"153":-0.02734790477257994,"154":0.025569771739387112,"155":0.0694940481806724,"156":0.040204089678666025,"157":0.01071542555822705,"158":-0.052010220309577325,"159":0.08097142535006371,"160":0.0013036575506051931,"161":0.014512095230796572,"162":0.07407993059428779,"163":0.01254302407280713,"164":-0.1044792502747647,"165":-0.09868399395160192,"166":0.03152011464388629,"167":-0.04822370243284712,"168":0.039628891664078056,"169":-0.10816136345305839,"170":-0.06319696346880724,"171":-0.008550623486900067,"172":-0.11973113538576294,"173":0.10317233042506228,"174":-0.021896390781564974,"175":0.03511211796552107,"176":0.04969485397216354,"177":-0.05384609990000647,"178":-0.027632497678186988,"179":-0.060043680684106066,"180":-0.05056014001437831,"181":-0.037583848438723144,"182":0.03073204205167231,"183":0.021321472617831065,"184":0.044263607168882335,"185":-0.12057759618184424,"186":-0.02892599648496907,"187":-0.009452457245320265,"188":0.02701129316194536,"189":-0.05571928329773527,"190":0.01682200441991947,"191":-0.01342011300514694}},{"sx":1,"sy":1,"depth":192,"w":{"0":-0.04722221683937096,"1":0.07578045994553835,"2":0.10861755774987836,"3":0.231098190978787,"4":0.10633509500041595,"5":0.0613358239806069,"6":0.06740161470841884,"7":0.13841194760734715,"8":-0.008367290159923008,"9":0.13626150079990887,"10":0.025084262655430026,"11":0.037381590582793674,"12":0.048733517879140965,"13":0.027085058565580744,"14":-0.06616500018897448,"15":-0.028511074795191486,"16":-0.03504211381011151,"17":0.024076882710156334,"18":0.05878373184153397,"19":0.005795544726913976,"20":-0.006246398340683471,"21":-0.04348658486306671,"22":0.10368474850123514,"23":-0.07850527170523584,"24":-0.013886541161647557,"25":0.061839137021097,"26":-0.01582837267968587,"27":0.09727980732641879,"28":-0.11439494435385957,"29":-0.020218725719787528,"30":0.02751622219514683,"31":0.034184699410392524,"32":-0.09180946033011755,"33":0.08866490699519067,"34":0.06673350959530223,"35":-0.036174279890756104,"36":-0.06228395543636769,"37":0.005809764397051795,"38":-0.06148746804647854,"39":-0.04171062163536894,"40":0.032570986765332675,"41":-0.05875123742992366,"42":0.054265882117637616,"43":0.08970094373335832,"44":-0.016418418175167412,"45":0.1326172202778161,"46":-0.012341790063231824,"47":-0.11091996978214404,"48":0.12894094970279124,"49":0.010952664670969291,"50":-0.051262212941464706,"51":0.050219049141428065,"52":-0.06294369577736585,"53":0.04809614924653911,"54":-0.11670388876449526,"55":0.05821690268863013,"56":0.07016416312042764,"57":-0.10450599885672579,"58":-0.08856635240213105,"59":0.006570465147248101,"60":-0.0028326249457866592,"61":0.03999458494267451,"62":-0.1066720407379219,"63":0.06661535365254101,"64":0.04212566720651436,"65":0.007617524723732215,"66":-0.14844408298574663,"67":0.003020783913338843,"68":0.13674707889878607,"69":0.08085375911989194,"70":0.005580078063206025,"71":0.04585645590824548,"72":-0.04686072057619956,"73":0.06797477550592224,"74":-0.019224179133644388,"75":-0.060868431152139225,"76":-0.05342831331625667,"77":0.07382162692783642,"78":-0.08575711434349402,"79":0.008276014632405966,"80":-0.008297898765902742,"81":-0.03415340743299309,"82":-0.06904826984956666,"83":0.058847622411082635,"84":0.0011543478378915663,"85":-0.12618085356872905,"86":0.038362041921301424,"87":-0.06046623661139815,"88":0.06959593542090904,"89":-0.08829951543562026,"90":0.034637701849376396,"91":-0.06217013141096707,"92":-0.05435797354477323,"93":-0.06246849630822162,"94":0.016534870195591245,"95":0.008508460138282782,"96":-0.03477184141396324,"97":-0.01589905367771184,"98":-0.0026568157768994826,"99":0.02861861473440865,"100":0.028759967161131033,"101":-0.0769852126940022,"102":-0.028767998805657457,"103":0.03782515631388538,"104":0.08720465722723174,"105":-0.017110864735787764,"106":-0.04269028230632168,"107":-0.03560461340274068,"108":0.01635964669987656,"109":-0.08434375564797632,"110":0.06202101576663724,"111":0.07523516545367973,"112":-0.021756924095798564,"113":-0.022815771867861347,"114":0.05162750301189519,"115":0.024734770188782743,"116":0.027701710868186284,"117":0.07781130079621454,"118":-0.010126019996500637,"119":0.038214203927147514,"120":-0.004265584314141257,"121":0.023486748545967488,"122":-0.05330456247371224,"123":-0.020766305965826303,"124":-0.03949253431495582,"125":-0.008778869843118157,"126":0.08520382813331111,"127":-0.022242388615456445,"128":-0.029052439099358528,"129":-0.0721159256081801,