{"layers":[{"out_depth":192,"out_sx":1,"out_sy":1,"layer_type":"input"},{"out_depth":192,"out_sx":1,"out_sy":1,"layer_type":"fc","num_inputs":192,"l1_decay_mul":0,"l2_decay_mul":1,"filters":[{"sx":1,"sy":1,"depth":192,"w":{"0":-0.020501057107548678,"1":-0.04435613244222008,"2":-0.11886043222023956,"3":0.44863608526349397,"4":0.15271308384161844,"5":0.017881839815626768,"6":0.20530938832387516,"7":0.1338509042035476,"8":0.17072623082439495,"9":0.2027992225243817,"10":0.06143864923132202,"11":-0.02988713855515424,"12":0.004357917738516846,"13":0.13426238878317315,"14":-0.00294887097838139,"15":0.05729365806823516,"16":-0.05657263083059014,"17":0.007783121339786852,"18":0.024622622342243786,"19":0.010557795083632747,"20":-0.08469456100240169,"21":-0.0007313629122850795,"22":0.03938351445747331,"23":0.02444012136237199,"24":0.031752642537748316,"25":0.03783245803925004,"26":-0.03502690269119822,"27":-0.030202178590302095,"28":-0.0354852140359303,"29":0.032155148885907016,"30":0.004957425378787877,"31":-0.01585175606008841,"32":-0.0609296805915885,"33":0.0006445001103988402,"34":-0.04472771591283773,"35":-0.0056202284229248155,"36":0.009765991429251115,"37":-0.018172302269136124,"38":0.06895513253422555,"39":0.007658647556808663,"40":0.038206157037042165,"41":-0.04258362525226492,"42":-0.053409297633591035,"43":0.010215070004820333,"44":0.04452077764145445,"45":0.05508685607003551,"46":-0.062285865755115244,"47":0.04812391286009823,"48":-0.01457436808379832,"49":-0.02673255237366356,"50":0.03079014673079426,"51":0.07644862859542566,"52":-0.014037785532102543,"53":0.015923604291115997,"54":0.013824617956382013,"55":-0.01554682047055423,"56":0.030926615314949002,"57":-0.025523495151974742,"58":0.058461979403754034,"59":-0.0678094324556054,"60":0.01817553411159935,"61":-0.012958835036774604,"62":0.02780998930351303,"63":-0.02921692939208341,"64":0.05054145306139201,"65":0.12018480409556695,"66":-0.05293223124313303,"67":-0.013011408525549493,"68":-0.046146531396855636,"69":-0.07522118744979735,"70":-0.00576446262081034,"71":0.017171181459707134,"72":0.00750523394419024,"73":-0.06800716359866925,"74":0.05262352810700836,"75":0.11341860413969485,"76":-0.029694499704434725,"77":-0.10953404970453527,"78":-0.007055411098132244,"79":-0.07566317703520249,"80":0.06836683556939618,"81":0.05971263549647607,"82":-0.01624122323835985,"83":0.07754507360151221,"84":0.06782172026600417,"85":0.023806001106454838,"86":0.03649049997234533,"87":-0.0771587694394479,"88":0.08443546433967154,"89":0.005839605969423148,"90":0.07113261157769252,"91":-0.08361493158262968,"92":-0.02975725730481772,"93":-0.0039294394336176,"94":0.0052159088966927695,"95":0.08768728353035884,"96":0.0010523983143658957,"97":-0.05314295771548393,"98":0.03084649257882072,"99":-0.006814297464538047,"100":-0.03801256088409478,"101":-0.024695004541640968,"102":0.003183745571469405,"103":-0.04854110158730871,"104":0.05966756647929445,"105":-0.04742235784442901,"106":-0.023286564423287522,"107":-0.033089280607373095,"108":-0.0503421188637996,"109":0.04037667299969909,"110":-0.04363240692937392,"111":0.05736605448136976,"112":-0.011480076728661553,"113":0.024352046679342664,"114":0.01364461466032369,"115":-0.013823831135284601,"116":-0.1134024450200198,"117":0.023522301935110027,"118":0.06811688121895082,"119":0.01130287491547381,"120":0.019199233391561883,"121":-0.0630887576546724,"122":0.01380854147061719,"123":-0.024634385320576567,"124":-0.05844747979520183,"125":0.011019584136907252,"126":0.017288158379700783,"127":0.038424276953498496,"128":-0.026720730798116342,"129":0.0032221837652921356,"130":-0.34349027252197034,"131":-0.15863744396427254,"132":-0.11733613139301012,"133":-0.04124515825732451,"134":-0.07364956019521693,"135":0.05764935111689238,"136":-0.07653463059552826,"137":0.022523639420204283,"138":0.07707883034079491,"139":-0.03459442579445114,"140":-0.0015992616871834942,"141":0.04001107802616885,"142":-0.07639068515016087,"143":0.022357543455413544,"144":-0.03805593113788717,"145":0.0048839909828537476,"146":-0.00001422359096983636,"147":0.03821494459967082,"148":0.013495776447468756,"149":-0.03585964327124833,"150":-0.09092278290503049,"151":0.012592524065196986,"152":0.09036468373924664,"153":0.01873527312384674,"154":-0.10130119383932042,"155":-0.03656018627680395,"156":0.05141446873967365,"157":-0.019044007081243524,"158":-0.0225058486343821,"159":-0.003282936652528412,"160":-0.11811404012746897,"161":-0.06294989438845233,"162":-0.06419205238171787,"163":0.02842992765950062,"164":0.05452072683659288,"165":0.004742737629575893,"166":-0.057020435233500005,"167":-0.03702445921850381,"168":0.06409607644586275,"169":-0.07433671368545029,"170":0.04986980528197141,"171":0.04138716966915064,"172":0.009964288871136935,"173":-0.041746266898926424,"174":-0.02438793625526054,"175":-0.01100774687567866,"176":0.033098487570490456,"177":0.05392983942599337,"178":0.06792649985512077,"179":-0.06776985713319203,"180":0.00684296694157497,"181":-0.050119736154029225,"182":-0.08833045405982684,"183":-0.016044280120958057,"184":-0.09456379797006907,"185":0.03099793003175229,"186":-0.030074211467292118,"187":0.0017312689146060521,"188":-0.0651630329391756,"189":0.03738660557120094,"190":-0.029998506678186918,"191":0.05981316463290442}},{"sx":1,"sy":1,"depth":192,"w":{"0":-0.03879338659413244,"1":-0.18971666881037372,"2":0.0977206662791749,"3":0.07795709363605825,"4":0.08358381000877592,"5":0.037523716244635505,"6":-0.025240932769824028,"7":0.11328144597369197,"8":0.09088791645837192,"9":0.12248228154573707,"10":0.03777296276330969,"11":0.045451575827255265,"12":0.08744548030330562,"13":0.05954405843902575,"14":-0.024115612968814572,"15":0.055076241409602045,"16":0.041325957115023855,"17":0.022489094719499437,"18":0.07004008018620345,"19":-0.021459280348498293,"20":0.040429035516715534,"21":-0.0626712393908442,"22":-0.024878268519770704,"23":-0.10040525853765056,"24":0.0649806828469839,"25":0.11810825235475785,"26":-0.06560075694736053,"27":-0.12598683344527145,"28":-0.09601866324852946,"29":-0.06432701492309305,"30":-0.015983959139353392,"31":-0.030997975800232856,"32":0.07760622968889028,"33":-0.07737624475949584,"34":-0.07820823875805197,"35":-0.0672692381694677,"36":-0.05339247371946022,"37":-0.02752553111239764,"38":0.019593814871153185,"39":-0.1539539940584378,"40":0.018221851853108043,"41":-0.05542981665321479,"42":0.03487791052603261,"43":-0.02416252065167162,"44":-0.015033586297379383,"45":0.05338201143522043,"46":-0.001884247535553446,"47":0.06817897471284785,"48":0.01633134911859151,"49":-0.012072712851443432,"50":-0.0331934317563906,"51":-0.08370926958549345,"52":0.0249943331982494,"53":0.004931264384907573,"54":-0.03235550171606836,"55":0.005984275651748796,"56":0.048658162732745855,"57":0.05646947564006039,"58":0.011457730969774845,"59":0.03852590535461283,"60":-0.010335087998581363,"61":0.0038284539781578988,"62":-0.0469093928114786,"63":-0.06130029866808808,"64":-0.12015598371118445,"65":-0.13457350061534792,"66":-0.08582820704415489,"67":0.05946684845185634,"68":-0.034605857458885295,"69":-0.0036581686125000848,"70":0.03406265996179631,"71":-0.13015378053808485,"72":-0.012791787859676473,"73":-0.05842056739459871,"74":-0.04501991919098167,"75":-0.0035684795598156837,"76":-0.011572444895221943,"77":-0.09673300538992148,"78":0.03522489218509138,"79":-0.09221926144097749,"80":-0.027850662353903526,"81":-0.048960501829943257,"82":-0.02743133100218343,"83":-0.028151345666989572,"84":0.04224140619308162,"85":-0.012008388450975752,"86":0.014351700481890146,"87":-0.04321394731995805,"88":0.0742345602093854,"89":-0.05837660116240008,"90":0.09381007228144225,"91":-0.08417626398397048,"92":0.05114736956767314,"93":-0.07027873919282797,"94":-0.03453912437029837,"95":-0.011170085664596333,"96":-0.015074266820001113,"97":0.03956215058203517,"98":-0.07501401944801753,"99":0.14510218684965573,"100":-0.049808593411676344,"101":-0.06317828636521608,"102":-0.09383026557030345,"103":-0.10227223385568725,"104":0.0374144857217664,"105":0.04388107188008172,"106":0.01782504952473091,"107":-0.011206939629252734,"108":0.062435139719382304,"109":0.015070694254853497,"110":0.016730327289977556,"111":-0.02920236892629514,"112":0.036560061268587775,"113":-0.017501273713417993,"114":0.023625716314452306,"115":0.022381160044748424,"116":0.07119702297345097,"117":-0.0884975700457342,"118":0.02117651035014551,"119":-0.020007808761511363,"120":-0.041745180290596616,"121":0.012351384804327173,"122":0.058329190501818756,"123":0.03576180870249976,"124":0.04610195963418291,"125":0.007662426672612839,"126":0.05432214002045981,"127":0.01929859822980532,"128":0.05792673394886739,"129":-0.10947941809587713,"130":-0.03906795858653596,"131":-0.10854554158558592,"132":-0.16103270181731505,"133":-0.15193140912322514,"134":-0.029369582742969445,"135":-0.11345810353699368,"136":-0.0484400703597774,"137":0.012658577918008916,"138":-0.0329241222791071,"139":0.0009760921392412635,"140":0.06007085846726173,"141":0.07757718754486899,"142":0.011422244106129393,"143":0.05142221928202599,"144":0.04494290568016847,"145":0.019574149204987994,"146":-0.03412901579159378,"147":-0.009287913836616443,"148":0.08787238118487979,"149":0.03960609445504748,"150":0.06388299252271483,"151":-0.055115472332434724,"152":0.01686186124901824,"153":-0.05662993250799189,"154":0.014263955143139124,"155":0.050180482102232006,"156":-0.03874840808160149,"157":-0.045477801060350334,"158":0.019012260185986625,"159":0.03907240493883122,"160":-0.10466520732404501,"161":-0.04804166982997414,"162":-0.018104939256654056,"163":-0.05482884660410394,"164":0.009661116965925219,"165":0.08306403884780802,"166":0.010908338699756579,"167":-0.0937745031580424,"168":-0.05387295569181993,"169":-0.00444078796403891,"170":-0.02086288045066721,"171":0.0620471244154402,"172":-0.0675467728955177,"173":-0.0663440560128178,"174":-0.0013783946612319386,"175":0.05110592080020864,"176":0.022339945473435627,"177":-0.07024372521013453,"178":-0.09362862103629437,"179":0.01918483226082431,"180":-0.1014113863770842,"181":0.08877602089991449,"182":0.027387095125254734,"183":0.06844975365567621,"184":0.06898468098443115,"185":0.03343839331592749,"186":-0.006283237100724936,"187":-0.04211052145704442,"188":-0.07892635667284449,"189":-0.05872776711666134,"190":0.039669105615388445,"191":-0.053562294889641}},{"sx":1,"sy":1,"depth":192,"w":{"0":0.1370383264285371,"1":0.17883495377495665,"2":0.2053537220588139,"3":0.10523399314282246,"4":0.18041302432608877,"5":0.29143573252847105,"6":0.0783627386010529,"7":-0.01372087560898785,"8":0.008182403153274618,"9":-0.02141963998222429,"10":0.048264446969026216,"11":0.03670147009530916,"12":0.03398717492080189,"13":-0.06260144293436552,"14":0.07555486812112203,"15":-0.03647037205713004,"16":-0.03312301426059349,"17":0.10760136342297638,"18":0.03524638058096683,"19":-0.010414946033763067,"20":0.12950242879665722,"21":0.09850111338624916,"22":-0.0180685571912518,"23":0.05368586973836963,"24":-0.02534829808543535,"25":-0.08526167385775395,"26":0.060556904652150405,"27":0.007343661076320403,"28":0.054702821542516676,"29":0.05302280035651463,"30":0.07949767600302167,"31":0.054446803749460676,"32":0.017846187854723326,"33":0.07388662259854191,"34":0.024505553916607414,"35":-0.011287175059925861,"36":0.02745350417228538,"37":0.02450599325053303,"38":0.016833689560673753,"39":-0.11711108705817064,"40":-0.03529676820200207,"41":0.08322988539709568,"42":-0.09214386776442691,"43":-0.01125962785519142,"44":0.017203982782061547,"45":0.0974490073521791,"46":-0.05550603814861551,"47":-0.06414088657369718,"48":-0.04245982360598735,"49":0.0883192130285196,"50":-0.05459939909134656,"51":0.043369407608394236,"52":0.07481773596690088,"53":0.05622214006261263,"54":-0.027886476242752076,"55":-0.02625434173927425,"56":0.020301545302323545,"57":-0.049755096752817515,"58":-0.03983260510807552,"59":-0.019672991139032467,"60":-0.025752337372452253,"61":0.02415600163839501,"62":0.03722523711060511,"63":0.03142458333815429,"64":-0.27410520897340385,"65":0.12169577474967257,"66":0.040814212092854796,"67":-0.024081808878204793,"68":-0.043570537949825745,"69":-0.016447407467979017,"70":-0.10185869519386657,"71":-0.02071305819953831,"72":-0.012461074009879204,"73":-0.022096997215308483,"74":-0.003008708281686248,"75":-0.014191606130591842,"76":-0.004881501966756764,"77":-0.20114347837781454,"78":0.020390671532394048,"79":-0.03483466169991156,"80":-0.05522573072954607,"81":-0.05599753352388284,"82":-0.0005670184817339192,"83":-0.07212262788133433,"84":-0.06458432411019958,"85":0.09652961066201024,"86":0.1201609044716943,"87":0.036559104581571154,"88":0.04575366132361765,"89":-0.032802702987815624,"90":0.11252210719250351,"91":-0.025787695852934476,"92":-0.016588969940057492,"93":-0.0025505914481474086,"94":-0.029785537585000302,"95":0.036059849052907926,"96":0.006976661595062962,"97":0.03045209676491707,"98":0.011822951671141032,"99":-0.02534184990357774,"100":0.012181865063609782,"101":0.03871235356318749,"102":-0.002906752968961071,"103":0.02579871910392947,"104":0.022000110542567338,"105":0.05263316130126765,"106":-0.07676663009169624,"107":0.0191887532303848,"108":-0.0445095446645139,"109":0.042113096312189076,"110":0.0740797397564374,"111":-0.06073093544724628,"112":0.0045685580718972125,"113":-0.024753189593366365,"114":-0.12470269129876428,"115":0.09588750102988731,"116":0.0020947773634475537,"117":0.05885367195495967,"118":0.06358318838259508,"119":0.08453794607357808,"120":0.021614896000879787,"121":-0.034143188339825194,"122":-0.012063576210057297,"123":0.04658192227221782,"124":-0.03253919139633891,"125":0.05923943249899993,"126":0.018506438212124957,"127":-0.049753396578829094,"128":0.08335129382767831,"129":0.04140772352510166,"130":0.037180111671428644,"131":0.13219692208021822,"132":0.099984409782808,"133":0.006393179928984211,"134":-0.12615045168906894,"135":-0.23769720998782695,"136":-0.05030245356769701,"137":-0.15722770744063824,"138":-0.12751435403864433,"139":0.1941300544801954,"140":0.08348256854542116,"141":0.12062753473679684,"142":-0.005513082768643807,"143":0.12393727516496814,"144":0.10639899982869093,"145":0.051140898684655545,"146":-0.10633267311292821,"147":0.037493226475637034,"148":-0.015440424201529034,"149":-0.01831485944690306,"150":-0.051633241823554867,"151":0.12142815563981962,"152":0.02710064983706225,"153":-0.0176232112728742,"154":0.028908833321744848,"155":0.08614111158269147,"156":-0.0009134438386096335,"157":-0.022326245898759135,"158":-0.007582989602624835,"159":0.10957284580713803,"160":0.008355400421075632,"161":-0.03384390671916785,"162":0.029937874295955052,"163":0.029148952845439762,"164":-0.02254893131910103,"165":0.0018215807427680417,"166":-0.04629630140901348,"167":-0.025327649670176883,"168":0.003844483433439845,"169":-0.01581303330697106,"170":0.018056020440434355,"171":-0.037285238888265834,"172":0.016828021484461435,"173":-0.00011030287944861292,"174":-0.0549710466352585,"175":-0.009817986978945724,"176":0.00028041340847592396,"177":-0.0479255217719518,"178":0.031537575752732,"179":0.01594852017301923,"180":0.06567540365678301,"181":0.08358373411344591,"182":0.027355538166755025,"183":-0.025292343741972118,"184":0.028963443525902976,"185":-0.1009223157236952,"186":-0.11444528504392842,"187":0.010338556836976874,"188":-0.052240126656334845,"189":0.030021546853601633,"190":-0.021628622136061326,"191":-0.04656055038992151}},{"sx":1,"sy":1,"depth":192,"w":{"0":0.05910928892210659,"1":0.024120960494491448,"2":-0.10519834592560315,"3":-0.0013890458554564127,"4":0.014155663716678327,"5":0.04545450989635857,"6":0.011236587399322918,"7":0.1281684290391073,"8":0.012509667912521382,"9":0.018028494772121165,"10":-0.131688158210071,"11":0.028465777395636795,"12":0.11036627671388716,"13":0.17427174787100116,"14":0.022163134313247776,"15":0.0015402490802115757,"16":0.045703501444381026,"17":-0.045284729738051394,"18":-0.017658696010663867,"19":0.007728202596253022,"20":0.01197713795530063,"21":-0.012187425654993141,"22":-0.02647533486762098,"23":-0.01985026694890099,"24":-0.011728641033880358,"25":0.03912702113232041,"26":0.06059539317754551,"27":-0.028941790659734574,"28":0.0006072179343267861,"29":-0.01965257847249037,"30":0.032884783804679664,"31":0.04358754942944167,"32":-0.036533708629709775,"33":-0.06464599469821614,"34":-0.04343571810654547,"35":0.002147825690744337,"36":0.03494079134905893,"37":-0.07545724404049761,"38":-0.01551000883621476,"39":0.06304346425066211,"40":-0.017048534556660704,"41":0.09581470327213022,"42":0.12423634868394023,"43":-0.08859410093984012,"44":0.043494089511846,"45":-0.052541401154218806,"46":-0.016788792337606755,"47":-0.015080848465891838,"48":-0.1924000026126318,"49":-0.0794416819411785,"50":-0.03801771752350762,"51":-0.045865673552653204,"52":0.05601052755668447,"53":-0.07195539239482816,"54":-0.013371081719590535,"55":0.07715145804168866,"56":-0.07978547374223603,"57":0.054385874688037475,"58":-0.04772446905996231,"59":-0.042376386447134595,"60":0.10087290077550456,"61":-0.057012231682901926,"62":-0.08983317711805097,"63":-0.02646024899847899,"64":-0.14479486462097563,"65":0.08727058831773665,"66":-0.08774279931235517,"67":0.0813348330167051,"68":0.0954004657955601,"69":0.011844016921744763,"70":-0.04178637266272971,"71":0.04919685304718762,"72":0.05402935517629608,"73":-0.003274192403557697,"74":0.0411271651681467,"75":0.011127330737754024,"76":0.04680739202169367,"77":0.04117388556670395,"78":0.02342467481017723,"79":0.04326616386805217,"80":0.011749149357449978,"81":-0.09537441040944955,"82":-0.018221009489830232,"83":-0.00590380788755686,"84":-0.044395193040854285,"85":0.04851334198927393,"86":-0.08321095047239123,"87":0.0646775409060135,"88":-0.015042956605854066,"89":0.025344057965768458,"90":-0.00685768097573921,"91":-0.060505093332421746,"92":-0.022900899724992797,"93":-0.06444326034873224,"94":0.041572490583545875,"95":-0.022010367378100453,"96":-0.0624918211391572,"97":0.012697844318614622,"98":0.06964980277829419,"99":0.0038270202806762145,"100":0.03908371480503295,"101":-0.011117498767617426,"102":0.0038405878633200087,"103":0.0024336290226343715,"104":0.07305803380806843,"105":-0.023498101536139994,"106":0.010891225100216227,"107":-0.0226594423704951,"108":0.03491483845531997,"109":0.051111311137431864,"110":-0.044102260847816634,"111":0.00767990719005462,"112":0.027938207288665688,"113":0.009079653961823234,"114":-0.007606080741073329,"115":0.009872006662817373,"116":-0.011559264695528435,"117":0.05171901099800406,"118":0.014835204179122364,"119":-0.0828438496296553,"120":0.00507476173181248,"121":0.07618108692523468,"122":0.07556545457573591,"123":-0.02716378174948034,"124":0.011892144793636239,"125":-0.03140852854700084,"126":-0.025685786360958984,"127":-0.013016085883877036,"128":-0.10450469348541208,"129":0.10711081032504988,"130":0.008275998135844781,"131":0.12045731547154737,"132":0.07131111339662863,"133":-0.08108196790564699,"134":0.037016834164766935,"135":-0.01461627841128192,"136":0.06754623835064873,"137":0.1298213918743549,"138":-0.05282287351633154,"139":-0.05612339938300648,"140":0.038150549041782056,"141":0.09392356909105531,"142":0.013438525447886564,"143":-0.00994373844861696,"144":0.004077801659733313,"145":-0.03176394838444381,"146":0.07427583339553513,"147":0.09773849970025472,"148":-0.008560842462296622,"149":0.03231436737471548,"150":-0.068616416157089,"151":-0.07100880568597867,"152":-0.04244825264211872,"153":-0.10302487727981749,"154":0.04132691426491102,"155":-0.025691413318769958,"156":0.02243219297051556,"157":-0.05853591571188184,"158":0.015781791543512703,"159":-0.01745961343008742,"160":-0.04562392341282647,"161":-0.034176103301176985,"162":0.00155307835500251,"163":0.028413793697752973,"164":-0.05321612919740878,"165":0.04537315174979744,"166":0.05151270596018405,"167":-0.05426001257631332,"168":-0.06576847029154506,"169":0.053124728238526285,"170":-0.06997455082967807,"171":-0.07956873121828917,"172":0.03320197347657739,"173":0.0030694329101223915,"174":-0.03951911631564656,"175":0.09482261007244108,"176":-0.00773093578312088,"177":-0.055615463464567076,"178":0.11183853446221236,"179":0.06630862418191548,"180":0.033887148063577746,"181":0.008160815777828078,"182":0.03801347551458378,"183":0.09428499121658229,"184":-0.009032028916399369,"185":0.03515570819460208,"186":0.06278468886089554,"187":0.0550926492769191,"188":0.03090138539248525,"189":0.0034325304694565436,"190":-0.0382866330393671,"191":0.005047721180676776}},{"sx":1,"sy":1,"depth":192,"w":{"0":-0.10047067897861157,"1":-0.013082622073192319,"2":-0.016490699981408338,"3":0.07490120218864094,"4":-0.039547647264731776,"5":-0.04246903300788927,"6":0.07755951296245943,"7":0.005145331500824815,"8":0.008884183186744221,"9":0.046190682941887926,"10":-0.060578405027333984,"11":-0.12459509089243666,"12":-0.04180853575303643,"13":-0.03675756850893996,"14":0.03486236159840305,"15":-0.04910795768001811,"16":-0.04757185352900677,"17":0.03121423983731526,"18":0.047278350716436164,"19":-0.008379994136890787,"20":0.009142838753440663,"21":0.009999140772155586,"22":-0.023468134402819328,"23":-0.03446254515809518,"24":-0.07293470336681253,"25":0.07839419808797268,"26":0.0026474562312230787,"27":-0.0970262127509125,"28":0.028371865905622042,"29":-0.03943771120861581,"30":0.03583373003728352,"31":0.001661816784236128,"32":-0.06670345856994477,"33":-0.025207424952532424,"34":0.006328891549581649,"35":0.01220528566671379,"36":0.06565072936863736,"37":-0.021553061673668772,"38":-0.021343308764113052,"39":-0.019470480562836,"40":-0.02874638283516469,"41":0.07020689876666336,"42":0.03158469757366234,"43":-0.01939346866113667,"44":-0.0192678553411478,"45":0.0506267366679675,"46":-0.019070905439065932,"47":-0.016223189761823898,"48":0.019721514458507197,"49":-0.027909743999489922,"50":-0.030444011896591527,"51":0.017839315786709,"52":-0.011426088834938942,"53":-0.057829377264165434,"54":0.0795323945275877,"55":-0.03271622932890432,"56":0.042857961825014786,"57":-0.005449116435224646,"58":-0.01849304576067355,"59":0.0807837031029815,"60":0.07345648359492604,"61":-0.04883928768638224,"62":0.05287477054829187,"63":-0.06622398222439983,"64":0.049767617629532204,"65":-0.06721965222255477,"66":0.00743519248311184,"67":0.05811706855180123,"68":0.0004808262044260881,"69":-0.1334226986288168,"70":0.1194731330850987,"71":0.030084066020379767,"72":0.058248570533199664,"73":0.04041750001971343,"74":0.0910936271948188,"75":-0.09491132685266172,"76":-0.04540148611992101,"77":-0.06796836659601596,"78":0.04156607277405217,"79":0.05260139446386828,"80":0.11431015558492887,"81":-0.07737316529667444,"82":0.09759544289480061,"83":-0.014309757041543228,"84":0.03975811304392368,"85":-0.005922866556779358,"86":-0.05316867040080292,"87":-0.004924574571136374,"88":-0.06675115833018978,"89":0.08576205291640669,"90":0.05548268445549635,"91":-0.047739448445690565,"92":0.030517971429411782,"93":-0.08922647682463632,"94":0.00997104858601693,"95":-0.010945451952128682,"96":0.0192861444008568,"97":-0.044540074982778795,"98":0.000974797736379206,"99":0.0025316726503864274,"100":-0.013293025960496897,"101":0.061856080297941485,"102":0.04021125037091773,"103":0.030215279133477494,"104":-0.043399307178410056,"105":-0.08420661464337978,"106":-0.003629535704459569,"107":-0.0016707212805202455,"108":-0.05977960773898949,"109":0.005381651693237316,"110":0.040308387758285116,"111":-0.037321312972180574,"112":-0.011496829186604324,"113":-0.05799955831162184,"114":-0.012473084297374178,"115":0.0011159111039608135,"116":0.002193756851409437,"117":-0.10815337183420262,"118":0.026102669498557114,"119":0.01407641456593769,"120":0.11172342502561758,"121":-0.00048827278304290573,"122":0.010802192759833207,"123":0.04358054034172089,"124":-0.022399405743637225,"125":0.041426937159305344,"126":0.03904304742502701,"127":0.03943298317264362,"128":0.010936399788094752,"129":0.048813573332287946,"130":0.12521927323689266,"131":0.08145264972790844,"132":0.10460197048166868,"133":0.01625243950210103,"134":0.054649299677829395,"135":0.03583583563332303,"136":0.057991899513753824,"137":-0.0012719252022722633,"138":-0.11566743123871025,"139":-0.016174313115667836,"140":0.0034867303090085557,"141":-0.013810031716907843,"142":0.006066109439699306,"143":-0.12156082967465259,"144":-0.07966259394232325,"145":-0.05851135011518708,"146":-0.024979809877641836,"147":-0.022958498848325515,"148":-0.07487222150103351,"149":0.03211496293384188,"150":0.01480092160443538,"151":-0.05428670311228723,"152":-0.08325181462330095,"153":-0.015655151847471842,"154":-0.07396389090076505,"155":-0.025344582533124216,"156":0.04297327650606816,"157":-0.03717134270420086,"158":0.043663297575019897,"159":0.019041545072320205,"160":0.0008273947601432118,"161":-0.0708650507205183,"162":0.01969189282270911,"163":-0.0016719374075267978,"164":0.03927334079270548,"165":-0.04185547803952908,"166":0.0713693144900042,"167":-0.06544104324179124,"168":-0.02909659386075005,"169":-0.030429714361494803,"170":0.08976093888752339,"171":0.031132726545228872,"172":-0.10056113140721412,"173":-0.03856548265301003,"174":-0.06942371476449591,"175":-0.09412551885847296,"176":0.01083456846798741,"177":0.05838153430719669,"178":-0.05326504265630097,"179":-0.03062878764995556,"180":-0.057459957505683695,"181":-0.0003207048531512504,"182":-0.02374733374953587,"183":0.00562610992048515,"184":0.02373004334344324,"185":-0.034982324035494575,"186":0.054814713153529454,"187":0.011538292915358808,"188":-0.011784454873262013,"189":0.02694244625331995,"190":0.02397727228435761,"191":-0.02201371220685218}},{"sx":1,"sy":1,"depth":192,"w":{"0":0.08245193637440892,"1":-0.06819741460246977,"2":-0.02884557579000055,"3":0.034042176944185785,"4":-0.021035490496410316,"5":-0.035751654190927226,"6":-0.04440726353065309,"7":-0.04748136038717641,"8":-0.025407224086727322,"9":-0.07881179384550423,"10":0.10109479576201531,"11":-0.04508924198838569,"12":-0.027535720913447474,"13":-0.023149179795710326,"14":0.006876821887483962,"15":0.04146275830646617,"16":-0.09705370056066727,"17":0.051105024008208946,"18":-0.07835295092160677,"19":0.035973725995189526,"20":0.061704537441484374,"21":0.05135097204054181,"22":0.053853970255429734,"23":-0.040298077408888,"24":0.05897298691845966,"25":0.03995503384973128,"26":0.07959260597289054,"27":-0.021252844643870356,"28":-0.0006198609813108835,"29":0.06329533424207098,"30":-0.012110897631719455,"31":-0.03170368177506639,"32":-0.07753898275630951,"33":0.058115514899917876,"34":0.04596563750245039,"35":0.030144858554009522,"36":0.013133565407628152,"37":-0.0263119304448433,"38":-0.016874400349939363,"39":0.02923486963391173,"40":0.0583061295324298,"41":-0.053927155726360664,"42":-0.05235737652688001,"43":0.006296683355682031,"44":0.08710184915941209,"45":0.043962804061409115,"46":0.03557315865345922,"47":-0.014356642410571215,"48":-0.02540296498376318,"49":-0.002523228059596565,"50":-0.009243951941653287,"51":0.007166911302394174,"52":0.028660724688303302,"53":-0.04730411447993285,"54":0.0390049470227073,"55":0.03592160934834494,"56":0.06169520838130655,"57":0.023951869483900885,"58":-0.04305417218315687,"59":0.03378496040559128,"60":0.01347292907636054,"61":0.06950458110953399,"62":-0.03442252553388672,"63":0.0266137095878602,"64":0.1256711785677741,"65":0.08814585920999819,"66":0.09625782669507901,"67":-0.0720964626883524,"68":-0.05616837224284323,"69":0.016047184891932846,"70":0.04448215805314275,"71":0.01715202840310979,"72":0.03616575451541563,"73":-0.1448872736455635,"74":-0.09953163825838636,"75":0.17033686031895606,"76":0.027381734171851083,"77":-0.08954822506902727,"78":0.03454476755077172,"79":0.08106780248736997,"80":-0.05202206378712396,"81":-0.0433931574686575,"82":0.00964720067956656,"83":-0.06017870510217047,"84":-0.011249307396986033,"85":-0.0028019235934979986,"86":-0.014459838735421183,"87":0.0418756902941687,"88":-0.028750005955199623,"89":-0.000720500128450513,"90":0.011361165656105449,"91":-0.026829212832572072,"92":-0.059392996244748704,"93":-0.049811197036921,"94":0.014192522173678468,"95":0.0326348257310024,"96":-0.03737538592609164,"97":0.021842710276875434,"98":0.030768214900133026,"99":0.040822569842578184,"100":-0.08228857322054622,"101":0.06661991509006542,"102":-0.0780552053493428,"103":-0.046389592238181517,"104":0.0025106886985978003,"105":0.06273765747760687,"106":-0.04337534253824401,"107":0.007960040388703776,"108":-0.017585900171152864,"109":-0.011235999905065592,"110":-0.0033461085332241766,"111":-0.0403252865743732,"112":-0.0949170457269791,"113":-0.015974177982469678,"114":-0.006261297832356435,"115":0.02764719681495353,"116":0.002555529147424107,"117":0.009697088175528208,"118":-0.0015086732244179442,"119":0.0007423148989938523,"120":0.025306619239897882,"121":0.01749477230452935,"122":0.058638382865504116,"123":0.03947096214158763,"124":-0.0629077922389716,"125":-0.08653091426589624,"126":-0.033004574036795055,"127":0.022694385106885803,"128":-0.24038471875578185,"129":0.11839989108923513,"130":0.1341991231179474,"131":-0.04835465018164996,"132":0.04242004651036406,"133":0.07871081718275844,"134":0.05868233091145882,"135":-0.11986003587990965,"136":-0.0580595191661818,"137":0.0178167268889345,"138":-0.018459611146016294,"139":0.04341878051727156,"140":0.08615635121334667,"141":0.08416186929005069,"142":0.032640883593100384,"143":0.041659897274525244,"144":0.0037554528254154286,"145":-0.03767297619568043,"146":0.0425746010142956,"147":0.13530908797070448,"148":0.04997983179431856,"149":-0.03928705742730775,"150":-0.08439142941811971,"151":-0.062413089192058256,"152":-0.0008957170747247377,"153":0.09685847538644253,"154":0.038595752311693036,"155":-0.019490381162446276,"156":-0.02899292236916545,"157":-0.016441525915480138,"158":-0.01866545827511165,"159":-0.05601287612691285,"160":-0.017158796529053395,"161":-0.041650024161570105,"162":0.02596997968090892,"163":-0.029198486208008984,"164":0.05884790448378625,"165":-0.03590830581736308,"166":0.010643121128207943,"167":-0.023369562512009383,"168":-0.10814397052187616,"169":0.0012610426517176377,"170":0.01967573762228556,"171":0.06214353308806219,"172":-0.0024228194047344925,"173":-0.040397443729702644,"174":-0.009101175128044713,"175":-0.11169232171918457,"176":-0.050457519976373905,"177":-0.05539618889749952,"178":0.03586860246905139,"179":-0.04517888132280372,"180":-0.026169184594556447,"181":0.009314662478570887,"182":-0.00431436447344811,"183":0.00019593162716197905,"184":0.11302113732008516,"185":0.0482535158156527,"186":-0.014280914493491939,"187":-0.04826586855662605,"188":-0.06905930008724837,"189":0.002583203124013129,"190":0.001506512210099037,"191":0.08240008080060647}},{"sx":1,"sy":1,"depth":192,"w":{"0":0.07608104601556721,"1":-0.11952949131765009,"2":-0.03439314522797878,"3":-0.18622629232925164,"4":-0.11894360596384537,"5":0.0729845617766354,"6":-0.11024355265893065,"7":-0.08934136596156259,"8":-0.10845040048802945,"9":0.02032023509100075,"10":-0.009079195270518663,"11":0.005031537155053091,"12":-0.04397405893241121,"13":-0.06253341711773606,"14":-0.03897596408277438,"15":0.001100249186575359,"16":0.013037715906400854,"17":-0.04297870556049582,"18":-0.10518899382735983,"19":0.1078457427752932,"20":0.03810775550069008,"21":0.04502236466919163,"22":0.012961737072836111,"23":0.10461189361784282,"24":-0.04589863029205457,"25":-0.0632683981045958,"26":-0.035692116512517795,"27":-0.03476579624626099,"28":0.03504809351850277,"29":-0.011314601632110344,"30":0.05587687604760557,"31":-0.08349946746231941,"32":0.021038676402907304,"33":0.051841804993432015,"34":0.04525538446083717,"35":0.03951792643828734,"36":-0.006019684805419306,"37":-0.025074335193424207,"38":0.10806676590596885,"39":0.031286822098078475,"40":0.0696863493489753,"41":0.02328384917629267,"42":-0.021466785752727927,"43":-0.05526839815544799,"44":0.0008332583858180698,"45":0.023393020568013075,"46":-0.0382962108430564,"47":-0.008948956830738427,"48":0.04062789190371292,"49":-0.019118238465070516,"50":0.12614785235996867,"51":0.05368975202241686,"52":0.01108937768362156,"53":0.05568990967938047,"54":-0.00998009013504773,"55":0.03245692634613415,"56":0.05941028423389342,"57":0.09481625857679592,"58":0.07236007246949487,"59":0.13792494508145162,"60":-0.023272993831666807,"61":-0.05796921828637993,"62":0.060768309763873186,"63":-0.016562658616238676,"64":-0.03846941778258132,"65":-0.0026614201606644586,"66":0.09757927599896409,"67":0.03032334982777409,"68":0.07625365332779054,"69":-0.01763621700419493,"70":0.015847950430471734,"71":0.007241182832352535,"72":-0.019739292064044754,"73":-0.12050038884906811,"74":-0.010571034000398808,"75":-0.04566349912116346,"76":-0.0012693520314352828,"77":-0.041410951528494055,"78":-0.08838430772949796,"79":-0.06079583009429456,"80":0.041989339142525506,"81":-0.0721858743818159,"82":-0.165776786046837,"83":-0.03276201142822499,"84":-0.05117611347296888,"85":-0.11973952670400077,"86":-0.026970180935909225,"87":0.03252203397937177,"88":-0.02169887544028402,"89":-0.018177898041480282,"90":0.05007933700705323,"91":0.03411469077784613,"92":-0.027487296837883365,"93":0.016694139723936418,"94":-0.01642996051514948,"95":0.009889785830561663,"96":0.054480950540680015,"97":0.10373060848235854,"98":-0.0009804027375269028,"99":0.04982398070224368,"100":0.04301083251191123,"101":-0.07190873100519075,"102":-0.06716065377525725,"103":-0.026296521453340188,"104":-0.012025456162076308,"105":-0.013171771132330583,"106":-0.017583408841086574,"107":-0.018456554028170324,"108":-0.018699660593193192,"109":-0.06606430456071573,"110":0.01939897208413616,"111":0.08445062793002078,"112":-0.04810604385437178,"113":-0.07603276315980215,"114":0.09563051801067603,"115":-0.07873518933238478,"116":-0.05027260113854892,"117":0.026217327350458237,"118":-0.021209911459183592,"119":-0.05565447071715601,"120":-0.1161997147007284,"121":-0.09265064030354675,"122":0.04424695230872445,"123":-0.06579684199197598,"124":-0.005153602060680255,"125":-0.017436261981783642,"126":0.09295757249032147,"127":-0.035858137586593855,"128":0.025393184913238696,"129":-0.03804447218399827,"130":0.22517280765882525,"131":0.18292129866224657,"132":0.20448258536406455,"133":0.00659816571969304,"134":0.029685238557063117,"135":-0.09477735675322428,"136":-0.08002484635522121,"137":-0.057033583510149304,"138":-0.08409700241630587,"139":0.023835330341581112,"140":0.0817216069107848,"141":-0.0378507577244091,"142":-0.04333903713340294,"143":0.09600549872323555,"144":-0.016992725628084803,"145":0.02622551185810648,"146":-0.018558096307635955,"147":0.01791259980790348,"148":0.12599936363544695,"149":0.01460903820303463,"150":0.007302559754358598,"151":0.015615809598059027,"152":0.044058014003201015,"153":0.09848338441939052,"154":0.019851489289717295,"155":-0.02673580017799009,"156":0.03530933630226838,"157":-0.04721000448341802,"158":-0.0738852547058358,"159":0.011002999208583466,"160":0.0083205369368422,"161":-0.053963892483563765,"162":0.15391435508357612,"163":0.030149616516701998,"164":-0.012044632052610603,"165":0.012937149711167863,"166":0.07736544830185504,"167":-0.06245768245680047,"168":0.009765674655678507,"169":-0.005067231822793837,"170":-0.03879205554063577,"171":0.016853678413523126,"172":0.03130964514023065,"173":-0.03824362944554487,"174":0.02244814487266585,"175":-0.09096726418802256,"176":0.1074259373120968,"177":0.012662605868369672,"178":0.012135283308655698,"179":0.04952174590565779,"180":-0.06401838977259608,"181":-0.07708847323929563,"182":-0.059981488113898564,"183":-0.0005255049345043856,"184":0.020625336690098507,"185":0.045067186528378024,"186":0.029656233539798037,"187":-0.006918340193580352,"188":-0.01770639346098659,"189":0.040864630987951546,"190":-0.0030532537588088874,"191":0.057195979217916706}},{"sx":1,"sy":1,"depth":192,"w":{"0":-0.06228848338828769,"1":0.12602961683001115,"2":-0.2164499299570129,"3":-0.41879714641999377,"4":-0.18430887255342915,"5":-0.11907295769175559,"6":-0.15789615757474199,"7":-0.09081316460306399,"8":-0.1831267183133591,"9":-0.09267151565944416,"10":-0.14489311862232526,"11":0.1046858031730117,"12":0.0915534701391926,"13":0.050892242810763155,"14":0.0965897692302618,"15":0.02664816541629757,"16":-0.044834974662892234,"17":0.05239465798137826,"18":0.030759090976789534,"19":-0.06481549559467029,"20":-0.004165090261564839,"21":0.04525680898129885,"22":-0.0007091790808388537,"23":0.09455312479826684,"24":0.06223610024779926,"25":0.03488609909642132,"26":-0.08504538002284394,"27":0.018197478214448032,"28":0.04052913157854185,"29":-0.06850813436415676,"30":-0.03692489260012779,"31":-0.03875579103686336,"32":0.030172314554045242,"33":0.006984582019366264,"34":0.025130724450724427,"35":0.03797399694596447,"36":0.06926452704460699,"37":-0.009293830365396398,"38":-0.08520551588716857,"39":0.011240626538160107,"40":0.09189766864326267,"41":-0.023700239338579347,"42":-0.14487296225174182,"43":0.03732312266050598,"44":-0.019098430923688393,"45":-0.0874047155553847,"46":-0.07411050253086811,"47":0.015845593843436184,"48":0.004494882060188788,"49":-0.05248920570034589,"50":0.028948475917918007,"51":-0.009632778178310073,"52":-0.08442191824974239,"53":-0.013204432299493672,"54":0.062425822847266256,"55":-0.0834033050639104,"56":-0.07418869766888053,"57":-0.00026754157742583213,"58":0.04914598732053677,"59":-0.02354206105768123,"60":-0.0027037122310230007,"61":0.04304655153676541,"62":0.08002967707798875,"63":0.029984141546016124,"64":-0.09347929292087107,"65":-0.07281126311623567,"66":-0.010440810609496677,"67":0.10546412996870858,"68":0.07033047594883933,"69":0.06424285082651882,"70":-0.021837690386151267,"71":-0.028743750998807216,"72":-0.07771939080790859,"73":0.1280207819804827,"74":0.023293152553276627,"75":0.00834797059103967,"76":0.10670345061147526,"77":0.02720343332240441,"78":0.00023694947858864026,"79":0.07587899536574375,"80":-0.020970013045321312,"81":0.07991325205154538,"82":0.05551699212069504,"83":-0.010280317673241467,"84":0.013662514951749381,"85":0.02729178461867658,"86":0.15548064863267402,"87":0.09529993353128038,"88":0.08577684096486189,"89":0.08589471178951888,"90":-0.03847311324883538,"91":0.01464534318582924,"92":-0.03556397780172013,"93":-0.01116822895765721,"94":-0.09774187631655973,"95":-0.06323977892415697,"96":0.053518539468941265,"97":-0.01302995279365396,"98":0.04655005106270754,"99":-0.017248641558034013,"100":0.04581257346762486,"101":-0.14816991234223365,"102":0.01875791993787022,"103":-0.11869644480168304,"104":-0.0718263851154918,"105":0.020810533229532416,"106":-0.007810993783433629,"107":0.11613618526627978,"108":0.03976675693813971,"109":-0.013454368978925992,"110":-0.014213199073532665,"111":0.05424952571162917,"112":0.04109112983675908,"113":0.030324082257100444,"114":0.054911246552829515,"115":0.02039647125453074,"116":-0.05444369235366308,"117":0.07887677829884833,"118":-0.05584955824676686,"119":0.02583255941253818,"120":-0.04995187375569906,"121":0.047154004576141544,"122":0.03502752749466275,"123":-0.00175554016551322,"124":-0.08169416636121804,"125":-0.021667243563808832,"126":-0.024643302304597766,"127":-0.01243158887111258,"128":0.01771015196775229,"129":0.2739844152583038,"130":-0.09713338699299263,"131":0.05282826801745563,"132":0.14202034893456497,"133":0.06217927272405004,"134":0.0407862787602813,"135":0.263419469784765,"136":0.16055954039271317,"137":0.08919734930857443,"138":0.15827980568079408,"139":0.06973000192655708,"140":0.07850857958000657,"141":0.1652225134807784,"142":0.21215462143229688,"143":-0.007483336202596004,"144":-0.05532150310212573,"145":0.05188039440311072,"146":-0.011433560618518237,"147":0.08710122281280752,"148":0.09006148354492534,"149":0.0758299624449606,"150":0.06826218952386108,"151":-0.0030765102011585635,"152":0.09954552120325165,"153":-0.04895670240090666,"154":-0.05359105107107971,"155":-0.016840300787771732,"156":0.028292773956895417,"157":0.03010977325563572,"158":-0.02319238239905696,"159":-0.04194157926656091,"160":0.040041933416044284,"161":0.014737357734557142,"162":-0.1442640917019705,"163":-0.03346539077424342,"164":0.04926181701516547,"165":-0.050655274186317906,"166":0.06937710319086936,"167":0.05054697566930221,"168":-0.016012895725833334,"169":-0.023314190250544986,"170":-0.03161519794040915,"171":-0.0003038001951555314,"172":0.040697155029062224,"173":-0.055783842773294505,"174":-0.09139352912321715,"175":0.00788936685746651,"176":-0.014265438637575543,"177":-0.06854067565607463,"178":-0.02179885946871976,"179":-0.04258552465103936,"180":-0.008354191182196394,"181":-0.018773402074348106,"182":-0.12114390361487049,"183":-0.07079554800909142,"184":-0.07233626027366592,"185":0.03697737594065447,"186":-0.005863804413538792,"187":-0.11969543688632164,"188":-0.020935077131511014,"189":-0.09081859781915048,"190":-0.16229026189002194,"191":0.07256118270236624}},{"sx":1,"sy":1,"depth":192,"w":{"0":-0.04296158475936046,"1":0.3648386146489434,"2":0.007535376527406088,"3":0.14393216456906618,"4":0.07214270294942905,"5":-0.010460889170417926,"6":0.16433023843171762,"7":0.129432135552318,"8":-0.08113174204061505,"9":0.04474802422877055,"10":0.06854480565244953,"11":0.11088617821261963,"12":0.10814164385145902,"13":-0.020778305689968704,"14":0.10211461624483421,"15":0.07179805236206332,"16":0.060195286571602565,"17":0.018658134681905438,"18":0.041249305904077306,"19":-0.032323673104849876,"20":0.0774592445776695,"21":-0.0233704983877609,"22":0.018980001648401856,"23":-0.008237891456754673,"24":0.0461963341177488,"25":-0.06493411550732696,"26":-0.09597424318887424,"27":0.09239079534627191,"28":-0.033065073489242446,"29":-0.06504319285458579,"30":0.013963769249519366,"31":0.00967946700428001,"32":-0.05433423050224883,"33":0.017266082522879905,"34":-0.045472894312315396,"35":0.04275063251994312,"36":-0.033966400140864536,"37":-0.05603087157622957,"38":-0.0012694009063712382,"39":0.05180369992720121,"40":-0.02439950793366938,"41":0.05946017503061931,"42":-0.034187370788674225,"43":0.09328590028100127,"44":0.02821422371634702,"45":0.023715509511171136,"46":0.019655985752144955,"47":0.05585562049878747,"48":-0.10132973647671936,"49":-0.048165606724838265,"50":-0.09024734183292281,"51":-0.014967865219988169,"52":-0.0048818466621021895,"53":-0.006818725693628363,"54":0.06880160530853828,"55":0.03944577320908365,"56":0.0005807893861426137,"57":-0.05208876350786378,"58":-0.014710097212579857,"59":0.03705374628654296,"60":-0.011150237224306778,"61":0.054107273151906304,"62":0.003249983601304564,"63":0.0692722595148564,"64":0.006752259251795545,"65":-0.05266124252128712,"66":0.05668769695072886,"67":-0.15391484653698428,"68":0.15343261637150732,"69":0.038939457752671935,"70":0.005832120919982937,"71":0.007618778013958115,"72":-0.08710698114887497,"73":-0.029564625751973876,"74":-0.07298944260864532,"75":0.05518796061044042,"76":-0.05300591344259584,"77":-0.059083338660770354,"78":0.018659080982605224,"79":0.017539936711039678,"80":0.06189992195960203,"81":-0.04276225891739734,"82":-0.016488154891750012,"83":-0.06073771531169882,"84":0.03749647349780869,"85":0.039667987838702914,"86":-0.01360661158177043,"87":-0.04248459275986776,"88":0.14036246669464145,"89":0.008586604551401788,"90":-0.03745730352160567,"91":0.018269264083513346,"92":0.007904826660451935,"93":-0.023299673028817365,"94":-0.09861724360384805,"95":-0.11561148465868258,"96":-0.06881415283033698,"97":-0.023230179949462842,"98":0.020203641921693747,"99":-0.0025905758992182722,"100":-0.04982733526559953,"101":-0.04474426090655803,"102":-0.0034704097959483544,"103":0.008505657540105323,"104":-0.018952355561126576,"105":-0.04238517875123295,"106":-0.049280188661711556,"107":-0.0641815590444645,"108":-0.03965731944795015,"109":0.08588089241169122,"110":-0.021135272778335615,"111":-0.002504481452025481,"112":-0.03264251795685868,"113":-0.056215796228358435,"114":0.022121446733447483,"115":-0.01190271656339355,"116":0.041911675408058874,"117":-0.028988843448975263,"118":-0.06691362316164987,"119":0.05583884943405162,"120":0.029208944318246766,"121":-0.010454406633307328,"122":-0.007771382733930837,"123":0.019642146494140315,"124":-0.05751879106636852,"125":0.023456001380909332,"126":0.003560902319295398,"127":0.04490333652301104,"128":-0.034998274394453785,"129":0.24757853240993588,"130":-0.02877803540046414,"131":-0.1957114871088653,"132":-0.22101616632401624,"133":-0.1464584002749813,"134":-0.019698596443775414,"135":-0.06576775722214823,"136":-0.013963873558071773,"137":0.009545779006527816,"138":-0.0023516227075286583,"139":0.07687887644999299,"140":0.031688066561977965,"141":0.09737948697068913,"142":-0.04758628175118882,"143":-0.035725830149511674,"144":0.028474404926802605,"145":-0.005169583393304884,"146":-0.09634195415578277,"147":-0.05115440530794498,"148":0.077975403995332,"149":0.03046862151531753,"150":0.14793098850756348,"151":0.07488606353644102,"152":0.03787781730308022,"153":0.04558081541510053,"154":-0.017909014552760658,"155":-0.00029838285254039806,"156":0.02937186254101913,"157":-0.00648682021636682,"158":-0.07301647167904979,"159":-0.06783667138726782,"160":-0.08541392817432406,"161":-0.06403804385054526,"162":-0.04877403441793958,"163":0.12877188134732626,"164":0.1210794885438287,"165":0.05844037230892848,"166":0.05021459976078492,"167":-0.0355101224268364,"168":0.042707417721695826,"169":-0.06926151420398943,"170":0.02097620318847109,"171":-0.038065114945836705,"172":-0.08104154351719114,"173":-0.00954669628406987,"174":-0.07478966683279765,"175":-0.05090321156590277,"176":-0.09216742225341534,"177":-0.017620938531794226,"178":-0.013130706516349953,"179":-0.028176913195198765,"180":-0.03872439240843065,"181":-0.04696632235108021,"182":-0.03772330152939745,"183":-0.07466116028904865,"184":-0.05751888817988732,"185":0.02807749410688495,"186":-0.05472253349966117,"187":-0.06027379322713511,"188":-0.04612527851458086,"189":0.007292544722571613,"190":-0.04344140862320206,"191":-0.14241896545262905}},{"sx":1,"sy":1,"depth":192,"w":{"0":-0.06497238593329395,"1":-0.01622994832267289,"2":-0.1734762294202738,"3":-0.1877811745504754,"4":-0.10566182305904769,"5":-0.13757607473294606,"6":-0.0941979360571613,"7":-0.024395414189820462,"8":-0.10559334412258577,"9":-0.09766609305607357,"10":-0.016070811677888982,"11":-0.022457522772720603,"12":-0.0021944289418887723,"13":0.06736571467151092,"14":0.0031021440665244993,"15":-0.05545615482910783,"16":-0.03044478562781367,"17":0.15568635774364398,"18":0.04796618258749552,"19":0.057888300775718424,"20":0.06864531534111,"21":-0.034675134000908436,"22":0.027356625083825234,"23":0.008732994466874918,"24":0.025727548054038353,"25":-0.11083004863244644,"26":-0.006934441007681023,"27":0.04054673111080546,"28":-0.05584966349405045,"29":0.019049551375341048,"30":0.0359796519583115,"31":0.012658849632443462,"32":-0.12339880937671413,"33":0.021044165635231545,"34":0.03280804891513468,"35":0.03563310133931292,"36":0.000473604404829328,"37":-0.03844108814785606,"38":0.02009150842009501,"39":0.0997452374491418,"40":0.08002316034034822,"41":-0.163925382320459,"42":0.03441522050438229,"43":0.006801726985731302,"44":-0.034825016767688316,"45":0.02662962448823833,"46":-0.06622792731172664,"47":0.1792112088720393,"48":0.026834762470904813,"49":0.025398668763093556,"50":0.0495013143559762,"51":-0.038747930713036845,"52":0.029609942543787838,"53":0.007453792302756228,"54":-0.02083450599852308,"55":0.01376291695213127,"56":0.014753001941400643,"57":0.01756021475125875,"58":0.0399271592439046,"59":0.10215518854810436,"60":0.018958315358212588,"61":-0.007906003850581792,"62":-0.052020279473473284,"63":0.035264639439337366,"64":0.1109633488335198,"65":0.04540473310674406,"66":-0.03886773239340061,"67":0.0528578491590055,"68":0.14137668073959506,"69":0.006748272931767072,"70":0.07070631514782401,"71":-0.033118729429547356,"72":0.08381136184372684,"73":0.07979562971461239,"74":0.007385644611330646,"75":-0.05097648958722581,"76":-0.05112932110298465,"77":0.0014225911099649496,"78":0.031820323459427605,"79":0.005295020664584291,"80":0.0405067312612984,"81":-0.11383535877514266,"82":0.03579263747455775,"83":0.013586824048971295,"84":0.040512044603079535,"85":0.024050145080961767,"86":-0.03139133584451608,"87":-0.011343412700524627,"88":0.024564038550379513,"89":0.08078113831816305,"90":0.00404361276555697,"91":0.042451259664196384,"92":0.08427430450092332,"93":-0.041582716804380186,"94":0.009345733461221492,"95":-0.012291414928089649,"96":-0.05542408618179608,"97":-0.07801481057324214,"98":0.04843685585723866,"99":-0.0018887585476180418,"100":-0.056596412260046365,"101":-0.028526862442684642,"102":0.008473646349344877,"103":-0.0010240907579175487,"104":0.04882446642210377,"105":-0.01570452790870464,"106":-0.00719453336167641,"107":0.05807419994169013,"108":-0.10621274210765459,"109":0.009276972884562435,"110":0.07645569476043708,"111":0.004264728380293779,"112":0.08402116098515226,"113":-0.03808696657451988,"114":0.01840229351497701,"115":-0.01805412294194233,"116":0.017338663017338208,"117":0.030041937901137992,"118":-0.03407579284120259,"119":0.03130370268392461,"120":0.0343980262618408,"121":-0.07405652317148251,"122":0.005840235779855443,"123":0.0013376414047589396,"124":0.01748678523560622,"125":-0.009513272182644762,"126":0.11419329408677577,"127":0.027183282974909097,"128":-0.15800544356003557,"129":0.1909364348116639,"130":0.06456904312664723,"131":0.09620830234685916,"132":0.10750431902223723,"133":0.12758059728295973,"134":0.05175505074205075,"135":0.214370487283313,"136":0.15763765806009983,"137":-0.005758960874933085,"138":0.1361363378193775,"139":0.00427339719987663,"140":0.07645041502485447,"141":0.12393745785997251,"142":-0.0042725401244736805,"143":0.06476532838330328,"144":0.02016701850652815,"145":0.0029296744541961006,"146":0.06064838520948898,"147":0.062243214787604646,"148":-0.044588548884754546,"149":0.13783978060566388,"150":0.07999305853312803,"151":0.054442446292834776,"152":-0.025834254127536427,"153":-0.027499289062473453,"154":0.03193789260854595,"155":0.08539591139138848,"156":0.046510949226912936,"157":0.003249434117615597,"158":-0.02004407360139312,"159":-0.0629087839027388,"160":-0.014386200559824798,"161":0.0068617821869840475,"162":0.03490296048673823,"163":0.05544018362202695,"164":0.037950253652251,"165":-0.008008587813299684,"166":0.13495385176273966,"167":0.0018119512356357687,"168":0.01317854827453872,"169":-0.10977514106789484,"170":0.15018902636695727,"171":-0.007928641982885936,"172":0.015147115681978277,"173":-0.0788424113590106,"174":-0.050818136552518975,"175":-0.024351305066592468,"176":-0.07468446787072223,"177":0.08107149716576817,"178":-0.008965847452184279,"179":-0.027713235427700298,"180":0.014123749201928902,"181":0.08715621920493222,"182":-0.021901197778781217,"183":-0.005452459613694131,"184":-0.01383299199353022,"185":-0.062235557151655144,"186":-0.008645189647008321,"187":0.10222602892833269,"188":0.11170070714708748,"189":-0.03913152345429239,"190":0.0353271667374077,"191":-0.09101124630546907}},{"sx":1,"sy":1,"depth":192,"w":{"0":0.05413280170318575,"1":0.4850587137701378,"2":-0.006416550544274942,"3":0.012819137927901849,"4":-0.15201996427921846,"5":-0.18710932654251303,"6":-0.030911132926841625,"7":0.016539067177253914,"8":0.0077903521557116,"9":0.01851838539667279,"10":0.0006503442965278596,"11":0.008017906134901678,"12":0.06343262269372239,"13":0.060993294505589594,"14":0.004260013948526551,"15":-0.02901227773095884,"16":0.016544493366426903,"17":-0.016278380003966905,"18":0.02174840116294541,"19":-0.03599290627520303,"20":-0.023912127396843424,"21":0.06905837638812314,"22":0.0014247713442466757,"23":0.011290556411531701,"24":0.0435824567957673,"25":0.08472230366391437,"26":0.018521109212867513,"27":0.02587922828320874,"28":-0.010822586776744423,"29":0.11554803200864522,"30":0.12959796831373246,"31":0.04148903204529997,"32":0.05842793710766551,"33":0.041521268285423414,"34":0.06784711546001408,"35":-0.009371887394421935,"36":0.0590631073868488,"37":0.023351800900607945,"38":0.046180999454386244,"39":0.018856778915654824,"40":-0.03836857733397365,"41":0.08859041633596414,"42":0.02433677149971661,"43":-0.02038431074891124,"44":0.03208807686951708,"45":0.06738414903287483,"46":-0.012648428480318798,"47":0.05995953104846626,"48":-0.10291227899053239,"49":0.052098220023676714,"50":0.06720822049447164,"51":0.0584244193279955,"52":-0.00969649755916791,"53":0.09010576089919109,"54":0.027392001497490565,"55":0.01975294324755359,"56":0.09424145077745914,"57":0.02944410979385223,"58":0.002490115607850559,"59":-0.06135633935075115,"60":-0.01727155964474596,"61":-0.0242915245173834,"62":-0.08858614519142606,"63":-0.08073772610457937,"64":0.0856432251607783,"65":0.14570450071218133,"66":0.21955456436238785,"67":0.09282338989543737,"68":0.0835092211270712,"69":-0.08975261323441615,"70":0.015986918099201382,"71":0.07310345818865792,"72":0.05858925352877193,"73":0.0470988718995292,"74":0.048413372876407096,"75":0.0725109550734067,"76":0.08020018181331327,"77":-0.10788229200593275,"78":-0.011581128896521025,"79":0.006583610252582318,"80":0.05650639430660637,"81":0.009784228491419777,"82":-0.10232456337924466,"83":0.07614946578681271,"84":0.02714283640540493,"85":-0.09986623348832235,"86":0.08877821278182334,"87":0.0046621202324912655,"88":0.07636499719496054,"89":0.029561703498039205,"90":-0.00871478278152841,"91":-0.006810175834664678,"92":0.0994563784788913,"93":-0.023484719451493646,"94":0.010652412672316135,"95":0.04015686372488347,"96":-0.0011849560708989903,"97":-0.03157815383456218,"98":0.029125576225999955,"99":0.029154393008035556,"100":0.06918258826104207,"101":0.03661334181049243,"102":-0.07178002817875843,"103":0.03543852102267138,"104":0.07607880037549394,"105":-0.018733364279002723,"106":-0.05392437873154372,"107":-0.12201969840588413,"108":-0.020947019632491126,"109":0.021637100964924792,"110":0.003480323612000892,"111":0.02338074793710336,"112":-0.016097000932860945,"113":-0.0006125174157244848,"114":0.056096021849198915,"115":-0.08414769291642676,"116":0.12143450707265971,"117":0.03201832176067648,"118":-0.04111475220997337,"119":0.04134486726929068,"120":0.02066209805988917,"121":0.006573818748418218,"122":0.024180499989248313,"123":0.0579918656690777,"124":0.033538552977625424,"125":0.10182920395943512,"126":0.06167118153060421,"127":-0.050044370357916576,"128":-0.13589444877282827,"129":0.2558064828544251,"130":-0.02084309135008963,"131":-0.01589777418140192,"132":0.19446300783651632,"133":0.1668105341872861,"134":0.1620711874307225,"135":0.14547924364604414,"136":-0.012281372120173715,"137":0.12028002592263248,"138":0.0448864610218399,"139":0.08437197209308754,"140":-0.05292324582793122,"141":0.006653071688963629,"142":0.037244311237573796,"143":-0.007024923433971164,"144":0.12069255682918835,"145":0.02368993410057738,"146":-0.0016281068229471894,"147":0.09375631498674172,"148":-0.015670402139924676,"149":0.05935980731551314,"150":0.04469398326992257,"151":0.03294489605604457,"152":0.044195447483612635,"153":0.042988239505313185,"154":0.1275071383780064,"155":-0.0739290520297471,"156":0.037497913377731965,"157":-0.06392754100931032,"158":-0.03158609095960167,"159":0.039505229960046455,"160":-0.009213312320668895,"161":-0.07637161199432072,"162":-0.015757871240190263,"163":-0.030446593531474605,"164":0.058390590290040775,"165":-0.08497672689261444,"166":0.009731352290228834,"167":0.00990910947291436,"168":-0.0013319064381841353,"169":0.0813558181294692,"170":0.036340951852481936,"171":0.0879664823286736,"172":0.05129944250740145,"173":0.08254920183128972,"174":0.0187537044370685,"175":0.07670360932432803,"176":0.04813675608385222,"177":0.006305603433824198,"178":-0.021725969687690777,"179":-0.035069721570541744,"180":-0.08586504839338115,"181":0.058117476006066336,"182":0.024781347417553123,"183":0.03519186671948746,"184":0.023577075289558238,"185":-0.029726549035612372,"186":0.0593381760863965,"187":-0.035578626213554766,"188":-0.030634194524715823,"189":0.02941723228485888,"190":-0.07962240950071289,"191":0.037080076674975544}},{"sx":1,"sy":1,"depth":192,"w":{"0":-0.0002311440776973535,"1":-0.46445769220681116,"2":0.07320810353130688,"3":0.054869630185754255,"4":0.13875782472818807,"5":0.16581657568685876,"6":-0.022523608044632614,"7":0.05588995798233385,"8":0.1378372339835408,"9":0.11848975906960459,"10":0.1326177443239328,"11":0.020879974335369245,"12":-0.003012297821330831,"13":0.005349143806613117,"14":-0.0268919287161313,"15":-0.042843290533703775,"16":0.04864477558150408,"17":-0.05354264745999967,"18":-0.0015086368724698729,"19":0.045443661145570975,"20":0.10379762128518834,"21":-0.008924105542334922,"22":0.010461629161281634,"23":0.040436626601866595,"24":-0.09269831283260443,"25":-0.04602632666971479,"26":-0.053491996118374324,"27":0.017812294497638985,"28":0.07344362901548526,"29":-0.08763596012447784,"30":0.038738705501929295,"31":-0.0066157982994146805,"32":0.06269935345545759,"33":0.042886039574596774,"34":0.051023309928772576,"35":0.007983388359161566,"36":0.01756438564085535,"37":0.037996736215095875,"38":0.12275779146482203,"39":-0.01804860961995848,"40":-0.03631338611655731,"41":0.051946074663532966,"42":0.06496229536290098,"43":0.013759852769479379,"44":-0.003044324617898879,"45":-0.00875771077978303,"46":-0.015346621081310245,"47":-0.09699170568986426,"48":-0.03515215788665517,"49":0.09187952758799048,"50":-0.13031765221458716,"51":-0.022444702797709,"52":0.0028821976699982136,"53":0.034298541510993534,"54":0.06244985176366435,"55":0.04826661412877901,"56":-0.03680074942200316,"57":-0.022424778575958728,"58":-0.0199160245938937,"59":-0.006622782280730068,"60":-0.00359372671102699,"61":-0.01831366168742703,"62":0.02661817669978317,"63":-0.02735146884743549,"64":-0.01962481617174048,"65":-0.12439409827883877,"66":-0.1821111102372328,"67":-0.1262149395797556,"68":-0.1482437689628007,"69":-0.0955420291251597,"70":-0.10756347245058748,"71":-0.013727458660039406,"72":-0.018362623960716355,"73":-0.14046378782149635,"74":-0.07786536353596117,"75":-0.031023075653438443,"76":-0.08582170717736892,"77":0.03544471333220156,"78":-0.09684881632965678,"79":-0.10231241205340648,"80":0.03970075976229216,"81":0.07516405320876778,"82":0.07160516524678241,"83":-0.01965743260157216,"84":-0.031638396331081196,"85":-0.01177532802004016,"86":0.05796052197851,"87":-0.07524948276144201,"88":0.04358661618270357,"89":-0.04467084956039913,"90":-0.07831304089220176,"91":-0.0644527735897546,"92":0.030993879681164054,"93":0.06229265592714965,"94":0.0006007667130030629,"95":-0.00701484335339389,"96":-0.0019739629792428024,"97":-0.12659765556976255,"98":0.10121127920752059,"99":0.02004211462918558,"100":-0.014379653187680702,"101":-0.0732741582703452,"102":-0.012211025941407007,"103":-0.08809374223938744,"104":-0.08670430846507969,"105":-0.04537140525314965,"106":0.06138685343132931,"107":0.10910077860218549,"108":0.035124404960840044,"109":-0.05394250042819228,"110":0.060351944160322996,"111":-0.02198005850763178,"112":0.0618195631962157,"113":0.055322231315252005,"114":-0.07585168364581064,"115":-0.03368969191155032,"116":0.0061214293687122355,"117":0.005194940838188232,"118":-0.03087556269413204,"119":0.0007112635177493952,"120":0.03743640535658686,"121":0.006023108660049861,"122":0.01720257171297111,"123":-0.07615594202395878,"124":-0.0340604816243487,"125":-0.006634036239007266,"126":0.025188419117479283,"127":-0.09451226257788632,"128":0.09962207501121559,"129":-0.30322035848462603,"130":0.109556651399508,"131":0.01904101823451006,"132":-0.10643190504775468,"133":-0.014797835486014002,"134":-0.12120282066235104,"135":-0.211044982136127,"136":-0.18735105906836988,"137":-0.10636243385549977,"138":-0.1288442509325777,"139":-0.05497552355934109,"140":-0.08023800416817051,"141":0.01510980691490222,"142":-0.02514743454752226,"143":-0.05547923134002807,"144":0.010728890942420008,"145":-0.12964774931326403,"146":-0.03315187989132546,"147":-0.022186701140594182,"148":-0.05979140057812853,"149":-0.05044101045116024,"150":-0.011360592191178026,"151":0.027852788406929528,"152":0.07160300792271698,"153":0.02593054506730142,"154":0.030326794856527204,"155":0.0133307056535921,"156":0.007682070502231783,"157":-0.06977397390277801,"158":-0.0015718925752048723,"159":-0.04375951081873232,"160":0.013787324617128895,"161":-0.031602702280336244,"162":-0.03469281339685499,"163":-0.05272777875811882,"164":-0.046466653230996344,"165":-0.01144833386808221,"166":-0.0539070232462903,"167":0.07718633392933467,"168":0.001960181938017689,"169":0.00773324230328821,"170":-0.0038395757935448783,"171":-0.049537904062455874,"172":0.029336425365509632,"173":-0.011571796889312166,"174":0.016770209999273977,"175":0.0837176403904059,"176":-0.09811460548183329,"177":0.060732287988505544,"178":0.02522791554404282,"179":-0.03693808112004462,"180":0.012803383861505068,"181":0.012643082416368138,"182":0.013698917041730997,"183":-0.07626457350505995,"184":0.0034208969203057115,"185":-0.0449661510066477,"186":0.05461664962529,"187":-0.03737631480711653,"188":0.026691523717989586,"189":0.0945613359775688,"190":0.09206110114660018,"191":0.020889667926919382}},{"sx":1,"sy":1,"depth":192,"w":{"0":0.01470735660142102,"1":0.34712027157630443,"2":0.132312095631344,"3":0.1185479650030204,"4":0.007355369017205233,"5":0.115861540166019,"6":0.1596841353282791,"7":-0.008515927793437112,"8":0.044628496979541604,"9":0.03902705974752766,"10":0.038985735990292064,"11":0.020938421406300024,"12":0.12337401529116987,"13":-0.004619549067555602,"14":0.017595598642847626,"15":0.12359673571933993,"16":-0.054127589423460444,"17":-0.011356051836910413,"18":-0.07645002442343968,"19":-0.013523592396392808,"20":0.027210551829962234,"21":0.03216323190895355,"22":0.07116653679613853,"23":-0.03920229381436409,"24":-0.020435194722316745,"25":0.023844387004183027,"26":0.06712122527877364,"27":-0.024483924788119064,"28":0.046263903307999704,"29":-0.04541131023612316,"30":-0.07143414631653332,"31":0.04850399271022215,"32":-0.04339078763821098,"33":-0.045353561006877666,"34":-0.00036212816892737266,"35":0.038313126583769834,"36":-0.02974118929869236,"37":0.05483860654178724,"38":0.12306346037668797,"39":-0.04482502664118701,"40":-0.0293120748424209,"41":-0.11371997071612842,"42":0.05181828930128167,"43":-0.028141596561566135,"44":0.06466985878303967,"45":0.05983977836738273,"46":0.02086977066170963,"47":-0.009273801220981854,"48":-0.022757643377325634,"49":0.026485611222762422,"50":0.03911288758705029,"51":0.017568738072733285,"52":0.017774108492494455,"53":-0.014577595161073351,"54":-0.021465701224122485,"55":0.016935846205182986,"56":-0.05013541478487841,"57":0.014613702206294427,"58":0.06900811676308609,"59":0.08321711582766364,"60":0.011759693116770897,"61":-0.0741774226405131,"62":0.018786141341256266,"63":0.07436675821769861,"64":-0.006290552592717471,"65":0.008304128817138717,"66":0.12392103721537895,"67":0.03201434960114227,"68":0.04919447484826618,"69":-0.04192492918082286,"70":0.05649488360703365,"71":0.031035121018248426,"72":0.016772445634458275,"73":-0.08847496966425134,"74":-0.06059150959464244,"75":-0.016664043231964704,"76":-0.0864009070894509,"77":-0.004965229074637273,"78":-0.012943540409273126,"79":0.0864902856578575,"80":0.05807262029737217,"81":-0.025668050815899037,"82":0.07953378670742985,"83":-0.049497660997709914,"84":-0.024747241956497686,"85":-0.04086051923656976,"86":-0.08877230490504254,"87":0.02812076767794254,"88":0.009059535931791434,"89":-0.02421987805092222,"90":-0.015369625876187233,"91":-0.050982060167542684,"92":-0.08856103730453874,"93":-0.03445277157839114,"94":0.003992183020497841,"95":0.048858017810353205,"96":0.05217357600801963,"97":0.050655966171979046,"98":0.028361627408720273,"99":0.030916692450810728,"100":-0.005137687947957366,"101":0.009146229013458152,"102":0.08532307177400096,"103":0.0600218809972005,"104":0.036677628196282154,"105":-0.046443455860440436,"106":-0.004316366199093289,"107":-0.08346250147815312,"108":0.018723681632382288,"109":-0.02767444225140003,"110":-0.11991224013476538,"111":-0.03746684113254595,"112":0.026324835139129185,"113":-0.006096823250345413,"114":-0.030574449665665658,"115":-0.045146822514242804,"116":-0.03551079331049356,"117":-0.04262524527964924,"118":-0.07924180253284648,"119":-0.028410982500063152,"120":0.04230667397710967,"121":0.011480417958069361,"122":-0.07979105854398108,"123":0.06846567234154448,"124":0.0006186733402992411,"125":-0.01861165303352734,"126":-0.032190813522098044,"127":-0.07205812993175245,"128":-0.012069158352965563,"129":0.05066488197069376,"130":-0.09345546668209569,"131":-0.1627737509977081,"132":-0.04925488570749063,"133":0.0010596384277748432,"134":-0.032053769615261636,"135":-0.0402020532143277,"136":-0.03720804428193614,"137":0.09781216531717424,"138":0.026316647169201946,"139":-0.04472311630333818,"140":-0.0004937519038179122,"141":0.0742213076234257,"142":-0.04365595140251051,"143":-0.004989995939213315,"144":-0.040217180876109544,"145":-0.04560830163695433,"146":-0.03028012106057239,"147":0.05432672409098871,"148":-0.08737291505041268,"149":-0.06578458128837514,"150":-0.013761936662956855,"151":-0.03565609349125188,"152":-0.05527331481591981,"153":0.03343515211388891,"154":-0.0984333830946951,"155":-0.05008789593334116,"156":-0.05248276235521121,"157":-0.0494212893660395,"158":-0.03951459304292151,"159":0.029069280948253676,"160":-0.04107937039438415,"161":0.015507983082266053,"162":0.012858035105522312,"163":0.028022254064863365,"164":-0.07927107554788163,"165":-0.03332427448479873,"166":0.020295259989827025,"167":-0.07374179321727012,"168":-0.06602597033526614,"169":-0.08939124476830798,"170":-0.08135040388145615,"171":-0.047814181499376385,"172":-0.0075860809630245675,"173":-0.021409728378663312,"174":-0.015167982845139415,"175":0.06328505478499924,"176":0.006699075584593379,"177":-0.0345406803390783,"178":0.033514110534501075,"179":-0.042635647705211485,"180":-0.0267956507441539,"181":-0.047839029631602664,"182":-0.04669358117380107,"183":-0.04830906233898616,"184":0.05213869327304057,"185":0.04791172707871181,"186":0.0005755200408997888,"187":-0.10786791597616051,"188":-0.01741220272572369,"189":0.05024311052252443,"190":0.06392098564202674,"191":0.0508961739866646}},{"sx":1,"sy":1,"depth":192,"w":{"0":0.05206756567559685,"1":0.26681149089865996,"2":0.13433509887120393,"3":0.3214214726291832,"4":0.08113963219634995,"5":0.11989419736289375,"6":0.03270381753892835,"7":-0.0593792388885654,"8":0.11952194452227904,"9":-0.00458487798951248,"10":-0.019239005406121286,"11":0.026507472390154625,"12":0.04988682765015238,"13":-0.10918903767773493,"14":-0.0790207928406845,"15":-0.0024308343099175155,"16":-0.04270955455595793,"17":-0.038457771047429354,"18":-0.05579803211633845,"19":-0.036491915598205686,"20":-0.039663743794693625,"21":-0.027906869536637246,"22":-0.05289643024317479,"23":0.05382593640007889,"24":-0.029315877584311898,"25":0.12692660364280298,"26":0.01869037944275163,"27":0.026486177068657486,"28":0.005287608313765806,"29":-0.011438848775456263,"30":-0.006914124000598763,"31":0.004582084559648222,"32":-0.010795628330275267,"33":0.011397240894661315,"34":0.05701585199918152,"35":-0.03325561216135866,"36":-0.021438700060452613,"37":0.02296182017744251,"38":-0.046562807429541116,"39":-0.08783878333937999,"40":-0.023649021266056915,"41":0.032295487439902605,"42":-0.07283011961741288,"43":0.06117339707817184,"44":0.05830491721644115,"45":-0.03446355157066872,"46":0.00946971916072117,"47":0.031079531430474847,"48":-0.045087729582472716,"49":0.011800323334431203,"50":-0.028125241540607065,"51":0.002622316110452058,"52":-0.03705252787518286,"53":-0.12879777121857855,"54":0.10796660574272038,"55":-0.009768708267987149,"56":0.05525301425942809,"57":0.06483094518511642,"58":0.06758982164609507,"59":0.036127970624524115,"60":-0.08337279457209454,"61":-0.05382102698232444,"62":0.03080502453869059,"63":0.011713296259763521,"64":0.19634837882119266,"65":0.02293059549088576,"66":0.05989294759482886,"67":-0.027290700597381878,"68":-0.020654511463581306,"69":0.012841546816149694,"70":0.01984887366664053,"71":0.0424423035999421,"72":-0.04381166876892834,"73":-0.06487163439570504,"74":-0.005631925662141566,"75":0.004352617618882573,"76":0.06475777931627826,"77":-0.003654924742151917,"78":0.0034882976272166463,"79":0.02761095682039864,"80":-0.11988137614451377,"81":0.04056787747714423,"82":0.020766287000254645,"83":-0.025885616101845265,"84":-0.008928260985210506,"85":0.026561302141390002,"86":0.03669384150893245,"87":-0.04017051915698331,"88":-0.05534444243343214,"89":-0.0015401301686079503,"90":0.0377074131151234,"91":-0.05354900049250336,"92":0.03540716918465126,"93":0.05397247941053021,"94":0.018829018718685534,"95":-0.010756217047329559,"96":-0.00008042292977827619,"97":0.029634586966677402,"98":0.026615686648233158,"99":0.08450308011991348,"100":-0.04434231134842367,"101":0.02642389057932562,"102":0.031632940017153,"103":0.0711166814264916,"104":-0.03722607831033492,"105":0.05802365481651829,"106":-0.07217156199713727,"107":-0.043611234127505366,"108":-0.03296936287215699,"109":0.02386684642929696,"110":0.012879521643459072,"111":-0.06564964035245013,"112":0.04833877869432489,"113":0.021761374620734804,"114":-0.021506196951722317,"115":-0.023791378205975624,"116":-0.046087228825439676,"117":0.058297538215461894,"118":0.02212964520963681,"119":0.0010017576576358766,"120":0.01968469549839604,"121":0.02037276665718658,"122":0.005832724888425341,"123":-0.06307146559815224,"124":-0.007633652774796746,"125":-0.010404332113524355,"126":-0.002456486740892978,"127":-0.034403981103981955,"128":-0.016717585472927562,"129":0.023667669261978184,"130":-0.13421624400425367,"131":-0.17631180722256082,"132":-0.12199314420490565,"133":0.037503611229640056,"134":-0.039304413827032696,"135":-0.11740091572600157,"136":-0.03369716590378215,"137":0.02211674493090172,"138":0.03804619276649679,"139":0.019024922210805553,"140":0.033062022891243395,"141":0.10797433744841392,"142":-0.03218157438130596,"143":0.040803660502693156,"144":0.03913810382990625,"145":-0.05711068037023862,"146":0.046764359764549554,"147":-0.004416873138485369,"148":-0.03574207542551519,"149":-0.05830868953193296,"150":0.015214959833033236,"151":-0.030299932554012216,"152":-0.16461496333307138,"153":-0.0446153085587909,"154":0.019556533290916025,"155":-0.025111526285131337,"156":-0.011055161115341751,"157":-0.005625860916854013,"158":0.012664165578464079,"159":-0.002833373725460983,"160":-0.04428824876080245,"161":-0.0016112142793373457,"162":-0.07002938824289037,"163":0.037938234608130686,"164":0.11938259930743432,"165":0.025305852822807888,"166":-0.04128127333556365,"167":-0.0672483982250365,"168":-0.06960948570090442,"169":0.00647391408400034,"170":0.040782904911431724,"171":0.0435033273566053,"172":0.08941735526445317,"173":0.010602419158541694,"174":0.02759968096864259,"175":-0.008044706956015895,"176":0.014380241382841729,"177":0.023177345626797668,"178":0.0228765039996869,"179":-0.03383450995937958,"180":-0.022437377369286072,"181":-0.014458651082357865,"182":-0.06915318008676981,"183":0.006196639597825616,"184":0.03531927911777044,"185":-0.027410591023620503,"186":-0.012382692618005639,"187":0.0046510686217917,"188":0.0532782788769091,"189":-0.03093841666392558,"190":0.03629043557723529,"191":-0.025198867849465578}},{"sx":1,"sy":1,"depth":192,"w":{"0":-0.24284843412027066,"1":-0.08549496694812046,"2":0.02242899149984172,"3":0.2939156642182615,"4":0.13495807785195388,"5":-0.08202723046143771,"6":0.06407538491876755,"7":0.059484523654658866,"8":0.1261462917282051,"9":0.07019083868471296,"10":0.09662382904306228,"11":0.026597924166252323,"12":-0.07505427415187547,"13":-0.040012613276510664,"14":-0.010624619362460855,"15":-0.025053231529773127,"16":-0.034934058744257555,"17":-0.03350545350930541,"18":-0.06676006295179066,"19":-0.004601371303722698,"20":-0.06269319900955003,"21":-0.041676729177549054,"22":-0.05346795965594894,"23":-0.03621833825049875,"24":-0.029515661479363117,"25":0.04731374200858777,"26":-0.005297451698203931,"27":-0.004625991445003263,"28":0.047197656862142695,"29":0.015416500223168707,"30":-0.10688435983082104,"31":0.06842319426623689,"32":-0.05393298061440102,"33":0.035249104922565375,"34":-0.02444506939947251,"35":0.022684734226223007,"36":0.0112068833636921,"37":-0.05125502444539237,"38":-0.06125699155551153,"39":0.0605774733175406,"40":0.01863461891551151,"41":-0.09158046733922488,"42":-0.029929000055701642,"43":0.049796849430368446,"44":0.06952890976711897,"45":-0.03999720636804055,"46":-0.10622167290229638,"47":-0.008819741175428412,"48":-0.0036444342482274765,"49":-0.03409437165140793,"50":-0.04998254445656494,"51":-0.00910743527881763,"52":-0.04391051736821706,"53":-0.04226974246096193,"54":-0.044887902498800536,"55":-0.055037411024651324,"56":-0.041835864674184535,"57":0.028552856477419487,"58":0.03114512403471809,"59":-0.02419509970867338,"60":0.011749165740919642,"61":-0.07209359701599083,"62":0.03363490016685167,"63":0.004619549007102604,"64":0.11536822646711196,"65":-0.016124605396973656,"66":-0.11510982471041685,"67":-0.11323378733079835,"68":-0.06315026864399138,"69":-0.041849893858627536,"70":0.02473232338351029,"71":0.02027702395884345,"72":0.05482373808824426,"73":-0.02271624828746324,"74":0.1762635257811026,"75":-0.04689190123722052,"76":0.08159203856823802,"77":-0.1166237556389655,"78":-0.023186176926223205,"79":0.09199625873029751,"80":-0.06420820700904191,"81":0.11915462982437872,"82":0.05602064749706157,"83":0.0034712266631759434,"84":0.058509135207089995,"85":0.05938524275881477,"86":-0.06131255759775234,"87":-0.05164320519990614,"88":-0.04621630027596582,"89":-0.008211900944779664,"90":0.0028225429517960425,"91":-0.06936633100487542,"92":-0.008540122633864682,"93":0.03344311048808652,"94":-0.022781785132302952,"95":0.06174573423968184,"96":-0.07930574301257437,"97":-0.037525751965212586,"98":-0.04463773765965321,"99":-0.05684441535925588,"100":-0.053561269854613895,"101":-0.021726474848404054,"102":0.01265150062438818,"103":0.0024639904584262524,"104":0.025208403636601505,"105":-0.03422609310701348,"106":0.03471084075496055,"107":0.01618770080939604,"108":0.031155734075292017,"109":-0.025575124998461565,"110":0.0033813347140323187,"111":-0.026444704667064046,"112":-0.0012927361338817465,"113":-0.08271266894723733,"114":-0.010894758353508205,"115":0.03616548774623237,"116":-0.030886566026230373,"117":-0.006623971391788205,"118":0.02062476751529857,"119":0.043002906393808014,"120":0.08030026875727743,"121":0.011110993369434096,"122":0.08597108317439194,"123":0.031794156476690955,"124":0.017946916433757454,"125":-0.016092185708548572,"126":0.06686071219054718,"127":-0.0005930233179276182,"128":-0.01672413010486349,"129":-0.051027094891495664,"130":-0.2712383888796006,"131":-0.3180811705544972,"132":-0.1463710397298454,"133":0.05586475716525605,"134":-0.1175427727206633,"135":0.040843642892989154,"136":-0.006022875361179065,"137":0.04518066362845109,"138":-0.007301340017014152,"139":-0.040195039194550884,"140":0.010083888660451014,"141":-0.06066039133637243,"142":-0.053696684554177594,"143":-0.039756392259369035,"144":-0.010370658384216533,"145":-0.1514435810701989,"146":0.0020217369187359763,"147":-0.011239096199162493,"148":-0.023547317138137836,"149":-0.09980247447244071,"150":-0.009136218031015598,"151":-0.06991685895531577,"152":-0.0609787876809616,"153":-0.061548672929242626,"154":-0.1083428501718895,"155":-0.06672565345140608,"156":-0.027168137610329837,"157":-0.02210284617009136,"158":-0.10898497355242748,"159":0.030924717932922563,"160":0.09211373712056901,"161":-0.08135003343129597,"162":-0.09052288088186154,"163":-0.09165159206581362,"164":0.030186527606954703,"165":0.02351179274447652,"166":-0.0770327025084019,"167":-0.03234827422590648,"168":0.04823886526214392,"169":-0.07595489386901594,"170":0.0987427558363094,"171":0.04104730283863427,"172":-0.085739616818987,"173":0.0032568135199783237,"174":-0.029755539121493917,"175":-0.07695815321173044,"176":0.048514299697355684,"177":-0.05089172040900666,"178":-0.055140058944452154,"179":0.0020319676486465475,"180":0.07934970261818829,"181":0.010662175154737379,"182":-0.0019583010549596414,"183":-0.033881169988325424,"184":-0.065520069653379,"185":-0.004958388856399812,"186":-0.09881945473797656,"187":0.0745418761996528,"188":0.04572809660233596,"189":0.004962563186690858,"190":0.05048399054029278,"191":-0.009360366473891164}},{"sx":1,"sy":1,"depth":192,"w":{"0":0.14396003591930964,"1":0.06276780875219172,"2":0.26022497136720524,"3":0.16331322529300657,"4":0.0908527870097465,"5":0.041029909653643254,"6":0.12376091821474523,"7":0.0934091737814823,"8":0.07201787142782239,"9":0.07752228757602721,"10":0.00107164856933393,"11":0.05909890730941156,"12":0.028350834593712973,"13":0.1657785201308731,"14":0.10079805369135156,"15":0.04196107518518447,"16":-0.05632503030689454,"17":0.06814727308629151,"18":-0.021915655548983923,"19":0.030948629018600262,"20":0.0293413345769711,"21":0.007870064329442195,"22":0.14383353740420654,"23":-0.0010029612356373153,"24":0.04009955786263337,"25":0.1162937479713255,"26":0.0003596553297186316,"27":-0.017802165759571893,"28":-0.04447542444590337,"29":-0.0063772959894755985,"30":-0.05793541123683738,"31":0.06380369603439465,"32":0.09507677226463869,"33":0.026182456413894155,"34":0.030536557381296233,"35":0.03296146307641518,"36":0.1130641201252716,"37":-0.07183498192467287,"38":0.027437106675683953,"39":0.01783148527666876,"40":0.03006672133350829,"41":-0.018755320102854686,"42":0.005023800286124488,"43":-0.06862447096443854,"44":0.029809713615582135,"45":0.04877811497356746,"46":0.012617470641536815,"47":-0.09548402458315484,"48":-0.08699936403668351,"49":-0.003036725051382949,"50":-0.018479120288370808,"51":0.003905702612941998,"52":0.009659565306150282,"53":0.04858003557027543,"54":-0.010070576429868907,"55":-0.03040257302220647,"56":0.07073291538460864,"57":-0.024225256816475915,"58":0.00813522003072612,"59":-0.07154960534507034,"60":-0.0006564044826309549,"61":0.04912320495512401,"62":0.01352374102873992,"63":-0.046651590318184284,"64":0.021923131950906966,"65":-0.10808230266516489,"66":0.04380918599074259,"67":-0.1673561893937611,"68":-0.11069437585500695,"69":0.03864049055598399,"70":0.0022256669499729344,"71":-0.011591874154167575,"72":-0.03246521178910121,"73":-0.03264765779184676,"74":-0.17314529940177187,"75":-0.1457501587690894,"76":0.0076927726372590126,"77":-0.0054039479051874555,"78":0.12780333583690415,"79":0.07262014132515829,"80":0.0438642988264789,"81":-0.028965466453179406,"82":-0.0712131609881843,"83":-0.0987383968218186,"84":0.004934259728240701,"85":-0.12093350834491369,"86":0.07006432019177739,"87":-0.02743886760756473,"88":-0.05378765770953533,"89":-0.024506592910613263,"90":-0.018084268958379175,"91":0.020054591840695607,"92":-0.012634955777654878,"93":0.022492801099422467,"94":0.06027713125396208,"95":-0.019468354865203805,"96":0.03672377030724572,"97":-0.0899478165038372,"98":-0.009944509906860195,"99":-0.0040359780838593136,"100":0.049119574221603395,"101":0.004650716946081406,"102":-0.057283117431295556,"103":0.06987081214254497,"104":-0.005343863606239129,"105":-0.04696281440852799,"106":0.07395706440275074,"107":0.06369046747124515,"108":0.12965952621801535,"109":0.038171652556432005,"110":-0.05538361663578744,"111":0.03991953736932283,"112":-0.029353194232908216,"113":0.05286727776078002,"114":-0.0042002844868628654,"115":0.03996527775032596,"116":0.10711751531665319,"117":0.11839253907043384,"118":0.06292224347080597,"119":-0.08628488392560803,"120":-0.0341106804264043,"121":0.05068685277281553,"122":-0.009645865051986988,"123":0.049338306291300635,"124":0.038285300895429045,"125":-0.02438116699070561,"126":-0.021546993833472333,"127":0.05423901740365676,"128":0.06278690286586873,"129":-0.13790105544866338,"130":0.06272757160339205,"131":-0.0349819632491521,"132":-0.1971082608353129,"133":-0.2103479105483696,"134":-0.08888444731793352,"135":-0.210127381128966,"136":-0.20352946995291607,"137":-0.1913328823418175,"138":-0.04689742324988126,"139":0.14193361684284647,"140":-0.08672821924758341,"141":0.11756597816052194,"142":-0.04233336744508095,"143":0.010452495514780304,"144":-0.0034539187112625053,"145":0.039605716215385986,"146":-0.13045878471490105,"147":-0.08300563603644631,"148":-0.0199896351175923,"149":-0.032179362954918314,"150":0.0012360727489244014,"151":0.04773439296775,"152":-0.05594348268336882,"153":-0.08424574824332119,"154":-0.04139301056378473,"155":0.058044908203911894,"156":0.08103113283340621,"157":0.03670209837497838,"158":0.12083891883640878,"159":-0.05432842884552125,"160":0.10457697465990631,"161":-0.0011619439450612356,"162":-0.03637059105280386,"163":0.0570525139436799,"164":0.011530496088064873,"165":-0.010454916711534616,"166":0.0027461756695676388,"167":0.12416311511129892,"168":0.08015292444469284,"169":-0.03525217451667605,"170":-0.033287609904046965,"171":-0.05659790252369304,"172":-0.04906352755066357,"173":0.03596837247901956,"174":-0.000727823573394787,"175":-0.017056013525458803,"176":0.05493488004836465,"177":-0.1504633033610328,"178":-0.10317813536588617,"179":0.13726054779319302,"180":-0.043565556251238896,"181":0.0941372949616502,"182":-0.025199441039181557,"183":-0.11874703034049319,"184":0.040787031451336594,"185":-0.007687519299119644,"186":0.09084991781945753,"187":0.07163241140263313,"188":-0.029063702548671817,"189":-0.008863678936326103,"190":-0.09040960905593914,"191":0.03174322005591245}},{"sx":1,"sy":1,"depth":192,"w":{"0":0.1731212933180913,"1":0.48151045659005054,"2":0.14978891934789557,"3":0.3020728257481908,"4":-0.057559826266758186,"5":-0.11792839454091461,"6":0.061884753979008625,"7":-0.052224475857786896,"8":0.00561563014464171,"9":-0.027863122093453208,"10":-0.03400414705035175,"11":0.0049278820011973215,"12":-0.035651254201873865,"13":-0.052323411714230314,"14":-0.007743363906945722,"15":0.037764827144317406,"16":-0.09209583347275532,"17":-0.03896092462421528,"18":-0.026387624005130575,"19":0.03670982738708262,"20":-0.06518735411414438,"21":0.119344141315092,"22":-0.04644687263723143,"23":0.0001509151156220147,"24":-0.02955028157717116,"25":0.060953090787306284,"26":0.0631143961271969,"27":-0.01232503692575284,"28":0.019413728695350612,"29":0.08714623361584937,"30":-0.09895407915172806,"31":0.00637172313130787,"32":0.013335852782403162,"33":-0.04452036243811123,"34":0.03478279977595699,"35":-0.011640922747832945,"36":0.05340955692016666,"37":0.05981804369488494,"38":0.014647909211382667,"39":-0.06182800871466515,"40":0.0469530734883055,"41":0.09761169488695418,"42":-0.026763608964241167,"43":0.10943648635763678,"44":0.04594473068666928,"45":-0.034139802160207774,"46":0.11891712182865091,"47":-0.1688716337411742,"48":0.12106430188371683,"49":0.0034776623360673674,"50":0.029918051856790272,"51":0.014977334103701475,"52":-0.04735659143767026,"53":0.004316952261890267,"54":0.01296895586561245,"55":-0.01730200675657598,"56":-0.04773564815401837,"57":0.006358339127557537,"58":0.03681426467973426,"59":0.0012301266796427663,"60":-0.02308810006557572,"61":0.025177507184361562,"62":-0.12047469664599113,"63":-0.03137934904404651,"64":0.2407689667171532,"65":0.09875689059216189,"66":0.07314519343247176,"67":0.05087824794217746,"68":0.012020216582381456,"69":-0.08925357436227328,"70":-0.03250877915383312,"71":0.08513483111769737,"72":0.08787640713913565,"73":-0.03797948600355724,"74":-0.01667881553610799,"75":-0.1264070176534434,"76":-0.00898058173252521,"77":-0.08326672750528061,"78":0.04347323705663983,"79":0.0888864757549477,"80":0.026537028519170915,"81":0.09196979742697849,"82":-0.012839878010113742,"83":-0.06504403595543638,"84":-0.03752509702757934,"85":0.04412448617991836,"86":-0.06341116620176591,"87":0.02140681573901178,"88":-0.050135102704964164,"89":-0.13409615498892896,"90":0.08664574261241885,"91":0.0415994154737843,"92":-0.05107358443685315,"93":-0.0670064995992794,"94":-0.0216600907399525,"95":0.006786413515196205,"96":-0.013592862452145015,"97":0.1347985030759775,"98":0.0160725068736995,"99":0.06126213855838088,"100":0.00468991241234459,"101":0.045551892992524816,"102":0.08543647299293597,"103":0.09302714690739032,"104":-0.03380784319040294,"105":0.11909432205869755,"106":-0.03784705089058409,"107":0.035028573732630144,"108":-0.03957155182239656,"109":-0.05714548810250114,"110":0.005944371486973754,"111":0.03764418846257635,"112":-0.03565109258913993,"113":-0.09528105923320943,"114":0.002864015199685102,"115":-0.012441371340485442,"116":0.0838983693896847,"117":-0.06114080203941237,"118":-0.01520562930042461,"119":-0.0568189227098075,"120":0.06472345016166076,"121":0.025519675704255146,"122":-0.032908924098653126,"123":-0.01110380246130199,"124":0.007396253473396685,"125":0.07411733676541278,"126":0.028625938533095745,"127":0.028062874395637642,"128":-0.07210811205408474,"129":0.1946334775595357,"130":-0.18117945111272896,"131":-0.17706458064034233,"132":0.05689109460504791,"133":0.21355293727669636,"134":0.042703651814982,"135":0.07733795284424311,"136":0.03563862912770557,"137":-0.023035894643329682,"138":0.051439054162816175,"139":0.05080649460664742,"140":-0.03494974268368055,"141":0.08130163783876299,"142":0.014493202875898798,"143":0.13259762334855701,"144":0.056712725595290725,"145":0.05931382039492326,"146":0.026763771966553378,"147":-0.08755589985841812,"148":-0.00035709487477237175,"149":-0.0021874625553171645,"150":-0.04460597164732765,"151":-0.006820607547328807,"152":-0.07877301529388257,"153":-0.04126345795827721,"154":-0.09199218410704608,"155":-0.03560675930343836,"156":0.06819456560770157,"157":-0.05199494069783238,"158":-0.018727238293758764,"159":0.08924777519755994,"160":0.11682821867051113,"161":0.09204874118904817,"162":-0.0034268655596372145,"163":0.08941580496821426,"164":0.0809876326039961,"165":-0.032148065471088415,"166":0.031072529946213602,"167":-0.014022987933372888,"168":0.08215676280752063,"169":-0.016090832861988414,"170":-0.04320836956143886,"171":-0.061209831540454264,"172":0.10975571840371377,"173":-0.05128356441673386,"174":0.043136069413942824,"175":0.013088437851385696,"176":-0.022774148326554538,"177":0.03815559856452176,"178":0.007201532009578808,"179":-0.09064558357646589,"180":-0.009391308787059615,"181":0.056826263666227436,"182":0.05426853542069927,"183":-0.026414712765848645,"184":-0.028499110423765697,"185":0.05035336624819378,"186":0.014404448474505616,"187":-0.03455753614042588,"188":-0.03963727434284799,"189":0.006903430773056623,"190":-0.0038339984155665962,"191":0.028271484048932014}},{"sx":1,"sy":1,"depth":192,"w":{"0":0.009323008411326604,"1":0.14424664193775302,"2":-0.00883220433168693,"3":0.02480413458804944,"4":0.029147629585971464,"5":0.0003696038214314774,"6":-0.08801824605082621,"7":-0.15486440630201537,"8":-0.005273216663503669,"9":-0.03435491426118108,"10":-0.09332381878267643,"11":-0.08383904223801923,"12":-0.11176774926372744,"13":-0.08403868742908605,"14":0.012739598447552661,"15":0.04049284690660133,"16":0.10493151744830728,"17":-0.04532385078571109,"18":-0.10646427134529134,"19":-0.01717345522068069,"20":0.030313563903672618,"21":0.014101270506997972,"22":0.10401990492050033,"23":-0.02406041962890775,"24":0.020491411878376498,"25":-0.06940735739773693,"26":0.015626552771818715,"27":0.03278298812826686,"28":-0.017716402684126366,"29":0.037355284745574084,"30":0.023275631209380615,"31":-0.03843825709218496,"32":0.0698722477311418,"33":-0.04181093313144075,"34":0.1139764891088736,"35":-0.04459582941633392,"36":-0.014298517780920245,"37":-0.03990768347290614,"38":-0.0915459497696546,"39":-0.036763629906719705,"40":0.03408191212051051,"41":-0.04129268153875447,"42":-0.02825416712547574,"43":-0.048456385882475736,"44":-0.0766537954549026,"45":-0.03472892014536194,"46":0.04732629186939855,"47":0.0499096872038676,"48":-0.024380656929205956,"49":0.14760207619966095,"50":0.038799552840463214,"51":-0.0037506076711465684,"52":-0.006751754924811749,"53":-0.0507963487268147,"54":0.053424400742535884,"55":-0.05378038399840368,"56":-0.04290011506895917,"57":-0.04607113397751884,"58":0.059591070225806245,"59":0.03200957655656674,"60":0.0045703050779302935,"61":0.02331093794205531,"62":0.012914941377286483,"63":0.024872009611260352,"64":-0.05580422638855216,"65":-0.07790467628718122,"66":0.0007520141887853644,"67":-0.04410332200822881,"68":0.09120040936574432,"69":0.002453533780059136,"70":0.07885969798339122,"71":-0.04600236864105051,"72":0.10310120696023177,"73":-0.024844104499711573,"74":-0.07317625453269137,"75":-0.07103492885411146,"76":0.0027152241104968534,"77":-0.041285468107382095,"78":-0.1387107207789284,"79":0.00000560324161919479,"80":-0.07888265568509525,"81":-0.08285679889123809,"82":-0.022899352075495812,"83":0.09208911284345109,"84":-0.034776161958824006,"85":0.0468911301712907,"86":-0.027447178573549176,"87":-0.031363977240305,"88":0.024431824321184698,"89":0.11519233581293063,"90":-0.10547091929350373,"91":0.013211133364219129,"92":-0.0648971955753232,"93":0.04123373656655756,"94":0.007049234852653198,"95":-0.05043721092106579,"96":0.02975845784025314,"97":-0.04153602689264023,"98":-0.012357202212996967,"99":0.023802703124409096,"100":-0.07724313490220086,"101":-0.03192327820357143,"102":0.006454992623126068,"103":0.04710127227279936,"104":0.030496457673425646,"105":-0.09783060061723076,"106":-0.01846425468977963,"107":0.008050900386128395,"108":-0.00825596312881975,"109":0.031312991910061615,"110":0.04392045987701672,"111":-0.03523030002587509,"112":-0.009738436579752917,"113":-0.0459323627535183,"114":0.09608981847178967,"115":0.0025972836379383074,"116":0.1017856248250901,"117":-0.0002270326881383893,"118":0.014154065227023916,"119":-0.07404291324202544,"120":0.024906711618928344,"121":-0.077775786325578,"122":-0.008126435601008121,"123":-0.030217700359165784,"124":-0.0036598532282198643,"125":0.02418660959961034,"126":0.006783091787349424,"127":-0.034194988062763894,"128":0.0754026788894482,"129":0.10679654787042783,"130":0.12281865051360732,"131":0.017097948501007765,"132":-0.023222435994952283,"133":0.02229101617392529,"134":-0.002318722763464025,"135":-0.08008417839224204,"136":0.04095478661555926,"137":0.032882603426516194,"138":0.019019466837008826,"139":-0.030469537629125364,"140":0.10881899456965405,"141":0.015495876797444167,"142":-0.07565742594554836,"143":0.0302340514264887,"144":0.06907905966872073,"145":-0.005119412901050803,"146":-0.08212773749009784,"147":0.05463673804711689,"148":-0.09125917652806431,"149":-0.03368945809654904,"150":0.05566722957416322,"151":-0.0223732565155843,"152":0.03949222392032092,"153":0.07688946034662897,"154":0.04338124667902664,"155":-0.0153182565574175,"156":0.02973880579146117,"157":0.004606593619779348,"158":0.11674068009541308,"159":-0.020547277824506882,"160":-0.03710406677067,"161":0.007604740615399221,"162":0.001975324955482016,"163":0.06075973778988424,"164":0.06809006797375616,"165":-0.11100114618778859,"166":-0.055589256543768485,"167":-0.04828966017466053,"168":-0.013360039557750428,"169":0.07993274236126835,"170":0.05185374431543124,"171":0.02330106997968132,"172":0.006666829995426744,"173":0.02371909482884232,"174":0.0728941960541487,"175":-0.001835185673337396,"176":-0.018193670764665562,"177":-0.012357059423856957,"178":0.028720113709837958,"179":0.047799233653368266,"180":0.0842171389279045,"181":0.012879405622421526,"182":0.03846139173934178,"183":0.02843365235782856,"184":0.03232046085069273,"185":0.04723778557216648,"186":-0.02991900167897074,"187":-0.1270956947376254,"188":-0.10601939045059681,"189":-0.0645617249750205,"190":0.05018526444687189,"191":0.04111715179553478}},{"sx":1,"sy":1,"depth":192,"w":{"0":0.11729340788135743,"1":0.22826937986935136,"2":0.035876178064622385,"3":-0.05191753547679654,"4":-0.09829859879987787,"5":0.0029163460918385765,"6":-0.04930968033376341,"7":-0.1055979581370038,"8":-0.12904273501488991,"9":-0.056048481777104524,"10":-0.09968641552932667,"11":-0.035029137087268,"12":0.004486352443098052,"13":-0.021852045644223973,"14":-0.011589788968051629,"15":0.014883999450470203,"16":-0.0012651485574074204,"17":0.06696065158927374,"18":0.03760902497698024,"19":-0.05068878769032908,"20":-0.13786556462053826,"21":-0.004930396099694402,"22":-0.05868616633688266,"23":0.0037273098389476724,"24":0.04345484341282603,"25":0.02779946601109564,"26":-0.05135354603207654,"27":-0.05246886466756107,"28":-0.022212315559851398,"29":0.0020600452189275735,"30":-0.1400383595544278,"31":0.1083358641045308,"32":-0.0012752541390392191,"33":-0.054059906397553814,"34":0.05702516283961389,"35":0.03223359617594651,"36":0.11571398462569073,"37":-0.010975106905865492,"38":-0.0011005994070496766,"39":0.007241296862243126,"40":0.08403290577056352,"41":0.015617003809250999,"42":-0.056992092418529136,"43":-0.05532096330518987,"44":-0.008126644007824946,"45":-0.03768948039159205,"46":0.058811717401860406,"47":-0.04347768251151339,"48":-0.012257159686820633,"49":-0.030830231426808612,"50":-0.003279852251821518,"51":0.10955734520363779,"52":-0.020404448115647403,"53":-0.008598350075721862,"54":0.07957245351433677,"55":0.001028538859919812,"56":-0.042414624906830276,"57":-0.011628235981294923,"58":-0.004720757302335262,"59":-0.07974995873724532,"60":0.10260521144651862,"61":-0.03484392338013771,"62":0.0884307186907622,"63":-0.009166181633769682,"64":0.09967434936471578,"65":0.0035790941238242483,"66":0.07047177498560532,"67":0.007557627281463968,"68":0.08951506638854656,"69":-0.06777956005380545,"70":0.004538573676804266,"71":0.04535788850072481,"72":0.08655811351209694,"73":0.049930751882749765,"74":-0.05743971569622373,"75":0.0043847151263768196,"76":-0.058744660654875214,"77":-0.020000229783793864,"78":0.12356309526259475,"79":0.03230024365948922,"80":-0.05328911096266143,"81":0.03958629159518997,"82":0.03926349680798074,"83":-0.049722471654278545,"84":-0.03346916718947167,"85":0.019774888012872884,"86":0.03782820314749357,"87":-0.025943954583812465,"88":0.055570712373942656,"89":0.06215985043612741,"90":-0.07224805963802196,"91":0.043657321834500815,"92":-0.07005383493596284,"93":0.0029349852908547333,"94":-0.055035640589296005,"95":0.010389713990263831,"96":0.043209169911479196,"97":0.06252100015243481,"98":-0.0343429084701539,"99":0.015845108816477445,"100":-0.03808183026629066,"101":-0.16165676272223092,"102":0.02757577838248385,"103":0.05462603800111417,"104":-0.05592389080478979,"105":0.06986982959385481,"106":0.09101961105326835,"107":0.04651424016286329,"108":0.08806792156261495,"109":0.09952003644870058,"110":0.036532269277720526,"111":-0.04392342063712048,"112":-0.06243885095999855,"113":-0.08287604642624394,"114":0.01962044546589891,"115":-0.009629844828922015,"116":0.026071501249106385,"117":-0.008775856628046788,"118":-0.011464102786293557,"119":0.013931000595649671,"120":-0.05022280012281513,"121":0.026311893238285568,"122":-0.05515052611175049,"123":-0.06054137529972838,"124":-0.03574307298249394,"125":-0.023060126455059577,"126":-0.13068720416381013,"127":-0.04460643988258976,"128":-0.09871544424933802,"129":0.17542659090081034,"130":0.040527144151779514,"131":0.030755931637195665,"132":0.08925320227012314,"133":0.15733872590228945,"134":0.11482370774816408,"135":0.1365703902591231,"136":0.08489058241799242,"137":0.13416276507865305,"138":0.1344891701857553,"139":0.025311621759439525,"140":-0.023814984983464047,"141":0.020516313806295962,"142":0.06514140541639374,"143":0.0242017474518465,"144":0.005386307647678775,"145":-0.01489140099954144,"146":0.04688143222534151,"147":0.07020475730262353,"148":0.025417139065675668,"149":-0.058931233065129804,"150":-0.00622608008543407,"151":0.06850312489205766,"152":0.06045311371504218,"153":0.05667829120680659,"154":-0.12054952530582773,"155":0.029141967737570933,"156":0.09584691741773577,"157":0.018741066915855725,"158":0.08244201327883,"159":0.11317261311289928,"160":-0.06993681201716748,"161":-0.027654398215669795,"162":-0.03287645837325321,"163":0.06560019535807925,"164":0.0382972253247839,"165":-0.017708633008992704,"166":-0.012680840471093689,"167":0.07380684317972537,"168":0.017290193419385928,"169":0.09685594451778111,"170":0.037190981441894894,"171":0.0831271415985544,"172":0.03125422220060935,"173":0.013772044809063444,"174":-0.10839609717084167,"175":0.04240521365249602,"176":-0.08445871489054384,"177":0.028869867860918597,"178":-0.08086417681084493,"179":0.041272151989088,"180":-0.04826589125331213,"181":-0.021424278307544578,"182":0.02074430611457773,"183":-0.03627614820295859,"184":0.004984499510792137,"185":0.09708417922286829,"186":-0.007552084362431258,"187":-0.03448757831530477,"188":-0.04199517314798166,"189":-0.08238274782027073,"190":0.0038521471743201735,"191":0.05299889239194387}},{"sx":1,"sy":1,"depth":192,"w":{"0":-0.22726327176963562,"1":-0.10962951103390829,"2":-0.24615991695284875,"3":-0.19706707110902977,"4":0.05570712330632395,"5":-0.07435666435858612,"6":-0.12842988352488696,"7":-0.04429812658870201,"8":-0.03548429405893984,"9":-0.024875132499918406,"10":0.04054352042356963,"11":-0.03413742575277325,"12":-0.04921437271035161,"13":0.00458800218583451,"14":-0.05382823471605344,"15":-0.0433431436858446,"16":-0.06092712051116443,"17":0.0008785423734120761,"18":-0.09986680777795137,"19":-0.03487061504026594,"20":0.052983240331313644,"21":0.010322177285849,"22":0.020894651334973483,"23":0.006211455741915894,"24":-0.002401459670166475,"25":-0.0013630368834704875,"26":0.0705202615549918,"27":-0.1081434363491595,"28":-0.08636725880639959,"29":0.05384237064175304,"30":-0.04560596996961542,"31":-0.04680915012939982,"32":-0.08201909588342209,"33":0.0655777410547881,"34":-0.08674588115752772,"35":-0.07267767314434492,"36":0.08277737688803218,"37":0.07066934060825439,"38":-0.04767473453647952,"39":-0.060912976891501554,"40":-0.049483639970205176,"41":-0.029493872931061985,"42":0.06918277960949258,"43":-0.025611659583561305,"44":0.06823703625083939,"45":0.031402665434719576,"46":-0.14417237365779187,"47":-0.002169319115865563,"48":0.06108259704708368,"49":-0.024625135126348657,"50":-0.03789209450845153,"51":-0.0537728496475668,"52":0.05105722633397901,"53":0.01872555863178038,"54":0.013040805375080835,"55":0.038520768361987985,"56":-0.00253150685129204,"57":0.05704010748338695,"58":-0.005543460022876109,"59":-0.12612192503419487,"60":0.0325839940571512,"61":0.0532772436134967,"62":-0.00019996113072436297,"63":0.010658345556133745,"64":0.22110345831718972,"65":0.04963584674435606,"66":-0.0008643918758607579,"67":-0.034753202404991385,"68":0.0673784965476905,"69":0.01532365083747939,"70":0.06435459147063324,"71":0.012720146983120236,"72":-0.012134347478937808,"73":0.11673045714706407,"74":0.02288039037862768,"75":-0.04069779213196257,"76":-0.047793299709190634,"77":-0.006707078756918669,"78":-0.035760976225812625,"79":0.07001432090474889,"80":-0.0016853445374532142,"81":0.08580714547282661,"82":-0.05442037435151884,"83":0.07973326301112839,"84":-0.026693461216386133,"85":-0.058083550511986284,"86":-0.025678057646129647,"87":0.02044002919118137,"88":-0.06580165182094504,"89":0.00017603595426250629,"90":0.01925907218063969,"91":0.016358239961871145,"92":-0.024030196177662326,"93":-0.015543391240353564,"94":0.080793461147044,"95":0.015440732120676363,"96":-0.06120790931889995,"97":-0.004826213636933813,"98":-0.03722328702065807,"99":0.01729765254468291,"100":0.039883273950367254,"101":-0.036173489271602056,"102":0.08144303944862159,"103":-0.023779173982666466,"104":0.020924509796112708,"105":0.008912403050975237,"106":0.015343253404266299,"107":-0.03996384619493093,"108":-0.028839702577799387,"109":0.01297429566273331,"110":-0.06356708031394677,"111":0.022668001498788348,"112":0.07000677243989535,"113":0.023992757333048734,"114":0.03970712352435157,"115":-0.025797588051029517,"116":0.06380885737162649,"117":0.033071758573620144,"118":-0.06968218227152989,"119":0.047800760748238705,"120":0.07719260738156411,"121":-0.0360648402370621,"122":-0.07390036657206142,"123":0.05465860179871392,"124":-0.011042732859353173,"125":-0.016654640953473094,"126":0.008651061810335595,"127":0.032367838552261566,